<?xml version="1.0"?>
<opencv_storage>
<cascade>
  <stageType>BOOST</stageType>
  <featureType>LBP</featureType>
  <height>24</height>
  <width>24</width>
  <stageParams>
    <boostType>GAB</boostType>
    <minHitRate>9.9500000476837158e-01</minHitRate>
    <maxFalseAlarm>5.0000000000000000e-01</maxFalseAlarm>
    <weightTrimRate>9.4999999999999996e-01</weightTrimRate>
    <maxDepth>1</maxDepth>
    <maxWeakCount>100</maxWeakCount></stageParams>
  <featureParams>
    <maxCatCount>256</maxCatCount>
    <featSize>1</featSize></featureParams>
  <stageNum>10</stageNum>
  <stages>
    <!-- stage 0 -->
    <_>
      <maxWeakCount>6</maxWeakCount>
      <stageThreshold>-1.4748462438583374e+00</stageThreshold>
      <weakClassifiers>
        <_>
          <internalNodes>
            0 -1 6 -134217730 -134258721 25182216 1393630689 -84156418
            -69528075 536871080 1397182499</internalNodes>
          <leafValues>
            -7.2821527719497681e-01 4.0121793746948242e-01</leafValues></_>
        <_>
          <internalNodes>
            0 -1 97 146688173 145403709 -268502273 -1427116995
            -1229258753 -1342214161 -1140851713 -1946165505</internalNodes>
          <leafValues>
            -6.2171894311904907e-01 4.5049807429313660e-01</leafValues></_>
        <_>
          <internalNodes>
            0 -1 10 -1880789129 -18546689 1735391071 -201394436
            -320507147 -8912905 -26738873 -45295</internalNodes>
          <leafValues>
            -4.9061900377273560e-01 4.8582753539085388e-01</leafValues></_>
        <_>
          <internalNodes>
            0 -1 94 -1089 -1360593483 -471220251 -2139832321 -595
            1845483509 -65539 -2131731203</internalNodes>
          <leafValues>
            -5.4091113805770874e-01 4.2332673072814941e-01</leafValues></_>
        <_>
          <internalNodes>
            0 -1 32 -23008116 -1119242 -292630794 -14369297 -707199746
            -122914566 -289345811 -75112796</internalNodes>
          <leafValues>
            -5.0838798284530640e-01 4.0925207734107971e-01</leafValues></_>
        <_>
          <internalNodes>
            0 -1 52 -901632267 -788563970 -7913537 -1946206785
            -1910026505 -566281 -319861599 -1107835724</internalNodes>
          <leafValues>
            -4.7908055782318115e-01 4.6804550290107727e-01</leafValues></_></weakClassifiers></_>
    <!-- stage 1 -->
    <_>
      <maxWeakCount>8</maxWeakCount>
      <stageThreshold>-1.5498294830322266e+00</stageThreshold>
      <weakClassifiers>
        <_>
          <internalNodes>
            0 -1 102 -1073742033 -1074794565 -137642065 -1074840141
            -1409287297 -529 -1096355841 -1360117761</internalNodes>
          <leafValues>
            -5.9987270832061768e-01 4.3419235944747925e-01</leafValues></_>
        <_>
          <internalNodes>
            0 -1 8 -262149 -217366998 -14424749 287523874 -40634881
            -126681996 -302552857 1093879159</internalNodes>
          <leafValues>
            -5.5219203233718872e-01 3.8879609107971191e-01</leafValues></_>
        <_>
          <internalNodes>
            0 -1 42 -1431081167 -1498317833 -1363440389 -1406016016
            1845386133 -1115684898 -319944748 -453515887</internalNodes>
          <leafValues>
            -5.5961251258850098e-01 3.6202985048294067e-01</leafValues></_>
        <_>
          <internalNodes>
            0 -1 95 -1077956817 -931141891 -9437187 -520781955 -82838555
            -1912735239 -3940371 -992477963</internalNodes>
          <leafValues>
            -4.6533745527267456e-01 4.1928404569625854e-01</leafValues></_>
        <_>
          <internalNodes>
            0 -1 77 163281941 -1155399821 2012602071 2147221363
            -2130946863 -805453979 1050205877 -1191382800</internalNodes>
          <leafValues>
            -4.7113594412803650e-01 3.8734671473503113e-01</leafValues></_>
        <_>
          <internalNodes>
            0 -1 79 -1500563375 -34819 -19464193 -239619 819613777
            -92274818 -1091011212 -13467866</internalNodes>
          <leafValues>
            -4.9475076794624329e-01 3.3597013354301453e-01</leafValues></_>
        <_>
          <internalNodes>
            0 -1 7 -1755441839 -1074483535 1874835295 -215182
            -1241565707 -37224453 -1107951662 -322419372</internalNodes>
          <leafValues>
            -4.5430785417556763e-01 3.8817223906517029e-01</leafValues></_>
        <_>
          <internalNodes>
            0 -1 1 -8721682 -69468230 -225256870 -214702698 -666922294
            -76030072 -301740923 1398000964</internalNodes>
          <leafValues>
            -5.8218485116958618e-01 2.9501655697822571e-01</leafValues></_></weakClassifiers></_>
    <!-- stage 2 -->
    <_>
      <maxWeakCount>9</maxWeakCount>
      <stageThreshold>-1.3307875394821167e+00</stageThreshold>
      <weakClassifiers>
        <_>
          <internalNodes>
            0 -1 57 -2066214795 -133121 -1361166405 -252838917
            -1567211787 -84005121 2104889265 -1160075</internalNodes>
          <leafValues>
            -6.1223036050796509e-01 3.3932444453239441e-01</leafValues></_>
        <_>
          <internalNodes>
            0 -1 72 3396725 993211263 -1140918793 -43529 283755775
            -1644168773 -1166895681 -1174405953</internalNodes>
          <leafValues>
            -4.3163153529167175e-01 4.8115241527557373e-01</leafValues></_>
        <_>
          <internalNodes>
            0 -1 28 2138245457 -270537237 -268440842 -831005150
            -552390093 -269267081 -18352398 -1898774988</internalNodes>
          <leafValues>
            -5.3934347629547119e-01 3.7555873394012451e-01</leafValues></_>
        <_>
          <internalNodes>
            0 -1 29 -855716624 -11311049 -27267329 -145561694
            -1134951424 -78376688 -589362438 -15375181</internalNodes>
          <leafValues>
            -4.9547499418258667e-01 3.7377014756202698e-01</leafValues></_>
        <_>
          <internalNodes>
            0 -1 99 -2002629478 -1362690116 -1565557142 -1595540662
            -1577456257 -2072449185 1017429946 -1191203172</internalNodes>
          <leafValues>
            -5.3791981935501099e-01 3.2776045799255371e-01</leafValues></_>
        <_>
          <internalNodes>
            0 -1 22 -286791158 -1285305312 -224464308 -95757782
            -889980225 -185156107 -224199170 -621543708</internalNodes>
          <leafValues>
            -4.8145997524261475e-01 3.3507314324378967e-01</leafValues></_>
        <_>
          <internalNodes>
            0 -1 48 -61983740 -1651511383 1291111941 -1073744305
            1754604740 -5233928 -401800116 -1068105913</internalNodes>
          <leafValues>
            -5.5068236589431763e-01 3.3046320080757141e-01</leafValues></_>
        <_>
          <internalNodes>
            0 -1 24 -1176456715 379770668 -788529217 1068372959 -729110
            1610084223 -1073959172 -1140952836</internalNodes>
          <leafValues>
            -4.4550496339797974e-01 3.5973623394966125e-01</leafValues></_>
        <_>
          <internalNodes>
            0 -1 37 -269033660 -110770 -212272892 1862273864 -1662101696
            -20821904 -29413567 1969446527</internalNodes>
          <leafValues>
            -6.3889688253402710e-01 2.4266663193702698e-01</leafValues></_></weakClassifiers></_>
    <!-- stage 3 -->
    <_>
      <maxWeakCount>11</maxWeakCount>
      <stageThreshold>-1.2905315160751343e+00</stageThreshold>
      <weakClassifiers>
        <_>
          <internalNodes>
            0 -1 13 -1077691 -570434081 -42486619 -135791635 1866415447
            -546080905 1499152897 -143173769</internalNodes>
          <leafValues>
            -6.1160600185394287e-01 2.8505992889404297e-01</leafValues></_>
        <_>
          <internalNodes>
            0 -1 33 -366739760 -50798606 -335581955 -1090641151
            -285368577 -595865735 -570897156 -855773231</internalNodes>
          <leafValues>
            -4.5521056652069092e-01 3.8023826479911804e-01</leafValues></_>
        <_>
          <internalNodes>
            0 -1 75 -3164163 -1789559332 -8391233 -35684353 905912284
            -2046962216 -1111523393 96424122</internalNodes>
          <leafValues>
            -4.6838593482971191e-01 3.5896787047386169e-01</leafValues></_>
        <_>
          <internalNodes>
            0 -1 70 1068646165 -74377 -163119233 -17088673 -10922252
            -513 -277545131 -1107243820</internalNodes>
          <leafValues>
            -4.5738008618354797e-01 3.6127650737762451e-01</leafValues></_>
        <_>
          <internalNodes>
            0 -1 66 -539388 -570950306 -557854441 -35457552 -524287996
            -100727688 -194772984 -534744912</internalNodes>
          <leafValues>
            -6.6152614355087280e-01 2.0576058328151703e-01</leafValues></_>
        <_>
          <internalNodes>
            0 -1 98 175032066 -2140805313 -924454413 1213523437
            -722468865 -780533765 -890511425 -327158819</internalNodes>
          <leafValues>
            -5.2180206775665283e-01 2.8985384106636047e-01</leafValues></_>
        <_>
          <internalNodes>
            0 -1 44 -295505922 -355533061 -1158153482 -1224637280
            -243085457 -1968471301 -237770753 -533248733</internalNodes>
          <leafValues>
            -4.4667145609855652e-01 3.1853672862052917e-01</leafValues></_>
        <_>
          <internalNodes>
            0 -1 26 223565109 131436925 -1250492483 1040016598
            -537953355 -603988993 -553648195 -84873228</internalNodes>
          <leafValues>
            -4.4107130169868469e-01 3.2219022512435913e-01</leafValues></_>
        <_>
          <internalNodes>
            0 -1 39 -23866895 -1443432583 -672010883 -1389101480
            2146797309 813268735 -268563207 -1464080741</internalNodes>
          <leafValues>
            -3.4672927856445313e-01 4.1168791055679321e-01</leafValues></_>
        <_>
          <internalNodes>
            0 -1 18 -760549653 -68362545 -1058869313 -777548126
            941295773 -1184948655 68751102 -666403009</internalNodes>
          <leafValues>
            -3.6541524529457092e-01 4.1326144337654114e-01</leafValues></_>
        <_>
          <internalNodes>
            0 -1 59 273816380 -1150205987 -1916928651 2147351804
            -1351438339 -537068035 -1917056091 -1129837355</internalNodes>
          <leafValues>
            -4.6300125122070313e-01 3.1083336472511292e-01</leafValues></_></weakClassifiers></_>
    <!-- stage 4 -->
    <_>
      <maxWeakCount>9</maxWeakCount>
      <stageThreshold>-1.2561784982681274e+00</stageThreshold>
      <weakClassifiers>
        <_>
          <internalNodes>
            0 -1 100 -365411236 -167903235 -67149841 -33654804 -50397188
            -50331649 -262145 -352321573</internalNodes>
          <leafValues>
            -5.1282578706741333e-01 3.7226799130439758e-01</leafValues></_>
        <_>
          <internalNodes>
            0 -1 80 356144437 -134219971 -692225 -147459 -1073942531
            -8195 -16973891 -4223812</internalNodes>
          <leafValues>
            -3.9430490136146545e-01 4.5290029048919678e-01</leafValues></_>
        <_>
          <internalNodes>
            0 -1 46 -100726704 -270581761 -67163 -93163525 -954973092
            -169869451 -189507504 -554244495</internalNodes>
          <leafValues>
            -5.3837430477142334e-01 3.2007205486297607e-01</leafValues></_>
        <_>
          <internalNodes>
            0 -1 104 -1073741953 -1360085121 -1107427761 -1392967723
            -1098911745 -1367343201 -1080295633 -1375769155</internalNodes>
          <leafValues>
            -4.1318321228027344e-01 3.9587080478668213e-01</leafValues></_>
        <_>
          <internalNodes>
            0 -1 34 -1460732177 543746786 -38277190 -507199328
            -1984168983 -1398013976 -841125539 -867872560</internalNodes>
          <leafValues>
            -5.4382717609405518e-01 3.0623534321784973e-01</leafValues></_>
        <_>
          <internalNodes>
            0 -1 10 266862581 -30605313 -416417797 -1291913224 -52046107
            -1075314689 -62425097 -64794863</internalNodes>
          <leafValues>
            -4.5355248451232910e-01 3.4192141890525818e-01</leafValues></_>
        <_>
          <internalNodes>
            0 -1 35 -263174 -8651659 577283618 2071149635 -7407155
            -182909111 1078150983 1644413954</internalNodes>
          <leafValues>
            -5.3996038436889648e-01 2.7315548062324524e-01</leafValues></_>
        <_>
          <internalNodes>
            0 -1 58 946879605 -1343570444 -2191369 -1083134628 -4268547
            -5953 -269733059 -1392900700</internalNodes>
          <leafValues>
            -5.6873351335525513e-01 2.3418001830577850e-01</leafValues></_>
        <_>
          <internalNodes>
            0 -1 38 -822096209 -110952714 -234456509 -253330734
            1334569578 -12690049 -87203980 -193463435</internalNodes>
          <leafValues>
            -4.4185793399810791e-01 3.0114176869392395e-01</leafValues></_></weakClassifiers></_>
    <!-- stage 5 -->
    <_>
      <maxWeakCount>11</maxWeakCount>
      <stageThreshold>-1.7606737613677979e+00</stageThreshold>
      <weakClassifiers>
        <_>
          <internalNodes>
            0 -1 101 -728302516 -137461763 -161613841 -2051 -12
            -33557825 -1459814403 -454233091</internalNodes>
          <leafValues>
            -5.7068061828613281e-01 2.6710903644561768e-01</leafValues></_>
        <_>
          <internalNodes>
            0 -1 62 989811925 -35361 -205556355 2136692347 886446334
            -33964038 480920765 2067489338</internalNodes>
          <leafValues>
            -5.1508682966232300e-01 3.1826049089431763e-01</leafValues></_>
        <_>
          <internalNodes>
            0 -1 0 -263258243 56747520 -80484911 463560705 -75497475
            -1074885889 -18088517 798221091</internalNodes>
          <leafValues>
            -4.2724391818046570e-01 3.4766453504562378e-01</leafValues></_>
        <_>
          <internalNodes>
            0 -1 88 16764061 -2130712978 -733492225 -203438113 150838223
            -2136224329 484433375 -1866465795</internalNodes>
          <leafValues>
            -4.0404427051544189e-01 3.3510836958885193e-01</leafValues></_>
        <_>
          <internalNodes>
            0 -1 41 -136056 -1200342 -25301425 -1885475395 -135974464
            -2424647 1993673932 -402361</internalNodes>
          <leafValues>
            -4.5977929234504700e-01 2.7908173203468323e-01</leafValues></_>
        <_>
          <internalNodes>
            0 -1 5 -1494811785 -1081739472 -941400745 394772273
            -538052617 -5185 1844805500 -1079902800</internalNodes>
          <leafValues>
            -3.7036237120628357e-01 3.5487118363380432e-01</leafValues></_>
        <_>
          <internalNodes>
            0 -1 84 -123537244 -134742401 747664317 -391193559
            -1865287512 -89658183 -127542632 283372331</internalNodes>
          <leafValues>
            -4.8497298359870911e-01 2.6275482773780823e-01</leafValues></_>
        <_>
          <internalNodes>
            0 -1 14 -844709532 1264887141 -277582802 -345020909
            -411274915 2136946991 -401579008 -80218505</internalNodes>
          <leafValues>
            -4.9901083111763000e-01 2.5491946935653687e-01</leafValues></_>
        <_>
          <internalNodes>
            0 -1 30 -299176948 -423498620 -420814147 -220048092
            -1610670433 -68960563 -1074831363 -1108223563</internalNodes>
          <leafValues>
            -4.0951275825500488e-01 3.1468093395233154e-01</leafValues></_>
        <_>
          <internalNodes>
            0 -1 40 -479790729 -41497131 -1662292231 -1821165576
            -1342386305 -1585201 -387430719 -571746057</internalNodes>
          <leafValues>
            -3.0526265501976013e-01 4.0355581045150757e-01</leafValues></_>
        <_>
          <internalNodes>
            0 -1 87 -1346707651 -1883576724 1602190773 -188743909
            -1444953207 -2138051460 -1073801433 70200668</internalNodes>
          <leafValues>
            -4.7893717885017395e-01 2.7897706627845764e-01</leafValues></_></weakClassifiers></_>
    <!-- stage 6 -->
    <_>
      <maxWeakCount>12</maxWeakCount>
      <stageThreshold>-1.2420041561126709e+00</stageThreshold>
      <weakClassifiers>
        <_>
          <internalNodes>
            0 -1 16 -4468899 -551552005 -1148466433 -3586 -1107358132
            -10487937 -1078201547 -1883504779</internalNodes>
          <leafValues>
            -4.6559610962867737e-01 3.2608696818351746e-01</leafValues></_>
        <_>
          <internalNodes>
            0 -1 27 -84475910 -22355202 -2027501577 -722219141
            -978452481 -89612293 867694463 47433415</internalNodes>
          <leafValues>
            -4.5581331849098206e-01 3.0901229381561279e-01</leafValues></_>
        <_>
          <internalNodes>
            0 -1 76 125171249 -1655310479 1068842519 -9339343 263150335
            -1074004023 -1951856487 -906922821</internalNodes>
          <leafValues>
            -3.6553680896759033e-01 3.8218805193901062e-01</leafValues></_>
        <_>
          <internalNodes>
            0 -1 91 -184942373 -8261 820969323 -30021798 279250111
            -1078215681 836747231 808444647</internalNodes>
          <leafValues>
            -3.9819669723510742e-01 3.4221807122230530e-01</leafValues></_>
        <_>
          <internalNodes>
            0 -1 23 405938047 -383112473 233070079 778839935 -1078034817
            -5378 -537613315 -287506465</internalNodes>
          <leafValues>
            -3.7245991826057434e-01 3.5214427113533020e-01</leafValues></_>
        <_>
          <internalNodes>
            0 -1 19 -195889854 -707396097 -637424948 -67715665 150899888
            -18886723 1252918158 2004502615</internalNodes>
          <leafValues>
            -4.6339163184165955e-01 2.4900062382221222e-01</leafValues></_>
        <_>
          <internalNodes>
            0 -1 56 -1623304328 2136890805 528490297 993148728
            1921415125 -72638513 -80336071 800812655</internalNodes>
          <leafValues>
            -4.8864197731018066e-01 2.6470428705215454e-01</leafValues></_>
        <_>
          <internalNodes>
            0 -1 93 -285491271 -855666781 -1346700301 -1346658387
            -1795887475 -1929383937 -288092695 -789193473</internalNodes>
          <leafValues>
            -3.4005412459373474e-01 3.6212813854217529e-01</leafValues></_>
        <_>
          <internalNodes>
            0 -1 63 1481920625 2139053308 1564441583 -298181601
            -342348821 -2397441 -17465377 -1166443520</internalNodes>
          <leafValues>
            -4.0549093484878540e-01 2.8108045458793640e-01</leafValues></_>
        <_>
          <internalNodes>
            0 -1 50 -554766609 1363126836 -881402085 1262161578
            1182697208 1076237082 1936752127 -13641737</internalNodes>
          <leafValues>
            -2.8295639157295227e-01 3.9750802516937256e-01</leafValues></_>
        <_>
          <internalNodes>
            0 -1 17 -472386418 -1431433020 -1817512212 1627057383
            -335588135 689948056 -102212099 -1208256571</internalNodes>
          <leafValues>
            -3.5291877388954163e-01 3.3349409699440002e-01</leafValues></_>
        <_>
          <internalNodes>
            0 -1 60 -570425346 -671092166 -1745027713 -450500677
            1693888431 -50595585 1073777417 -801963245</internalNodes>
          <leafValues>
            -3.8028272986412048e-01 3.0915331840515137e-01</leafValues></_></weakClassifiers></_>
    <!-- stage 7 -->
    <_>
      <maxWeakCount>14</maxWeakCount>
      <stageThreshold>-1.5887774229049683e+00</stageThreshold>
      <weakClassifiers>
        <_>
          <internalNodes>
            0 -1 83 -222866348 -9087418 -254083585 -67274891 -608219636
            -540582653 -830873763 -582496419</internalNodes>
          <leafValues>
            -5.0851583480834961e-01 2.6433390378952026e-01</leafValues></_>
        <_>
          <internalNodes>
            0 -1 68 -1939876587 2013265309 -366285825 -229122305
            -1620388748 -310476705 -1233496388 2139083871</internalNodes>
          <leafValues>
            -4.0656384825706482e-01 3.4362608194351196e-01</leafValues></_>
        <_>
          <internalNodes>
            0 -1 12 -138522881 -155486598 -102760457 -235703431
            -270576641 -1902449665 2138470263 -151560331</internalNodes>
          <leafValues>
            -3.6475890874862671e-01 3.5483458638191223e-01</leafValues></_>
        <_>
          <internalNodes>
            0 -1 2 -113575408 2117646392 1847002352 691794090 -457716999
            -46609539 -61223686 1077134687</internalNodes>
          <leafValues>
            -4.5361301302909851e-01 2.8446266055107117e-01</leafValues></_>
        <_>
          <internalNodes>
            0 -1 85 -135544835 -2014576767 -789311272 15687489
            -538970631 66622960 -1109444161 99964407</internalNodes>
          <leafValues>
            -5.1448798179626465e-01 2.5169724225997925e-01</leafValues></_>
        <_>
          <internalNodes>
            0 -1 64 105906151 -572523073 -555893034 2095028605 -34146943
            -71935523 1997667257 -60522587</internalNodes>
          <leafValues>
            -3.7058877944946289e-01 3.3141607046127319e-01</leafValues></_>
        <_>
          <internalNodes>
            0 -1 90 -824223117 -585934477 -524301 -70030150 -1084375297
            -1887961217 -5440642 -633643681</internalNodes>
          <leafValues>
            -2.7209815382957458e-01 4.4968137145042419e-01</leafValues></_>
        <_>
          <internalNodes>
            0 -1 47 -433336143 -8388881 -1330320675 -574558330
            -172920585 -679510089 360008447 -633897114</internalNodes>
          <leafValues>
            -3.0542564392089844e-01 3.6881881952285767e-01</leafValues></_>
        <_>
          <internalNodes>
            0 -1 36 -134819644 1844184396 -787952993 1434388510
            -681819964 1706494782 -29925972 1869826591</internalNodes>
          <leafValues>
            -4.4934841990470886e-01 2.5585553050041199e-01</leafValues></_>
        <_>
          <internalNodes>
            0 -1 61 -1283522768 -267201488 -1435973072 -516761414
            -237634127 871814135 -1147289845 28810431</internalNodes>
          <leafValues>
            -4.6828505396842957e-01 2.3686432838439941e-01</leafValues></_>
        <_>
          <internalNodes>
            0 -1 49 1851518511 -1344741386 1867751395 -270994992
            -29888002 -1392776206 1112688127 -923306667</internalNodes>
          <leafValues>
            -3.5067597031593323e-01 3.2432705163955688e-01</leafValues></_>
        <_>
          <internalNodes>
            0 -1 52 1107748593 -721475618 -827417810 232667135 237461203
            -67155407 -1939691387 -1565018924</internalNodes>
          <leafValues>
            -4.1170921921730042e-01 2.6785939931869507e-01</leafValues></_>
        <_>
          <internalNodes>
            0 -1 15 -1140898684 -638460450 -1255940218 -741282094
            1977828849 1351697387 784020727 1130841927</internalNodes>
          <leafValues>
            -5.8766561746597290e-01 1.7653495073318481e-01</leafValues></_>
        <_>
          <internalNodes>
            0 -1 71 425471455 1067222864 -821549059 939350260
            -1200092723 -1140884997 1051209215 -1623717820</internalNodes>
          <leafValues>
            -4.3226706981658936e-01 2.4995458126068115e-01</leafValues></_></weakClassifiers></_>
    <!-- stage 8 -->
    <_>
      <maxWeakCount>14</maxWeakCount>
      <stageThreshold>-1.2955976724624634e+00</stageThreshold>
      <weakClassifiers>
        <_>
          <internalNodes>
            0 -1 9 -1615192751 -36456105 -105950217 -119938437 -2635065
            -285238345 -202947657 -1090826481</internalNodes>
          <leafValues>
            -4.9982729554176331e-01 2.6075896620750427e-01</leafValues></_>
        <_>
          <internalNodes>
            0 -1 86 -1084227619 -1887436803 2141416887 -10519049
            -72417475 -76547123 -77866072 -923413312</internalNodes>
          <leafValues>
            -3.7449312210083008e-01 3.6987435817718506e-01</leafValues></_>
        <_>
          <internalNodes>
            0 -1 3 -6221 -159204630 -270539262 1232804571 -289429313
            -436999170 1022323278 1761079039</internalNodes>
          <leafValues>
            -3.6759001016616821e-01 3.6857995390892029e-01</leafValues></_>
        <_>
          <internalNodes>
            0 -1 73 -1765853417 -46170753 1549169777 -1166721195
            -1090888323 -12944349 527962175 -482910877</internalNodes>
          <leafValues>
            -4.0557125210762024e-01 3.3077862858772278e-01</leafValues></_>
        <_>
          <internalNodes>
            0 -1 43 -882639877 -1712866328 -1791061 -1243224164
            141549565 258891253 -354291843 -330316715</internalNodes>
          <leafValues>
            -3.2590693235397339e-01 3.9022311568260193e-01</leafValues></_>
        <_>
          <internalNodes>
            0 -1 96 -1075839731 -1477983963 -524852 -1594401876
            -1073741858 -1444546051 -1074823169 32986433</internalNodes>
          <leafValues>
            -5.3442806005477905e-01 2.2126077115535736e-01</leafValues></_>
        <_>
          <internalNodes>
            0 -1 51 -53193443 -6140635 2114105215 1927310712 -67416321
            -713655293 -380478081 1564987119</internalNodes>
          <leafValues>
            -3.9861202239990234e-01 3.1739050149917603e-01</leafValues></_>
        <_>
          <internalNodes>
            0 -1 67 -789579339 299465079 -576074825 631925147 1089337789
            -776997393 -982137416 -1241583058</internalNodes>
          <leafValues>
            -3.6747890710830688e-01 3.4791526198387146e-01</leafValues></_>
        <_>
          <internalNodes>
            0 -1 45 -275780130 -578094452 -274760645 -1985229304
            -537929836 1951883484 -537801148 19875346</internalNodes>
          <leafValues>
            -4.8896095156669617e-01 2.4036926031112671e-01</leafValues></_>
        <_>
          <internalNodes>
            0 -1 20 -273752851 -1920475399 -1619015251 1296019132
            -285284214 191822589 -319824789 -546316813</internalNodes>
          <leafValues>
            -2.4963924288749695e-01 4.3817156553268433e-01</leafValues></_>
        <_>
          <internalNodes>
            0 -1 103 -156239877 -2048395523 -59637785 343897837
            -457441678 -4784393 -184877345 -924190721</internalNodes>
          <leafValues>
            -2.9018321633338928e-01 3.8405993580818176e-01</leafValues></_>
        <_>
          <internalNodes>
            0 -1 78 335408673 904111959 -1265508619 1009576202
            -1073914788 -1426072379 -17990313 -926616076</internalNodes>
          <leafValues>
            -4.2581045627593994e-01 2.7366256713867188e-01</leafValues></_>
        <_>
          <internalNodes>
            0 -1 82 -1032339392 -75663009 -658782737 -283051719
            -318783027 -276071109 -958657445 -187445175</internalNodes>
          <leafValues>
            -3.6559072136878967e-01 3.0111306905746460e-01</leafValues></_>
        <_>
          <internalNodes>
            0 -1 55 348911446 -11840005 -888148913 181104987 586646728
            -789353788 1150730890 1836631379</internalNodes>
          <leafValues>
            -4.0707945823669434e-01 2.7046212553977966e-01</leafValues></_></weakClassifiers></_>
    <!-- stage 9 -->
    <_>
      <maxWeakCount>15</maxWeakCount>
      <stageThreshold>-1.4835422039031982e+00</stageThreshold>
      <weakClassifiers>
        <_>
          <internalNodes>
            0 -1 11 -2117932 -151567 -570501131 -205534277 -54563
            -37913795 -814221389 -952369227</internalNodes>
          <leafValues>
            -4.4258683919906616e-01 3.1242311000823975e-01</leafValues></_>
        <_>
          <internalNodes>
            0 -1 4 -9427503 -1075010060 -1246423621 -2291243 -1141538817
            -105927761 1001746367 -536902300</internalNodes>
          <leafValues>
            -4.1899201273918152e-01 3.1833148002624512e-01</leafValues></_>
        <_>
          <internalNodes>
            0 -1 81 801110847 -4342913 -4264262 -1078067284 -1478506577
            -1442840580 -1248868932 -1344309819</internalNodes>
          <leafValues>
            -3.2711267471313477e-01 3.9773747324943542e-01</leafValues></_>
        <_>
          <internalNodes>
            0 -1 69 -173120461 -1183678605 -297473057 2119845883
            -1136978931 -33853355 -105100017 -1356112617</internalNodes>
          <leafValues>
            -3.7718459963798523e-01 3.1345763802528381e-01</leafValues></_>
        <_>
          <internalNodes>
            0 -1 92 -1157899475 -373313740 -678037506 -1870995589
            -152969306 1224330673 -1209013333 -599663160</internalNodes>
          <leafValues>
            -3.7780117988586426e-01 3.0232781171798706e-01</leafValues></_>
        <_>
          <internalNodes>
            0 -1 31 -4201850 2009199874 -191108050 -1335430444
            -287344930 -1061495843 -52302356 -453642671</internalNodes>
          <leafValues>
            -4.5345905423164368e-01 2.3794730007648468e-01</leafValues></_>
        <_>
          <internalNodes>
            0 -1 28 2104691145 -300946982 -352601524 1850198622
            -90983901 -841823443 2063332351 -1902446988</internalNodes>
          <leafValues>
            -3.8316696882247925e-01 2.9518008232116699e-01</leafValues></_>
        <_>
          <internalNodes>
            0 -1 105 -1527413329 -67113033 -1611337745 -14680133
            -1091129351 -371003645 -1745356801 -704643649</internalNodes>
          <leafValues>
            -2.7284327149391174e-01 3.9646828174591064e-01</leafValues></_>
        <_>
          <internalNodes>
            0 -1 21 -30474262 -271610449 -1352233813 -5255425 -4800578
            -546341601 -1393260321 -1178915569</internalNodes>
          <leafValues>
            -2.4506221711635590e-01 4.3316087126731873e-01</leafValues></_>
        <_>
          <internalNodes>
            0 -1 54 -83177730 -1868033314 1125811227 437046552
            -945659682 1154433030 1447067248 1539268095</internalNodes>
          <leafValues>
            -3.5268694162368774e-01 3.0762097239494324e-01</leafValues></_>
        <_>
          <internalNodes>
            0 -1 25 -597432903 2097822710 -282768420 2105537236 -8822821
            -1528859299 -806105891 -1096815905</internalNodes>
          <leafValues>
            -3.1215149164199829e-01 3.5880205035209656e-01</leafValues></_>
        <_>
          <internalNodes>
            0 -1 74 -251665791 -698750913 1927387899 -1182163424
            1894822329 1910485345 1890823835 1362317458</internalNodes>
          <leafValues>
            -3.5863986611366272e-01 3.0536559224128723e-01</leafValues></_>
        <_>
          <internalNodes>
            0 -1 89 41898227 -308402948 1591474683 -2011563014
            1079894052 -1800254284 -1191192473 -1459619288</internalNodes>
          <leafValues>
            -4.0502589941024780e-01 2.5174847245216370e-01</leafValues></_>
        <_>
          <internalNodes>
            0 -1 65 -282981064 -54570921 -11608579 -1343917919 -3202310
            -1095811329 -829547012 -1488966106</internalNodes>
          <leafValues>
            -4.7421813011169434e-01 2.0949119329452515e-01</leafValues></_>
        <_>
          <internalNodes>
            0 -1 53 -1374437417 -984096801 1453449047 -1317406734
            684370829 -1130386686 -1932850723 -1499201548</internalNodes>
          <leafValues>
            -3.2728818058967590e-01 3.1991574168205261e-01</leafValues></_></weakClassifiers></_></stages>
  <features>
    <_>
      <rect>
        0 0 2 4</rect></_>
    <_>
      <rect>
        0 0 7 6</rect></_>
    <_>
      <rect>
        0 1 3 2</rect></_>
    <_>
      <rect>
        0 1 4 1</rect></_>
    <_>
      <rect>
        0 2 1 2</rect></_>
    <_>
      <rect>
        0 3 1 1</rect></_>
    <_>
      <rect>
        0 3 8 7</rect></_>
    <_>
      <rect>
        0 4 1 1</rect></_>
    <_>
      <rect>
        0 5 5 4</rect></_>
    <_>
      <rect>
        0 7 1 2</rect></_>
    <_>
      <rect>
        0 10 1 1</rect></_>
    <_>
      <rect>
        0 11 1 1</rect></_>
    <_>
      <rect>
        0 11 1 2</rect></_>
    <_>
      <rect>
        0 11 2 1</rect></_>
    <_>
      <rect>
        0 11 3 3</rect></_>
    <_>
      <rect>
        0 11 8 4</rect></_>
    <_>
      <rect>
        0 14 1 1</rect></_>
    <_>
      <rect>
        0 15 1 2</rect></_>
    <_>
      <rect>
        0 15 4 3</rect></_>
    <_>
      <rect>
        0 15 8 3</rect></_>
    <_>
      <rect>
        0 17 2 2</rect></_>
    <_>
      <rect>
        0 18 2 2</rect></_>
    <_>
      <rect>
        0 21 3 1</rect></_>
    <_>
      <rect>
        1 0 1 1</rect></_>
    <_>
      <rect>
        1 0 1 2</rect></_>
    <_>
      <rect>
        1 0 3 2</rect></_>
    <_>
      <rect>
        1 1 1 1</rect></_>
    <_>
      <rect>
        1 3 4 3</rect></_>
    <_>
      <rect>
        1 13 1 1</rect></_>
    <_>
      <rect>
        1 14 4 2</rect></_>
    <_>
      <rect>
        1 20 3 1</rect></_>
    <_>
      <rect>
        1 21 3 1</rect></_>
    <_>
      <rect>
        2 0 6 4</rect></_>
    <_>
      <rect>
        2 3 2 1</rect></_>
    <_>
      <rect>
        2 3 3 2</rect></_>
    <_>
      <rect>
        2 5 7 4</rect></_>
    <_>
      <rect>
        2 9 3 4</rect></_>
    <_>
      <rect>
        2 9 6 4</rect></_>
    <_>
      <rect>
        2 21 3 1</rect></_>
    <_>
      <rect>
        3 0 2 2</rect></_>
    <_>
      <rect>
        3 0 3 2</rect></_>
    <_>
      <rect>
        3 0 6 3</rect></_>
    <_>
      <rect>
        3 2 2 1</rect></_>
    <_>
      <rect>
        3 3 2 2</rect></_>
    <_>
      <rect>
        3 5 3 2</rect></_>
    <_>
      <rect>
        3 6 3 3</rect></_>
    <_>
      <rect>
        3 14 1 1</rect></_>
    <_>
      <rect>
        3 17 3 2</rect></_>
    <_>
      <rect>
        4 3 6 2</rect></_>
    <_>
      <rect>
        4 4 3 1</rect></_>
    <_>
      <rect>
        4 9 3 2</rect></_>
    <_>
      <rect>
        4 12 2 2</rect></_>
    <_>
      <rect>
        5 0 2 1</rect></_>
    <_>
      <rect>
        5 2 1 1</rect></_>
    <_>
      <rect>
        5 8 2 2</rect></_>
    <_>
      <rect>
        5 15 6 3</rect></_>
    <_>
      <rect>
        7 9 3 4</rect></_>
    <_>
      <rect>
        8 0 1 1</rect></_>
    <_>
      <rect>
        8 2 1 2</rect></_>
    <_>
      <rect>
        8 4 1 1</rect></_>
    <_>
      <rect>
        8 4 5 5</rect></_>
    <_>
      <rect>
        8 9 5 3</rect></_>
    <_>
      <rect>
        8 14 4 3</rect></_>
    <_>
      <rect>
        8 18 2 2</rect></_>
    <_>
      <rect>
        8 21 2 1</rect></_>
    <_>
      <rect>
        9 1 3 3</rect></_>
    <_>
      <rect>
        9 2 5 4</rect></_>
    <_>
      <rect>
        9 18 5 2</rect></_>
    <_>
      <rect>
        10 0 2 1</rect></_>
    <_>
      <rect>
        10 0 3 2</rect></_>
    <_>
      <rect>
        10 21 1 1</rect></_>
    <_>
      <rect>
        11 5 1 1</rect></_>
    <_>
      <rect>
        11 17 4 2</rect></_>
    <_>
      <rect>
        12 3 2 1</rect></_>
    <_>
      <rect>
        12 7 4 3</rect></_>
    <_>
      <rect>
        12 13 4 3</rect></_>
    <_>
      <rect>
        12 18 3 1</rect></_>
    <_>
      <rect>
        12 19 2 1</rect></_>
    <_>
      <rect>
        12 21 2 1</rect></_>
    <_>
      <rect>
        13 4 2 1</rect></_>
    <_>
      <rect>
        13 18 1 1</rect></_>
    <_>
      <rect>
        14 17 2 1</rect></_>
    <_>
      <rect>
        15 5 2 2</rect></_>
    <_>
      <rect>
        15 5 3 2</rect></_>
    <_>
      <rect>
        15 8 3 3</rect></_>
    <_>
      <rect>
        15 10 3 4</rect></_>
    <_>
      <rect>
        15 15 2 1</rect></_>
    <_>
      <rect>
        15 15 2 2</rect></_>
    <_>
      <rect>
        15 17 3 2</rect></_>
    <_>
      <rect>
        15 20 2 1</rect></_>
    <_>
      <rect>
        15 21 1 1</rect></_>
    <_>
      <rect>
        17 8 2 2</rect></_>
    <_>
      <rect>
        17 12 2 2</rect></_>
    <_>
      <rect>
        18 10 2 3</rect></_>
    <_>
      <rect>
        18 13 2 2</rect></_>
    <_>
      <rect>
        18 14 2 1</rect></_>
    <_>
      <rect>
        18 16 2 1</rect></_>
    <_>
      <rect>
        18 17 2 2</rect></_>
    <_>
      <rect>
        18 20 2 1</rect></_>
    <_>
      <rect>
        20 18 1 1</rect></_>
    <_>
      <rect>
        21 10 1 2</rect></_>
    <_>
      <rect>
        21 11 1 2</rect></_>
    <_>
      <rect>
        21 11 1 4</rect></_>
    <_>
      <rect>
        21 13 1 1</rect></_>
    <_>
      <rect>
        21 16 1 1</rect></_>
    <_>
      <rect>
        21 18 1 1</rect></_></features></cascade>
</opencv_storage>
