<?xml version="1.0"?>
<opencv_storage>
<stage4>
  <maxWeakCount>9</maxWeakCount>
  <stageThreshold>-1.2561784982681274e+00</stageThreshold>
  <weakClassifiers>
    <_>
      <internalNodes>
        0 -1 8435 -365411236 -167903235 -67149841 -33654804 -50397188
        -50331649 -262145 -352321573</internalNodes>
      <leafValues>
        -5.1282578706741333e-01 3.7226799130439758e-01</leafValues></_>
    <_>
      <internalNodes>
        0 -1 7069 356144437 -134219971 -692225 -147459 -1073942531 -8195
        -16973891 -4223812</internalNodes>
      <leafValues>
        -3.9430490136146545e-01 4.5290029048919678e-01</leafValues></_>
    <_>
      <internalNodes>
        0 -1 2563 -100726704 -270581761 -67163 -93163525 -954973092
        -169869451 -189507504 -554244495</internalNodes>
      <leafValues>
        -5.3837430477142334e-01 3.2007205486297607e-01</leafValues></_>
    <_>
      <internalNodes>
        0 -1 8455 -1073741953 -1360085121 -1107427761 -1392967723
        -1098911745 -1367343201 -1080295633 -1375769155</internalNodes>
      <leafValues>
        -4.1318321228027344e-01 3.9587080478668213e-01</leafValues></_>
    <_>
      <internalNodes>
        0 -1 1549 -1460732177 543746786 -38277190 -507199328 -1984168983
        -1398013976 -841125539 -867872560</internalNodes>
      <leafValues>
        -5.4382717609405518e-01 3.0623534321784973e-01</leafValues></_>
    <_>
      <internalNodes>
        0 -1 496 266862581 -30605313 -416417797 -1291913224 -52046107
        -1075314689 -62425097 -64794863</internalNodes>
      <leafValues>
        -4.5355248451232910e-01 3.4192141890525818e-01</leafValues></_>
    <_>
      <internalNodes>
        0 -1 1664 -263174 -8651659 577283618 2071149635 -7407155
        -182909111 1078150983 1644413954</internalNodes>
      <leafValues>
        -5.3996038436889648e-01 2.7315548062324524e-01</leafValues></_>
    <_>
      <internalNodes>
        0 -1 4860 946879605 -1343570444 -2191369 -1083134628 -4268547
        -5953 -269733059 -1392900700</internalNodes>
      <leafValues>
        -5.6873351335525513e-01 2.3418001830577850e-01</leafValues></_>
    <_>
      <internalNodes>
        0 -1 2019 -822096209 -110952714 -234456509 -253330734 1334569578
        -12690049 -87203980 -193463435</internalNodes>
      <leafValues>
        -4.4185793399810791e-01 3.0114176869392395e-01</leafValues></_></weakClassifiers></stage4>
</opencv_storage>
