<?xml version="1.0"?>
<opencv_storage>
<stage6>
  <maxWeakCount>12</maxWeakCount>
  <stageThreshold>-1.2420041561126709e+00</stageThreshold>
  <weakClassifiers>
    <_>
      <internalNodes>
        0 -1 616 -4468899 -551552005 -1148466433 -3586 -1107358132
        -10487937 -1078201547 -1883504779</internalNodes>
      <leafValues>
        -4.6559610962867737e-01 3.2608696818351746e-01</leafValues></_>
    <_>
      <internalNodes>
        0 -1 913 -84475910 -22355202 -2027501577 -722219141 -978452481
        -89612293 867694463 47433415</internalNodes>
      <leafValues>
        -4.5581331849098206e-01 3.0901229381561279e-01</leafValues></_>
    <_>
      <internalNodes>
        0 -1 6792 125171249 -1655310479 1068842519 -9339343 263150335
        -1074004023 -1951856487 -906922821</internalNodes>
      <leafValues>
        -3.6553680896759033e-01 3.8218805193901062e-01</leafValues></_>
    <_>
      <internalNodes>
        0 -1 7930 -184942373 -8261 820969323 -30021798 279250111
        -1078215681 836747231 808444647</internalNodes>
      <leafValues>
        -3.9819669723510742e-01 3.4221807122230530e-01</leafValues></_>
    <_>
      <internalNodes>
        0 -1 736 405938047 -383112473 233070079 778839935 -1078034817
        -5378 -537613315 -287506465</internalNodes>
      <leafValues>
        -3.7245991826057434e-01 3.5214427113533020e-01</leafValues></_>
    <_>
      <internalNodes>
        0 -1 663 -195889854 -707396097 -637424948 -67715665 150899888
        -18886723 1252918158 2004502615</internalNodes>
      <leafValues>
        -4.6339163184165955e-01 2.4900062382221222e-01</leafValues></_>
    <_>
      <internalNodes>
        0 -1 4622 -1623304328 2136890805 528490297 993148728 1921415125
        -72638513 -80336071 800812655</internalNodes>
      <leafValues>
        -4.8864197731018066e-01 2.6470428705215454e-01</leafValues></_>
    <_>
      <internalNodes>
        0 -1 8134 -285491271 -855666781 -1346700301 -1346658387
        -1795887475 -1929383937 -288092695 -789193473</internalNodes>
      <leafValues>
        -3.4005412459373474e-01 3.6212813854217529e-01</leafValues></_>
    <_>
      <internalNodes>
        0 -1 5222 1481920625 2139053308 1564441583 -298181601 -342348821
        -2397441 -17465377 -1166443520</internalNodes>
      <leafValues>
        -4.0549093484878540e-01 2.8108045458793640e-01</leafValues></_>
    <_>
      <internalNodes>
        0 -1 3021 -554766609 1363126836 -881402085 1262161578 1182697208
        1076237082 1936752127 -13641737</internalNodes>
      <leafValues>
        -2.8295639157295227e-01 3.9750802516937256e-01</leafValues></_>
    <_>
      <internalNodes>
        0 -1 641 -472386418 -1431433020 -1817512212 1627057383
        -335588135 689948056 -102212099 -1208256571</internalNodes>
      <leafValues>
        -3.5291877388954163e-01 3.3349409699440002e-01</leafValues></_>
    <_>
      <internalNodes>
        0 -1 4957 -570425346 -671092166 -1745027713 -450500677
        1693888431 -50595585 1073777417 -801963245</internalNodes>
      <leafValues>
        -3.8028272986412048e-01 3.0915331840515137e-01</leafValues></_></weakClassifiers></stage6>
</opencv_storage>
