<?xml version="1.0"?>
<opencv_storage>
<stage9>
  <maxWeakCount>15</maxWeakCount>
  <stageThreshold>-1.4835422039031982e+00</stageThreshold>
  <weakClassifiers>
    <_>
      <internalNodes>
        0 -1 528 -2117932 -151567 -570501131 -205534277 -54563 -37913795
        -814221389 -952369227</internalNodes>
      <leafValues>
        -4.4258683919906616e-01 3.1242311000823975e-01</leafValues></_>
    <_>
      <internalNodes>
        0 -1 121 -9427503 -1075010060 -1246423621 -2291243 -1141538817
        -105927761 1001746367 -536902300</internalNodes>
      <leafValues>
        -4.1899201273918152e-01 3.1833148002624512e-01</leafValues></_>
    <_>
      <internalNodes>
        0 -1 7341 801110847 -4342913 -4264262 -1078067284 -1478506577
        -1442840580 -1248868932 -1344309819</internalNodes>
      <leafValues>
        -3.2711267471313477e-01 3.9773747324943542e-01</leafValues></_>
    <_>
      <internalNodes>
        0 -1 5721 -173120461 -1183678605 -297473057 2119845883
        -1136978931 -33853355 -105100017 -1356112617</internalNodes>
      <leafValues>
        -3.7718459963798523e-01 3.1345763802528381e-01</leafValues></_>
    <_>
      <internalNodes>
        0 -1 7965 -1157899475 -373313740 -678037506 -1870995589
        -152969306 1224330673 -1209013333 -599663160</internalNodes>
      <leafValues>
        -3.7780117988586426e-01 3.0232781171798706e-01</leafValues></_>
    <_>
      <internalNodes>
        0 -1 1375 -4201850 2009199874 -191108050 -1335430444 -287344930
        -1061495843 -52302356 -453642671</internalNodes>
      <leafValues>
        -4.5345905423164368e-01 2.3794730007648468e-01</leafValues></_>
    <_>
      <internalNodes>
        0 -1 1254 2104691145 -300946982 -352601524 1850198622 -90983901
        -841823443 2063332351 -1902446988</internalNodes>
      <leafValues>
        -3.8316696882247925e-01 2.9518008232116699e-01</leafValues></_>
    <_>
      <internalNodes>
        0 -1 8459 -1527413329 -67113033 -1611337745 -14680133
        -1091129351 -371003645 -1745356801 -704643649</internalNodes>
      <leafValues>
        -2.7284327149391174e-01 3.9646828174591064e-01</leafValues></_>
    <_>
      <internalNodes>
        0 -1 699 -30474262 -271610449 -1352233813 -5255425 -4800578
        -546341601 -1393260321 -1178915569</internalNodes>
      <leafValues>
        -2.4506221711635590e-01 4.3316087126731873e-01</leafValues></_>
    <_>
      <internalNodes>
        0 -1 3538 -83177730 -1868033314 1125811227 437046552 -945659682
        1154433030 1447067248 1539268095</internalNodes>
      <leafValues>
        -3.5268694162368774e-01 3.0762097239494324e-01</leafValues></_>
    <_>
      <internalNodes>
        0 -1 753 -597432903 2097822710 -282768420 2105537236 -8822821
        -1528859299 -806105891 -1096815905</internalNodes>
      <leafValues>
        -3.1215149164199829e-01 3.5880205035209656e-01</leafValues></_>
    <_>
      <internalNodes>
        0 -1 6645 -251665791 -698750913 1927387899 -1182163424
        1894822329 1910485345 1890823835 1362317458</internalNodes>
      <leafValues>
        -3.5863986611366272e-01 3.0536559224128723e-01</leafValues></_>
    <_>
      <internalNodes>
        0 -1 7631 41898227 -308402948 1591474683 -2011563014 1079894052
        -1800254284 -1191192473 -1459619288</internalNodes>
      <leafValues>
        -4.0502589941024780e-01 2.5174847245216370e-01</leafValues></_>
    <_>
      <internalNodes>
        0 -1 5300 -282981064 -54570921 -11608579 -1343917919 -3202310
        -1095811329 -829547012 -1488966106</internalNodes>
      <leafValues>
        -4.7421813011169434e-01 2.0949119329452515e-01</leafValues></_>
    <_>
      <internalNodes>
        0 -1 3310 -1374437417 -984096801 1453449047 -1317406734
        684370829 -1130386686 -1932850723 -1499201548</internalNodes>
      <leafValues>
        -3.2728818058967590e-01 3.1991574168205261e-01</leafValues></_></weakClassifiers></stage9>
</opencv_storage>
