<?xml version="1.0"?>
<opencv_storage>
<stage3>
  <maxWeakCount>11</maxWeakCount>
  <stageThreshold>-1.2905315160751343e+00</stageThreshold>
  <weakClassifiers>
    <_>
      <internalNodes>
        0 -1 532 -1077691 -570434081 -42486619 -135791635 1866415447
        -546080905 1499152897 -143173769</internalNodes>
      <leafValues>
        -6.1160600185394287e-01 2.8505992889404297e-01</leafValues></_>
    <_>
      <internalNodes>
        0 -1 1541 -366739760 -50798606 -335581955 -1090641151 -285368577
        -595865735 -570897156 -855773231</internalNodes>
      <leafValues>
        -4.5521056652069092e-01 3.8023826479911804e-01</leafValues></_>
    <_>
      <internalNodes>
        0 -1 6747 -3164163 -1789559332 -8391233 -35684353 905912284
        -2046962216 -1111523393 96424122</internalNodes>
      <leafValues>
        -4.6838593482971191e-01 3.5896787047386169e-01</leafValues></_>
    <_>
      <internalNodes>
        0 -1 6068 1068646165 -74377 -163119233 -17088673 -10922252 -513
        -277545131 -1107243820</internalNodes>
      <leafValues>
        -4.5738008618354797e-01 3.6127650737762451e-01</leafValues></_>
    <_>
      <internalNodes>
        0 -1 5350 -539388 -570950306 -557854441 -35457552 -524287996
        -100727688 -194772984 -534744912</internalNodes>
      <leafValues>
        -6.6152614355087280e-01 2.0576058328151703e-01</leafValues></_>
    <_>
      <internalNodes>
        0 -1 8185 175032066 -2140805313 -924454413 1213523437 -722468865
        -780533765 -890511425 -327158819</internalNodes>
      <leafValues>
        -5.2180206775665283e-01 2.8985384106636047e-01</leafValues></_>
    <_>
      <internalNodes>
        0 -1 2282 -295505922 -355533061 -1158153482 -1224637280
        -243085457 -1968471301 -237770753 -533248733</internalNodes>
      <leafValues>
        -4.4667145609855652e-01 3.1853672862052917e-01</leafValues></_>
    <_>
      <internalNodes>
        0 -1 792 223565109 131436925 -1250492483 1040016598 -537953355
        -603988993 -553648195 -84873228</internalNodes>
      <leafValues>
        -4.4107130169868469e-01 3.2219022512435913e-01</leafValues></_>
    <_>
      <internalNodes>
        0 -1 2033 -23866895 -1443432583 -672010883 -1389101480
        2146797309 813268735 -268563207 -1464080741</internalNodes>
      <leafValues>
        -3.4672927856445313e-01 4.1168791055679321e-01</leafValues></_>
    <_>
      <internalNodes>
        0 -1 651 -760549653 -68362545 -1058869313 -777548126 941295773
        -1184948655 68751102 -666403009</internalNodes>
      <leafValues>
        -3.6541524529457092e-01 4.1326144337654114e-01</leafValues></_>
    <_>
      <internalNodes>
        0 -1 4929 273816380 -1150205987 -1916928651 2147351804
        -1351438339 -537068035 -1917056091 -1129837355</internalNodes>
      <leafValues>
        -4.6300125122070313e-01 3.1083336472511292e-01</leafValues></_></weakClassifiers></stage3>
</opencv_storage>
