<?xml version="1.0"?>
<opencv_storage>
<stage2>
  <maxWeakCount>9</maxWeakCount>
  <stageThreshold>-1.3307875394821167e+00</stageThreshold>
  <weakClassifiers>
    <_>
      <internalNodes>
        0 -1 4784 -2066214795 -133121 -1361166405 -252838917 -1567211787
        -84005121 2104889265 -1160075</internalNodes>
      <leafValues>
        -6.1223036050796509e-01 3.3932444453239441e-01</leafValues></_>
    <_>
      <internalNodes>
        0 -1 6419 3396725 993211263 -1140918793 -43529 283755775
        -1644168773 -1166895681 -1174405953</internalNodes>
      <leafValues>
        -4.3163153529167175e-01 4.8115241527557373e-01</leafValues></_>
    <_>
      <internalNodes>
        0 -1 1254 2138245457 -270537237 -268440842 -831005150 -552390093
        -269267081 -18352398 -1898774988</internalNodes>
      <leafValues>
        -5.3934347629547119e-01 3.7555873394012451e-01</leafValues></_>
    <_>
      <internalNodes>
        0 -1 1285 -855716624 -11311049 -27267329 -145561694 -1134951424
        -78376688 -589362438 -15375181</internalNodes>
      <leafValues>
        -4.9547499418258667e-01 3.7377014756202698e-01</leafValues></_>
    <_>
      <internalNodes>
        0 -1 8367 -2002629478 -1362690116 -1565557142 -1595540662
        -1577456257 -2072449185 1017429946 -1191203172</internalNodes>
      <leafValues>
        -5.3791981935501099e-01 3.2776045799255371e-01</leafValues></_>
    <_>
      <internalNodes>
        0 -1 730 -286791158 -1285305312 -224464308 -95757782 -889980225
        -185156107 -224199170 -621543708</internalNodes>
      <leafValues>
        -4.8145997524261475e-01 3.3507314324378967e-01</leafValues></_>
    <_>
      <internalNodes>
        0 -1 2836 -61983740 -1651511383 1291111941 -1073744305
        1754604740 -5233928 -401800116 -1068105913</internalNodes>
      <leafValues>
        -5.5068236589431763e-01 3.3046320080757141e-01</leafValues></_>
    <_>
      <internalNodes>
        0 -1 737 -1176456715 379770668 -788529217 1068372959 -729110
        1610084223 -1073959172 -1140952836</internalNodes>
      <leafValues>
        -4.4550496339797974e-01 3.5973623394966125e-01</leafValues></_>
    <_>
      <internalNodes>
        0 -1 1807 -269033660 -110770 -212272892 1862273864 -1662101696
        -20821904 -29413567 1969446527</internalNodes>
      <leafValues>
        -6.3889688253402710e-01 2.4266663193702698e-01</leafValues></_></weakClassifiers></stage2>
</opencv_storage>
