<?xml version="1.0"?>
<opencv_storage>
<stage2>
  <maxWeakCount>31</maxWeakCount>
  <stageThreshold>-1.5782154798507690e+00</stageThreshold>
  <weakClassifiers>
    <_>
      <internalNodes>
        0 -1 132748 -5.5349733680486679e-02</internalNodes>
      <leafValues>
        4.0331491827964783e-01 -3.3333334326744080e-01</leafValues></_>
    <_>
      <internalNodes>
        0 -1 153922 -7.5792049756273627e-04</internalNodes>
      <leafValues>
        5.9364062547683716e-01 -1.6774056851863861e-01</leafValues></_>
    <_>
      <internalNodes>
        0 -1 279 -3.6329761147499084e-02</internalNodes>
      <leafValues>
        3.7895211577415466e-01 -2.3510764539241791e-01</leafValues></_>
    <_>
      <internalNodes>
        0 -1 141522 1.6018722206354141e-02</internalNodes>
      <leafValues>
        -2.1861208975315094e-01 3.6785241961479187e-01</leafValues></_>
    <_>
      <internalNodes>
        0 -1 141330 8.9067430235445499e-04</internalNodes>
      <leafValues>
        -1.4448405802249908e-01 4.3291869759559631e-01</leafValues></_>
    <_>
      <internalNodes>
        0 -1 159477 2.8053151909261942e-03</internalNodes>
      <leafValues>
        -3.1476768851280212e-01 2.1302758157253265e-01</leafValues></_>
    <_>
      <internalNodes>
        0 -1 116726 4.0169665589928627e-03</internalNodes>
      <leafValues>
        -1.0918217897415161e-01 5.2336513996124268e-01</leafValues></_>
    <_>
      <internalNodes>
        0 -1 121245 2.2588856518268585e-03</internalNodes>
      <leafValues>
        -1.3705199956893921e-01 5.1076072454452515e-01</leafValues></_>
    <_>
      <internalNodes>
        0 -1 58768 -3.2801926136016846e-02</internalNodes>
      <leafValues>
        2.3016087710857391e-01 -2.6408055424690247e-01</leafValues></_>
    <_>
      <internalNodes>
        0 -1 118962 -4.4482480734586716e-03</internalNodes>
      <leafValues>
        3.5141485929489136e-01 -1.3899569213390350e-01</leafValues></_>
    <_>
      <internalNodes>
        0 -1 80691 1.2089123483747244e-03</internalNodes>
      <leafValues>
        -1.0584168881177902e-01 5.8973330259323120e-01</leafValues></_>
    <_>
      <internalNodes>
        0 -1 23798 3.0282959342002869e-02</internalNodes>
      <leafValues>
        -9.5647849142551422e-02 5.0052636861801147e-01</leafValues></_>
    <_>
      <internalNodes>
        0 -1 106849 -5.9528807178139687e-03</internalNodes>
      <leafValues>
        1.7681305110454559e-01 -3.1326380372047424e-01</leafValues></_>
    <_>
      <internalNodes>
        0 -1 98657 -2.7510948712006211e-05</internalNodes>
      <leafValues>
        1.8246173858642578e-01 -2.6129436492919922e-01</leafValues></_>
    <_>
      <internalNodes>
        0 -1 113863 1.9625384360551834e-02</internalNodes>
      <leafValues>
        -1.2154299020767212e-01 4.0215721726417542e-01</leafValues></_>
    <_>
      <internalNodes>
        0 -1 79844 -1.2676754966378212e-02</internalNodes>
      <leafValues>
        4.0134650468826294e-01 -1.6878628730773926e-01</leafValues></_>
    <_>
      <internalNodes>
        0 -1 160945 -3.5914799664169550e-03</internalNodes>
      <leafValues>
        -4.5454040169715881e-01 1.2020793557167053e-01</leafValues></_>
    <_>
      <internalNodes>
        0 -1 98410 2.0064539276063442e-03</internalNodes>
      <leafValues>
        -1.1795987933874130e-01 3.9839601516723633e-01</leafValues></_>
    <_>
      <internalNodes>
        0 -1 55549 -1.6159538645297289e-03</internalNodes>
      <leafValues>
        4.0364536643028259e-01 -1.1642723530530930e-01</leafValues></_>
    <_>
      <internalNodes>
        0 -1 26082 5.3127977997064590e-02</internalNodes>
      <leafValues>
        1.1603733897209167e-01 -4.4987666606903076e-01</leafValues></_>
    <_>
      <internalNodes>
        0 -1 18013 1.6679492546245456e-04</internalNodes>
      <leafValues>
        1.1049955338239670e-01 -3.9752125740051270e-01</leafValues></_>
    <_>
      <internalNodes>
        0 -1 51220 -1.9796876586042345e-04</internalNodes>
      <leafValues>
        -3.7355333566665649e-01 9.9080942571163177e-02</leafValues></_>
    <_>
      <internalNodes>
        0 -1 141359 -2.9582260176539421e-03</internalNodes>
      <leafValues>
        3.6313164234161377e-01 -1.1998987197875977e-01</leafValues></_>
    <_>
      <internalNodes>
        0 -1 8188 2.5386926718056202e-03</internalNodes>
      <leafValues>
        -7.8494019806385040e-02 4.7625294327735901e-01</leafValues></_>
    <_>
      <internalNodes>
        0 -1 122930 1.7463194672018290e-03</internalNodes>
      <leafValues>
        8.0482833087444305e-02 -5.4270696640014648e-01</leafValues></_>
    <_>
      <internalNodes>
        0 -1 101638 -3.5361656919121742e-03</internalNodes>
      <leafValues>
        3.1392788887023926e-01 -1.3024835288524628e-01</leafValues></_>
    <_>
      <internalNodes>
        0 -1 91 2.8279657271923497e-05</internalNodes>
      <leafValues>
        -1.9640134274959564e-01 1.9061267375946045e-01</leafValues></_>
    <_>
      <internalNodes>
        0 -1 8481 3.7264831364154816e-02</internalNodes>
      <leafValues>
        -7.4377365410327911e-02 5.1810759305953979e-01</leafValues></_>
    <_>
      <internalNodes>
        0 -1 135130 -1.0800680145621300e-02</internalNodes>
      <leafValues>
        2.4246305227279663e-01 -1.6067582368850708e-01</leafValues></_>
    <_>
      <internalNodes>
        0 -1 22144 -2.8468282835092396e-05</internalNodes>
      <leafValues>
        1.8810048699378967e-01 -1.9435067474842072e-01</leafValues></_>
    <_>
      <internalNodes>
        0 -1 135359 -2.1381515543907881e-03</internalNodes>
      <leafValues>
        2.7352824807167053e-01 -1.3783705234527588e-01</leafValues></_></weakClassifiers></stage2>
</opencv_storage>
