<?xml version="1.0"?>
<opencv_storage>
<stage1>
  <maxWeakCount>19</maxWeakCount>
  <stageThreshold>-1.4300836324691772e+00</stageThreshold>
  <weakClassifiers>
    <_>
      <internalNodes>
        0 -1 132748 -4.6984571963548660e-02</internalNodes>
      <leafValues>
        4.8959177732467651e-01 -3.9837959408760071e-01</leafValues></_>
    <_>
      <internalNodes>
        0 -1 5251 -2.1358313038945198e-02</internalNodes>
      <leafValues>
        4.7173079848289490e-01 -2.6324975490570068e-01</leafValues></_>
    <_>
      <internalNodes>
        0 -1 141093 4.3157432228326797e-03</internalNodes>
      <leafValues>
        -2.1887861192226410e-01 4.5078229904174805e-01</leafValues></_>
    <_>
      <internalNodes>
        0 -1 80322 -6.5216742223128676e-04</internalNodes>
      <leafValues>
        4.5696988701820374e-01 -2.0299680531024933e-01</leafValues></_>
    <_>
      <internalNodes>
        0 -1 128957 2.9491833411157131e-03</internalNodes>
      <leafValues>
        -1.9243627786636353e-01 4.6963754296302795e-01</leafValues></_>
    <_>
      <internalNodes>
        0 -1 25753 -7.5960619142279029e-04</internalNodes>
      <leafValues>
        3.3862176537513733e-01 -2.3655372858047485e-01</leafValues></_>
    <_>
      <internalNodes>
        0 -1 142732 -2.3680679500102997e-02</internalNodes>
      <leafValues>
        4.2993444204330444e-01 -1.9559653103351593e-01</leafValues></_>
    <_>
      <internalNodes>
        0 -1 38406 -1.0552329476922750e-03</internalNodes>
      <leafValues>
        2.2221417725086212e-01 -3.8255870342254639e-01</leafValues></_>
    <_>
      <internalNodes>
        0 -1 120792 3.5290184896439314e-03</internalNodes>
      <leafValues>
        -1.3186593353748322e-01 5.8202648162841797e-01</leafValues></_>
    <_>
      <internalNodes>
        0 -1 24766 2.6704347692430019e-03</internalNodes>
      <leafValues>
        -1.9745583832263947e-01 3.1179574131965637e-01</leafValues></_>
    <_>
      <internalNodes>
        0 -1 159639 2.6963796699419618e-05</internalNodes>
      <leafValues>
        -2.8540143370628357e-01 2.2067947685718536e-01</leafValues></_>
    <_>
      <internalNodes>
        0 -1 113890 1.8958725035190582e-02</internalNodes>
      <leafValues>
        -1.9057887792587280e-01 4.0986633300781250e-01</leafValues></_>
    <_>
      <internalNodes>
        0 -1 108337 -5.8916741982102394e-03</internalNodes>
      <leafValues>
        1.9279216229915619e-01 -3.9278835058212280e-01</leafValues></_>
    <_>
      <internalNodes>
        0 -1 18013 1.6411789692938328e-04</internalNodes>
      <leafValues>
        1.2146001309156418e-01 -4.5202115178108215e-01</leafValues></_>
    <_>
      <internalNodes>
        0 -1 160677 -1.4807144179940224e-03</internalNodes>
      <leafValues>
        3.6689251661300659e-01 -1.5340688824653625e-01</leafValues></_>
    <_>
      <internalNodes>
        0 -1 2915 1.9984993338584900e-01</internalNodes>
      <leafValues>
        1.0554176568984985e-01 -5.7325869798660278e-01</leafValues></_>
    <_>
      <internalNodes>
        0 -1 89775 -1.1990607017651200e-03</internalNodes>
      <leafValues>
        3.3431488275527954e-01 -1.7327502369880676e-01</leafValues></_>
    <_>
      <internalNodes>
        0 -1 137667 -4.2473291978240013e-03</internalNodes>
      <leafValues>
        3.6579951643943787e-01 -1.4628523588180542e-01</leafValues></_>
    <_>
      <internalNodes>
        0 -1 126117 2.0600119605660439e-02</internalNodes>
      <leafValues>
        -7.3374561965465546e-02 6.1015361547470093e-01</leafValues></_></weakClassifiers></stage1>
</opencv_storage>
