<?xml version="1.0"?>
<opencv_storage>
<cascade>
  <stageType>BOOST</stageType>
  <featureType>LBP</featureType>
  <height>24</height>
  <width>24</width>
  <stageParams>
    <boostType>GAB</boostType>
    <minHitRate>9.9500000476837158e-01</minHitRate>
    <maxFalseAlarm>5.0000000000000000e-01</maxFalseAlarm>
    <weightTrimRate>9.4999999999999996e-01</weightTrimRate>
    <maxDepth>1</maxDepth>
    <maxWeakCount>100</maxWeakCount></stageParams>
  <featureParams>
    <maxCatCount>256</maxCatCount>
    <featSize>1</featSize></featureParams>
  <stageNum>10</stageNum>
  <stages>
    <!-- stage 0 -->
    <_>
      <maxWeakCount>11</maxWeakCount>
      <stageThreshold>-1.8707354068756104e+00</stageThreshold>
      <weakClassifiers>
        <_>
          <internalNodes>
            0 -1 26 -1 -305920 -1078452225 1560348928 -3342337 -2466295
            -1540097 1527976195</internalNodes>
          <leafValues>
            -6.4820355176925659e-01 3.1185066699981689e-01</leafValues></_>
        <_>
          <internalNodes>
            0 -1 150 -587139904 -49217880 -645866475 -15075055
            -132069204 -33765204 -402601780 -113128958</internalNodes>
          <leafValues>
            -5.2529704570770264e-01 3.6152645945549011e-01</leafValues></_>
        <_>
          <internalNodes>
            0 -1 234 80 286262043 431166975 393434931 11030776
            -1985157121 10485947 163259067</internalNodes>
          <leafValues>
            -5.1131695508956909e-01 3.3417344093322754e-01</leafValues></_>
        <_>
          <internalNodes>
            0 -1 141 -130006960 -546026416 -103260163 1563974960 2097400
            -8880332 673189887 -1173140278</internalNodes>
          <leafValues>
            -3.9370152354240417e-01 3.3818471431732178e-01</leafValues></_>
        <_>
          <internalNodes>
            0 -1 284 -2305583 -1577234980 -8585801 -1246424683
            -1885610535 497606136 -2017488385 29036698</internalNodes>
          <leafValues>
            -3.1216990947723389e-01 3.5916200280189514e-01</leafValues></_>
        <_>
          <internalNodes>
            0 -1 8 -201047968 494928074 83886097 285278208 -1179334259
            -1190490710 -1966866291 -2000551929</internalNodes>
          <leafValues>
            -3.3687037229537964e-01 2.8802490234375000e-01</leafValues></_>
        <_>
          <internalNodes>
            0 -1 84 -364842414 -250565088 -72262241 1595134546
            -881601806 -1881894416 -919119829 -445132745</internalNodes>
          <leafValues>
            -2.9476764798164368e-01 2.9793545603752136e-01</leafValues></_>
        <_>
          <internalNodes>
            0 -1 194 1950368788 -206434019 894992095 1962936144
            -398719796 -88143859 -326361414 -1087288374</internalNodes>
          <leafValues>
            -2.9236701130867004e-01 2.8396138548851013e-01</leafValues></_>
        <_>
          <internalNodes>
            0 -1 333 -805269456 157342208 -1619462815 -1315400960
            -766115880 -2004036664 -1827490849 -450102305</internalNodes>
          <leafValues>
            -2.6444143056869507e-01 3.0513215065002441e-01</leafValues></_>
        <_>
          <internalNodes>
            0 -1 262 -575666096 -549775819 -1880854595 -1625610595
            -1195893510 -1099016838 -1397353221 -1154416637</internalNodes>
          <leafValues>
            -2.7988320589065552e-01 2.7373906970024109e-01</leafValues></_>
        <_>
          <internalNodes>
            0 -1 188 -573639172 -2278411 -1464188404 -150925250
            -1599544120 -1758661139 672670876 8857122</internalNodes>
          <leafValues>
            -4.1536256670951843e-01 1.7913919687271118e-01</leafValues></_></weakClassifiers></_>
    <!-- stage 1 -->
    <_>
      <maxWeakCount>19</maxWeakCount>
      <stageThreshold>-1.9419071674346924e+00</stageThreshold>
      <weakClassifiers>
        <_>
          <internalNodes>
            0 -1 161 343365076 2134071123 1610307551 528683546 419103999
            -111361 987716347 2075853435</internalNodes>
          <leafValues>
            -6.1949241161346436e-01 9.5458664000034332e-02</leafValues></_>
        <_>
          <internalNodes>
            0 -1 169 -640615224 -45026568 -590545899 -2294440 -267858776
            -34026264 -939210548 -20132216</internalNodes>
          <leafValues>
            -4.8064512014389038e-01 2.6730045676231384e-01</leafValues></_>
        <_>
          <internalNodes>
            0 -1 56 -103497476 -34340507 -65605 -15137297 -359399352
            -598731440 -46136227 2064844591</internalNodes>
          <leafValues>
            -3.9639735221862793e-01 2.7968341112136841e-01</leafValues></_>
        <_>
          <internalNodes>
            0 -1 11 -572728086 -3014720 -116337596 -48118527 -2143036694
            -67110228 1612726471 -682507261</internalNodes>
          <leafValues>
            -3.1749361753463745e-01 3.1025055050849915e-01</leafValues></_>
        <_>
          <internalNodes>
            0 -1 105 -725040936 -178942791 -1265665 -539976303
            -1174402920 -13607622 -1977593858 -1172217997</internalNodes>
          <leafValues>
            -2.8226503729820251e-01 3.3745300769805908e-01</leafValues></_>
        <_>
          <internalNodes>
            0 -1 297 -3181073 -2050022272 -705818459 367793588
            -1812990465 268401149 -707054081 301797563</internalNodes>
          <leafValues>
            -3.4636509418487549e-01 2.6298642158508301e-01</leafValues></_>
        <_>
          <internalNodes>
            0 -1 128 -1442799216 -34593264 504397809 366280708
            -2146387716 -1909424263 -1635199812 -2004352864</internalNodes>
          <leafValues>
            -3.5526162385940552e-01 2.4131594598293304e-01</leafValues></_>
        <_>
          <internalNodes>
            0 -1 221 1481661524 -546038044 1060134909 -14604796
            -128401415 -2099723 -296682503 -1204746752</internalNodes>
          <leafValues>
            -3.5432097315788269e-01 2.2120259702205658e-01</leafValues></_>
        <_>
          <internalNodes>
            0 -1 197 679479984 2134770608 804654909 959390001
            -1946154824 -72687880 1335364795 -1886581755</internalNodes>
          <leafValues>
            -3.3128041028976440e-01 2.3293508589267731e-01</leafValues></_>
        <_>
          <internalNodes>
            0 -1 322 -797645136 -168759579 -135998792 -34235027
            -795042562 -1728124692 -1260519489 -103027745</internalNodes>
          <leafValues>
            -1.9042097032070160e-01 3.6137056350708008e-01</leafValues></_>
        <_>
          <internalNodes>
            0 -1 43 -555024674 -781137166 -2128065883 -1820909525
            -264224748 2054307876 -773825180 1395868163</internalNodes>
          <leafValues>
            -3.8678938150405884e-01 1.7165672779083252e-01</leafValues></_>
        <_>
          <internalNodes>
            0 -1 256 269488208 -10202080 957832703 -37151976 1055940528
            -33685516 -1738121910 -1734344640</internalNodes>
          <leafValues>
            -2.9428443312644958e-01 2.0899587869644165e-01</leafValues></_>
        <_>
          <internalNodes>
            0 -1 315 1512177808 -4387467 682766269 488636703 1548786938
            -1430880522 487988666 941624882</internalNodes>
          <leafValues>
            -3.2704079151153564e-01 1.7510566115379333e-01</leafValues></_>
        <_>
          <internalNodes>
            0 -1 7 -775687757 2044895274 -1984912131 389514513
            -789976113 -814730561 -868777749 -2004115201</internalNodes>
          <leafValues>
            -1.7081663012504578e-01 3.5518142580986023e-01</leafValues></_>
        <_>
          <internalNodes>
            0 -1 52 -1765754016 -9528342 923522432 -1814317616
            -1507536223 -1100693793 -146378112 -147108077</internalNodes>
          <leafValues>
            -2.0887467265129089e-01 2.6788949966430664e-01</leafValues></_>
        <_>
          <internalNodes>
            0 -1 71 -25371412 -307238273 -589987409 -570585203
            -444709746 92241621 -1397072641 -8434605</internalNodes>
          <leafValues>
            -1.9093459844589233e-01 2.9457783699035645e-01</leafValues></_>
        <_>
          <internalNodes>
            0 -1 278 139511856 87769023 525944119 -4957134 -1581400385
            201064383 568967612 297474234</internalNodes>
          <leafValues>
            -3.3192533254623413e-01 1.7147940397262573e-01</leafValues></_>
        <_>
          <internalNodes>
            0 -1 185 -697772968 1383140370 -218219811 1561231317
            -194218764 -84770958 -100116344 -660906541</internalNodes>
          <leafValues>
            -2.0024247467517853e-01 2.6307412981987000e-01</leafValues></_>
        <_>
          <internalNodes>
            0 -1 155 -21050148 -213237557 -63959367 -817755638
            1580220664 -87406392 1779498749 2070102023</internalNodes>
          <leafValues>
            -2.4856886267662048e-01 2.1434961259365082e-01</leafValues></_></weakClassifiers></_>
    <!-- stage 2 -->
    <_>
      <maxWeakCount>27</maxWeakCount>
      <stageThreshold>-1.9133428335189819e+00</stageThreshold>
      <weakClassifiers>
        <_>
          <internalNodes>
            0 -1 137 1434207262 2144796767 -33817089 1057706395
            -218758964 -65458 -322655041 2138774299</internalNodes>
          <leafValues>
            -5.9458798170089722e-01 -3.8489736616611481e-03</leafValues></_>
        <_>
          <internalNodes>
            0 -1 20 -165609730 -15668495 -931078413 -217981661
            -863962625 -1123862 -2011106061 -743180861</internalNodes>
          <leafValues>
            -3.3773335814476013e-01 2.7810233831405640e-01</leafValues></_>
        <_>
          <internalNodes>
            0 -1 38 -67118594 -107017 458232352 1597185793 -2097491716
            -671197988 1212289272 322572571</internalNodes>
          <leafValues>
            -4.0670415759086609e-01 2.0646762847900391e-01</leafValues></_>
        <_>
          <internalNodes>
            0 -1 298 -84041 -1242159867 -11265 -570721299 -206570564
            -1880703820 -1125144322 27983880</internalNodes>
          <leafValues>
            -2.4740123748779297e-01 3.3247506618499756e-01</leafValues></_>
        <_>
          <internalNodes>
            0 -1 120 -121061160 -573744999 -727393025 -575045833
            -129361190 -92381637 -1476386852 -1205380105</internalNodes>
          <leafValues>
            -2.3295266926288605e-01 2.8171825408935547e-01</leafValues></_>
        <_>
          <internalNodes>
            0 -1 263 -260124592 -537174443 -579117057 -539404973
            -330825544 -2157313 136613896 -217983934</internalNodes>
          <leafValues>
            -2.8311702609062195e-01 2.3578155040740967e-01</leafValues></_>
        <_>
          <internalNodes>
            0 -1 122 -39792336 -243238118 1609397977 22150808
            -1079128579 -1107755651 -402683656 -1917869944</internalNodes>
          <leafValues>
            -2.4637082219123840e-01 2.6031118631362915e-01</leafValues></_>
        <_>
          <internalNodes>
            0 -1 272 272815292 273825846 -1310659589 -682100738 3797432
            -1996767814 1088483790 -2131492870</internalNodes>
          <leafValues>
            -2.6923918724060059e-01 2.2252087295055389e-01</leafValues></_>
        <_>
          <internalNodes>
            0 -1 89 -573586355 -1074982718 -1275113985 -1445261225
            251399389 -1610676002 721307981 -832633633</internalNodes>
          <leafValues>
            -2.0441366732120514e-01 2.8588381409645081e-01</leafValues></_>
        <_>
          <internalNodes>
            0 -1 158 1213744372 -76346307 2113953501 1397817377
            -197108226 1953660925 -124583941 857955703</internalNodes>
          <leafValues>
            -3.0606293678283691e-01 1.8337197601795197e-01</leafValues></_>
        <_>
          <internalNodes>
            0 -1 27 33689712 -1759247947 -343365651 -1075509243
            -1326238220 -1074462800 -271475202 -910098096</internalNodes>
          <leafValues>
            -2.9320564866065979e-01 1.9577310979366302e-01</leafValues></_>
        <_>
          <internalNodes>
            0 -1 339 -1068728312 -753016914 1073550242 -1061531472
            -153178184 -225193794 -1225868833 -119546149</internalNodes>
          <leafValues>
            -2.0335575938224792e-01 2.6555469632148743e-01</leafValues></_>
        <_>
          <internalNodes>
            0 -1 130 -13567746 -546289865 -2065021894 -548058336
            -51053313 -1083430664 183828719 1079066625</internalNodes>
          <leafValues>
            -3.1220865249633789e-01 1.6037847101688385e-01</leafValues></_>
        <_>
          <internalNodes>
            0 -1 224 -701866916 -573759928 974001647 -1180949412
            -21215536 -166235071 -1707066418 -1300225472</internalNodes>
          <leafValues>
            -2.7804481983184814e-01 1.9395774602890015e-01</leafValues></_>
        <_>
          <internalNodes>
            0 -1 253 -100048 -706475672 397161853 1697192255 -1279478880
            77389768 -1275184337 96418042</internalNodes>
          <leafValues>
            -2.7455362677574158e-01 1.9161283969879150e-01</leafValues></_>
        <_>
          <internalNodes>
            0 -1 332 -569504624 -785172691 469636337 -13023447
            -1665626408 -1661612165 -1206216562 -1098248566</internalNodes>
          <leafValues>
            -1.9121181964874268e-01 2.5472792983055115e-01</leafValues></_>
        <_>
          <internalNodes>
            0 -1 12 -109446772 524390408 795986953 117556745 -1111867970
            -10658670 -1073799333 -1349679526</internalNodes>
          <leafValues>
            -2.0498852431774139e-01 2.3586826026439667e-01</leafValues></_>
        <_>
          <internalNodes>
            0 -1 39 -6236352 -5636768 -1145569294 -67137285 -567940393
            796835825 1374147490 -1797308349</internalNodes>
          <leafValues>
            -1.9633956253528595e-01 2.4646168947219849e-01</leafValues></_>
        <_>
          <internalNodes>
            0 -1 311 -1599021338 -2013291203 -1212198165 -1798449687
            -2114566145 100653557 -1208008709 301404411</internalNodes>
          <leafValues>
            -2.6167896389961243e-01 1.7318214476108551e-01</leafValues></_>
        <_>
          <internalNodes>
            0 -1 80 -354242063 2053161313 1832349109 -43951880 -21574419
            -1370891589 -437304103 -1408299830</internalNodes>
          <leafValues>
            -1.7725932598114014e-01 2.5230136513710022e-01</leafValues></_>
        <_>
          <internalNodes>
            0 -1 289 -929541104 -1178991582 820002560 725298730
            1279017468 -1204540367 475270328 1359021619</internalNodes>
          <leafValues>
            -3.0874308943748474e-01 1.4156818389892578e-01</leafValues></_>
        <_>
          <internalNodes>
            0 -1 16 -623715088 1527991808 2142715728 221255168
            -1174598568 -289454661 1449418020 1076166656</internalNodes>
          <leafValues>
            -4.2065194249153137e-01 1.0086147487163544e-01</leafValues></_>
        <_>
          <internalNodes>
            0 -1 220 880024400 -36425340 -545398819 2133853206
            1009862336 -1193013418 -2069756760 -1104016302</internalNodes>
          <leafValues>
            -2.4687398970127106e-01 1.7685179412364960e-01</leafValues></_>
        <_>
          <internalNodes>
            0 -1 157 -486613780 -419804084 712138713 1799065192
            -528710472 1894469880 1584968637 2064864535</internalNodes>
          <leafValues>
            -2.3590669035911560e-01 1.7618231475353241e-01</leafValues></_>
        <_>
          <internalNodes>
            0 -1 266 -1909967824 292624352 521223129 2046368893
            -1364706884 -1092788769 817372561 -1155004400</internalNodes>
          <leafValues>
            -3.1206133961677551e-01 1.2818457186222076e-01</leafValues></_>
        <_>
          <internalNodes>
            0 -1 236 -692201296 368911880 -5341489 -537706810 1291298178
            -1560349291 2133183418 -563563</internalNodes>
          <leafValues>
            -1.5129189193248749e-01 2.6578375697135925e-01</leafValues></_>
        <_>
          <internalNodes>
            0 -1 164 -756361406 -14519857 2130179550 989987367
            -1594064671 -234952997 -86187719 2080328063</internalNodes>
          <leafValues>
            -1.9204893708229065e-01 2.1367876231670380e-01</leafValues></_></weakClassifiers></_>
    <!-- stage 3 -->
    <_>
      <maxWeakCount>37</maxWeakCount>
      <stageThreshold>-1.8659543991088867e+00</stageThreshold>
      <weakClassifiers>
        <_>
          <internalNodes>
            0 -1 97 -178723 -45703 -277929985 -10014733 -51118019
            -8972937 -386655137 -8945793</internalNodes>
          <leafValues>
            -5.0119662284851074e-01 2.1427320316433907e-02</leafValues></_>
        <_>
          <internalNodes>
            0 -1 323 -1310805 -1484814851 503315915 1071073973
            -268501281 -2031185985 -50332465 83691707</internalNodes>
          <leafValues>
            -2.9799202084541321e-01 2.3190589249134064e-01</leafValues></_>
        <_>
          <internalNodes>
            0 -1 25 -905912542 -232725984 -550240905 268519424
            -127402241 -222959367 1897258879 270778931</internalNodes>
          <leafValues>
            -3.6545729637145996e-01 1.8737253546714783e-01</leafValues></_>
        <_>
          <internalNodes>
            0 -1 123 -613221240 -539951478 805088777 -1155399816
            -47129468 -1913692 -363206587 -2753469</internalNodes>
          <leafValues>
            -2.6668614149093628e-01 2.4506615102291107e-01</leafValues></_>
        <_>
          <internalNodes>
            0 -1 160 -855896996 -86030252 -29864739 1593968483
            -329502721 -646695081 -233545729 993673151</internalNodes>
          <leafValues>
            -3.1016770005226135e-01 1.7730414867401123e-01</leafValues></_>
        <_>
          <internalNodes>
            0 -1 92 -94905616 -85669208 1400765153 -33829919 2146914691
            -940632617 1945576069 -215485145</internalNodes>
          <leafValues>
            -2.1003860235214233e-01 2.6969623565673828e-01</leafValues></_>
        <_>
          <internalNodes>
            0 -1 247 4379777 1559392595 2100690431 2098494707 -995303939
            -1934694948 271965629 25941691</internalNodes>
          <leafValues>
            -2.7934294939041138e-01 1.8950261175632477e-01</leafValues></_>
        <_>
          <internalNodes>
            0 -1 133 -867762226 -800919818 1650853183 1936974451
            -2143234848 1894830197 155190543 1669231935</internalNodes>
          <leafValues>
            -2.6798340678215027e-01 1.9377811253070831e-01</leafValues></_>
        <_>
          <internalNodes>
            0 -1 75 -790639404 -623051046 -1604767809 -572772598
            -255718774 -16884674 -267186438 -790134785</internalNodes>
          <leafValues>
            -2.0690755546092987e-01 2.4127726256847382e-01</leafValues></_>
        <_>
          <internalNodes>
            0 -1 44 -1985293840 -51917841 -536871582 -21569 11793073
            -595365935 -254316357 -134225217</internalNodes>
          <leafValues>
            -1.6395296156406403e-01 3.0911311507225037e-01</leafValues></_>
        <_>
          <internalNodes>
            0 -1 18 -109350221 1342237250 1991729986 624679427 -17367041
            -1518999561 678623818 -387777862</internalNodes>
          <leafValues>
            -1.6172294318675995e-01 2.7056792378425598e-01</leafValues></_>
        <_>
          <internalNodes>
            0 -1 254 -1933392 -1184053840 2008778641 -113616971
            -1087178864 -475215088 -1287983319 -1985313664</internalNodes>
          <leafValues>
            -2.2554315626621246e-01 2.0000031590461731e-01</leafValues></_>
        <_>
          <internalNodes>
            0 -1 22 -6 -172800 -1749529176 1496910848 -554373180
            -92507359 -1198587929 810879746</internalNodes>
          <leafValues>
            -3.5601499676704407e-01 1.1607238650321960e-01</leafValues></_>
        <_>
          <internalNodes>
            0 -1 291 -436027388 -139764643 -1108148235 -414628493
            -1036959539 -1565035313 -791374709 -469511609</internalNodes>
          <leafValues>
            -1.8722753226757050e-01 2.1892561018466949e-01</leafValues></_>
        <_>
          <internalNodes>
            0 -1 252 -4661484 494433468 -1073867685 2133790592
            -1833391444 -1077937217 -1665618780 532629187</internalNodes>
          <leafValues>
            -2.1383905410766602e-01 1.8590946495532990e-01</leafValues></_>
        <_>
          <internalNodes>
            0 -1 235 899830992 -736692713 -1628015969 -101024050
            1028797600 -1191773153 326955610 -257425903</internalNodes>
          <leafValues>
            -2.1223223209381104e-01 1.8598350882530212e-01</leafValues></_>
        <_>
          <internalNodes>
            0 -1 49 -25186570 1697383974 -422051228 -272222290
            1692273912 1073941973 -1460400319 1634957059</internalNodes>
          <leafValues>
            -2.8049901127815247e-01 1.3949052989482880e-01</leafValues></_>
        <_>
          <internalNodes>
            0 -1 21 -2143271611 -1155192524 -1346407011 -69369068
            2139052543 -1111762690 -1080603233 -1128948428</internalNodes>
          <leafValues>
            -2.4251200258731842e-01 1.6184493899345398e-01</leafValues></_>
        <_>
          <internalNodes>
            0 -1 69 -20023612 -271628498 -947975441 -1557590770
            -13675123 267345917 -1249913377 -115095721</internalNodes>
          <leafValues>
            -1.9223819673061371e-01 2.0043841004371643e-01</leafValues></_>
        <_>
          <internalNodes>
            0 -1 231 -328269900 -304034576 1184893329 -804612037
            -269704272 28817842 234881547 11239863</internalNodes>
          <leafValues>
            -2.6260444521903992e-01 1.4581781625747681e-01</leafValues></_>
        <_>
          <internalNodes>
            0 -1 2 -836260080 289436416 817738740 488749749 710905036
            -1087389785 -536950276 -1124141554</internalNodes>
          <leafValues>
            -1.9856584072113037e-01 1.8644036352634430e-01</leafValues></_>
        <_>
          <internalNodes>
            0 -1 85 -799866906 2138103616 -923276162 -610195167
            -195560333 -1301029049 -1068153781 -750399676</internalNodes>
          <leafValues>
            -2.4573168158531189e-01 1.5154783427715302e-01</leafValues></_>
        <_>
          <internalNodes>
            0 -1 180 -538310698 -198025380 -5312514 1058170370
            -1326054151 -251988643 1442782495 2142926778</internalNodes>
          <leafValues>
            -2.1431033313274384e-01 1.7633196711540222e-01</leafValues></_>
        <_>
          <internalNodes>
            0 -1 149 -792838140 2034316195 -1598412099 648316416
            -608125635 -548459757 1140868703 205857367</internalNodes>
          <leafValues>
            -2.7134135365486145e-01 1.3787128031253815e-01</leafValues></_>
        <_>
          <internalNodes>
            0 -1 334 -1088686174 -2071001599 -1616937558 -1979758883
            -1112820025 -2138700796 -1080049681 -1612755755</internalNodes>
          <leafValues>
            -1.8310585618019104e-01 1.9879865646362305e-01</leafValues></_>
        <_>
          <internalNodes>
            0 -1 265 -286350320 -571310081 -894656577 800258865
            -522182428 -1277158857 -257556773 -219956429</internalNodes>
          <leafValues>
            -1.7821705341339111e-01 2.0016132295131683e-01</leafValues></_>
        <_>
          <internalNodes>
            0 -1 136 -252772288 684666635 1969644511 1665346543
            -766050288 1079475285 -170117824 -671618448</internalNodes>
          <leafValues>
            -2.6129400730133057e-01 1.3712261617183685e-01</leafValues></_>
        <_>
          <internalNodes>
            0 -1 207 168980994 -31309663 1324843007 -55114958
            -1462467423 -1329800235 -1365714632 953113394</internalNodes>
          <leafValues>
            -2.6110985875129700e-01 1.4027063548564911e-01</leafValues></_>
        <_>
          <internalNodes>
            0 -1 345 -1462763304 2075045855 -4460662 -1275809853
            -1160026018 1308374041 1002086139 -1423020097</internalNodes>
          <leafValues>
            -2.0123127102851868e-01 1.7918102443218231e-01</leafValues></_>
        <_>
          <internalNodes>
            0 -1 196 -558377640 -223142063 -757190401 -209511392
            -158701624 -266436890 -91616056 -762099775</internalNodes>
          <leafValues>
            -1.7071583867073059e-01 2.1586738526821136e-01</leafValues></_>
        <_>
          <internalNodes>
            0 -1 260 -624507888 -1331523422 1366358480 725266722
            -881572622 -1975115356 -1040820942 91395</internalNodes>
          <leafValues>
            -2.9201126098632813e-01 1.2170200794935226e-01</leafValues></_>
        <_>
          <internalNodes>
            0 -1 59 -570425984 738159005 2130656866 -419438981
            -1896059188 1316822037 -942086449 -922913769</internalNodes>
          <leafValues>
            -1.5657845139503479e-01 2.2187122702598572e-01</leafValues></_>
        <_>
          <internalNodes>
            0 -1 159 -536934834 -42660805 -395639431 2071432962
            -119607365 -185187019 -60784643 -213463121</internalNodes>
          <leafValues>
            -1.4623497426509857e-01 2.3730723559856415e-01</leafValues></_>
        <_>
          <internalNodes>
            0 -1 213 1073750544 -1153956176 531480249 195989266
            2079067580 -1685279620 241470504 1259080964</internalNodes>
          <leafValues>
            -3.3775013685226440e-01 1.0286891460418701e-01</leafValues></_>
        <_>
          <internalNodes>
            0 -1 36 -867764494 807861286 -139739183 2102202591
            -992544769 -1345520451 -679004402 -1035477749</internalNodes>
          <leafValues>
            -1.5964326262474060e-01 2.1870857477188110e-01</leafValues></_>
        <_>
          <internalNodes>
            0 -1 295 -223300976 -396841295 -1863289620 -118196512
            -1609563991 -2002038871 -1279737425 1372292611</internalNodes>
          <leafValues>
            -2.1797597408294678e-01 1.5469536185264587e-01</leafValues></_>
        <_>
          <internalNodes>
            0 -1 175 -495988460 -12661622 -599892203 523373834
            -1504782923 -174664457 1014919957 -1414833429</internalNodes>
          <leafValues>
            -1.7868219316005707e-01 1.8692602217197418e-01</leafValues></_></weakClassifiers></_>
    <!-- stage 4 -->
    <_>
      <maxWeakCount>18</maxWeakCount>
      <stageThreshold>-1.8221726417541504e+00</stageThreshold>
      <weakClassifiers>
        <_>
          <internalNodes>
            0 -1 96 -145 -277872641 -285217043 -286785537 1945859941
            2012708727 -167805852 -84410569</internalNodes>
          <leafValues>
            -5.6835836172103882e-01 1.1946773529052734e-01</leafValues></_>
        <_>
          <internalNodes>
            0 -1 206 914308983 2147450751 -32769 -17662081 -1073784971
            -32905 -268566156 -26053260</internalNodes>
          <leafValues>
            -3.9029747247695923e-01 2.6576763391494751e-01</leafValues></_>
        <_>
          <internalNodes>
            0 -1 68 -4751553 -285315073 -352355585 -285282561 2146907973
            -32897 -4556939 -16779915</internalNodes>
          <leafValues>
            -2.6505681872367859e-01 3.6409032344818115e-01</leafValues></_>
        <_>
          <internalNodes>
            0 -1 279 217339189 -1050641 -526465 -16387 -1073905795 -1
            -1073905803 -201676</internalNodes>
          <leafValues>
            -3.1279325485229492e-01 2.9504346847534180e-01</leafValues></_>
        <_>
          <internalNodes>
            0 -1 32 -18 -537002004 1349569290 -781062392 -855706113
            -453314699 -1073692285 1936029479</internalNodes>
          <leafValues>
            -3.2199046015739441e-01 2.4597726762294769e-01</leafValues></_>
        <_>
          <internalNodes>
            0 -1 24 669286263 782532413 -268435465 631664437 1879047669
            -272629761 -557200 -1130301648</internalNodes>
          <leafValues>
            -3.4020635485649109e-01 2.1230125427246094e-01</leafValues></_>
        <_>
          <internalNodes>
            0 -1 324 -145 -2001045507 -83 -520257544 -4259905
            -1898447427 -1079859280 -1063193420</internalNodes>
          <leafValues>
            -2.7662989497184753e-01 2.4521090090274811e-01</leafValues></_>
        <_>
          <internalNodes>
            0 -1 108 -1023425010 2028928974 -357630454 1621819086
            1189037636 1195847238 -353698432 1882718071</internalNodes>
          <leafValues>
            -4.9689453840255737e-01 1.2002293765544891e-01</leafValues></_>
        <_>
          <internalNodes>
            0 -1 299 -1092665539 -1351680644 -205 -1082322980
            -1111492739 -1912602689 -1073902092 -1112783600</internalNodes>
          <leafValues>
            -2.7615875005722046e-01 2.1578218042850494e-01</leafValues></_>
        <_>
          <internalNodes>
            0 -1 58 -335551497 -610091009 -201361440 -151061640
            939485779 -176685193 -152144015 -159974031</internalNodes>
          <leafValues>
            -2.2598546743392944e-01 2.5236439704895020e-01</leafValues></_>
        <_>
          <internalNodes>
            0 -1 111 -262996242 -246349961 -86185412 -2838609 -662835731
            -55 -61035512 -36831286</internalNodes>
          <leafValues>
            -2.5371867418289185e-01 2.2423051297664642e-01</leafValues></_>
        <_>
          <internalNodes>
            0 -1 327 7553191 -2064453637 2013147826 -922747975 850993069
            -2065703073 -1126170764 -1141129238</internalNodes>
          <leafValues>
            -2.5972458720207214e-01 2.0558696985244751e-01</leafValues></_>
        <_>
          <internalNodes>
            0 -1 281 171854917 -1342378027 -34819 -147787984 -1248168332
            -1744830977 -1246070955 -227514800</internalNodes>
          <leafValues>
            -3.2048058509826660e-01 1.5796470642089844e-01</leafValues></_>
        <_>
          <internalNodes>
            0 -1 181 -285331617 -16781697 -1097793 1915784958 2137070973
            -125868193 -285728806 -148701186</internalNodes>
          <leafValues>
            -2.0924350619316101e-01 2.3567828536033630e-01</leafValues></_>
        <_>
          <internalNodes>
            0 -1 87 -269490237 -857411610 -1347437147 -852623701
            -1547991621 -440932865 1043804448 -458788573</internalNodes>
          <leafValues>
            -2.0059828460216522e-01 2.2975102066993713e-01</leafValues></_>
        <_>
          <internalNodes>
            0 -1 303 -1879173835 -1392763540 -1342185613 -474211915
            1206902453 -1929449601 -268477388 -856143788</internalNodes>
          <leafValues>
            -2.6192647218704224e-01 1.6897332668304443e-01</leafValues></_>
        <_>
          <internalNodes>
            0 -1 91 -17895826 -789910785 -231818202 -768481233
            1414551348 -802008987 -768280697 1382184575</internalNodes>
          <leafValues>
            -3.4126988053321838e-01 1.2540398538112640e-01</leafValues></_>
        <_>
          <internalNodes>
            0 -1 251 103812917 -436404235 -268435457 -8466443
            -1074298881 -1 -1073856708 -1356070556</internalNodes>
          <leafValues>
            -2.5502488017082214e-01 1.6288571059703827e-01</leafValues></_></weakClassifiers></_>
    <!-- stage 5 -->
    <_>
      <maxWeakCount>35</maxWeakCount>
      <stageThreshold>-1.8227192163467407e+00</stageThreshold>
      <weakClassifiers>
        <_>
          <internalNodes>
            0 -1 287 1035959103 1040137215 -655425 -1073800004
            1073741823 -1073741825 -1073754884 -1073787700</internalNodes>
          <leafValues>
            -4.8197093605995178e-01 9.7418621182441711e-02</leafValues></_>
        <_>
          <internalNodes>
            0 -1 63 -61603 -268468227 -1212429338 -1074003971 -151049644
            2071953407 -1346734287 -805310603</internalNodes>
          <leafValues>
            -2.9618078470230103e-01 2.5347286462783813e-01</leafValues></_>
        <_>
          <internalNodes>
            0 -1 250 70256948 -1074249731 754761727 -1078444172
            -1073795587 -1073774593 -1075036179 -1074254540</internalNodes>
          <leafValues>
            -3.6926761269569397e-01 1.8471069633960724e-01</leafValues></_>
        <_>
          <internalNodes>
            0 -1 246 813047413 -9273481 -8487109 -4292629 1056931583 -1
            -293712084 -18202748</internalNodes>
          <leafValues>
            -2.8123667836189270e-01 2.1231040358543396e-01</leafValues></_>
        <_>
          <internalNodes>
            0 -1 184 2088653949 -12624579 -53453 -97624577 -1076203905
            -41099 -1079492753 -63154120</internalNodes>
          <leafValues>
            -2.1054258942604065e-01 2.4442060291767120e-01</leafValues></_>
        <_>
          <internalNodes>
            0 -1 35 -33554994 -42140586 -128422390 -515854398 -34144265
            -789513376 -924520761 1879080772</internalNodes>
          <leafValues>
            -3.6928534507751465e-01 1.4200988411903381e-01</leafValues></_>
        <_>
          <internalNodes>
            0 -1 27 605947253 603367423 -22545 -1791041 -32777 -1 -49163
            -302654092</internalNodes>
          <leafValues>
            -2.7917179465293884e-01 1.6651873290538788e-01</leafValues></_>
        <_>
          <internalNodes>
            0 -1 273 -273076363 -1099006115 -524353 -49867 -1125905217
            -1074385537 -1380880833 -1222429401</internalNodes>
          <leafValues>
            -1.8653580546379089e-01 2.4006903171539307e-01</leafValues></_>
        <_>
          <internalNodes>
            0 -1 302 7597743 -2063814721 -2063807175 -1040188433
            1090248445 16510715 -858726403 -2069430274</internalNodes>
          <leafValues>
            -2.1508979797363281e-01 2.1315331757068634e-01</leafValues></_>
        <_>
          <internalNodes>
            0 -1 176 1850224404 -363824307 1867558718 706914162
            -294363276 -327778835 -1099776204 171580927</internalNodes>
          <leafValues>
            -3.6958709359169006e-01 1.1158295720815659e-01</leafValues></_>
        <_>
          <internalNodes>
            0 -1 142 -800800756 -53162034 -54628355 1323231162
            -126873803 -1092727266 -265290052 -119832601</internalNodes>
          <leafValues>
            -2.3817460238933563e-01 1.7945621907711029e-01</leafValues></_>
        <_>
          <internalNodes>
            0 -1 83 1646457779 -123667808 1070050671 -3939198 -235407937
            -219152413 -245149429 -439892989</internalNodes>
          <leafValues>
            -1.8421186506748199e-01 2.2985234856605530e-01</leafValues></_>
        <_>
          <internalNodes>
            0 -1 104 -831304605 -270012457 -36949 -269156874 -8956859
            -210247841 -268972163 -277743440</internalNodes>
          <leafValues>
            -2.0493733882904053e-01 2.0090904831886292e-01</leafValues></_>
        <_>
          <internalNodes>
            0 -1 200 -829896484 -654649121 1341788159 200999979
            -69154052 -75265 -34013267 1073417099</internalNodes>
          <leafValues>
            -1.9489142298698425e-01 2.1012823283672333e-01</leafValues></_>
        <_>
          <internalNodes>
            0 -1 296 -137364703 -978580999 -106630112 73404208
            -537526981 150885875 -147457141 93918417</internalNodes>
          <leafValues>
            -2.6163640618324280e-01 1.5798118710517883e-01</leafValues></_>
        <_>
          <internalNodes>
            0 -1 233 578453524 -549818817 2013233151 267590374 -2352424
            -986726419 482131964 1068180010</internalNodes>
          <leafValues>
            -2.8250721096992493e-01 1.3230971992015839e-01</leafValues></_>
        <_>
          <internalNodes>
            0 -1 255 82069301 -11763865 -118849 -98433 1190610917
            -16908289 -553681313 -387951132</internalNodes>
          <leafValues>
            -2.3568870127201080e-01 1.5885463356971741e-01</leafValues></_>
        <_>
          <internalNodes>
            0 -1 55 -891302197 -480081373 -186843916 -180204126
            -680246203 2003968082 1684294704 2000909575</internalNodes>
          <leafValues>
            -3.2548716664314270e-01 1.1206735670566559e-01</leafValues></_>
        <_>
          <internalNodes>
            0 -1 249 -9769152 -8716403 -143131041 -8855836 1095761920
            -545387490 -459480064 -232659952</internalNodes>
          <leafValues>
            -2.9601114988327026e-01 1.2662713229656219e-01</leafValues></_>
        <_>
          <internalNodes>
            0 -1 280 -1884103307 -857804897 -302022657 -805404811
            -1111698113 -1092747265 -1075159235 -1812118235</internalNodes>
          <leafValues>
            -1.9550698995590210e-01 1.8136924505233765e-01</leafValues></_>
        <_>
          <internalNodes>
            0 -1 77 -597428319 -56053842 -10010692 -847250492 -268581409
            -1912808513 -319697667 -1935695654</internalNodes>
          <leafValues>
            -1.5218469500541687e-01 2.3321619629859924e-01</leafValues></_>
        <_>
          <internalNodes>
            0 -1 154 -335551762 1294125230 1655835792 2134286890
            -303250184 1429227044 1890599956 2004308283</internalNodes>
          <leafValues>
            -2.2250759601593018e-01 1.5480820834636688e-01</leafValues></_>
        <_>
          <internalNodes>
            0 -1 242 204473361 -1344606227 -1413514241 -268649040
            -1073806915 -32769 1073287167 -1095234243</internalNodes>
          <leafValues>
            -2.2961869835853577e-01 1.4867915213108063e-01</leafValues></_>
        <_>
          <internalNodes>
            0 -1 53 218009156 -1478590534 -80 -184729798 1727421693
            -1100546092 1473517325 -1059690698</internalNodes>
          <leafValues>
            -2.4180386960506439e-01 1.3762164115905762e-01</leafValues></_>
        <_>
          <internalNodes>
            0 -1 343 -1141147801 267972452 -35250 -1404973245
            -1451622529 257671166 -1112342993 25775256</internalNodes>
          <leafValues>
            -2.3330390453338623e-01 1.4589247107505798e-01</leafValues></_>
        <_>
          <internalNodes>
            0 -1 98 1218864980 2144230911 -220449997 2042767164
            -557382460 -9305002 -261736800 859012719</internalNodes>
          <leafValues>
            -2.8183144330978394e-01 1.1643389612436295e-01</leafValues></_>
        <_>
          <internalNodes>
            0 -1 215 1276012818 1089520158 245770171 -1779038206
            -408375512 594435513 757509160 553350335</internalNodes>
          <leafValues>
            -2.5652396678924561e-01 1.2729384005069733e-01</leafValues></_>
        <_>
          <internalNodes>
            0 -1 336 145499248 1442246631 -8441939 -1078440298 236283901
            1953816573 -163928 178281520</internalNodes>
          <leafValues>
            -3.1186577677726746e-01 1.0273566097021103e-01</leafValues></_>
        <_>
          <internalNodes>
            0 -1 268 1726877440 -974336296 -143247561 -705364185
            -704698494 112918492 -436326898 362691226</internalNodes>
          <leafValues>
            -2.4922160804271698e-01 1.2806609272956848e-01</leafValues></_>
        <_>
          <internalNodes>
            0 -1 42 237132576 1009688329 -285769950 -1359151826
            -1780010499 -56131585 369050690 619664964</internalNodes>
          <leafValues>
            -3.0335372686386108e-01 1.0544835031032562e-01</leafValues></_>
        <_>
          <internalNodes>
            0 -1 6 -387121386 588414258 -1153678475 941661730 -41998617
            -32777 -336369829 -1057664768</internalNodes>
          <leafValues>
            -2.4055492877960205e-01 1.2675283849239349e-01</leafValues></_>
        <_>
          <internalNodes>
            0 -1 201 -825324288 -361079556 -412172361 -350032902
            -344935947 -1221562113 -1091396572 712646907</internalNodes>
          <leafValues>
            -2.3420259356498718e-01 1.2950620055198669e-01</leafValues></_>
        <_>
          <internalNodes>
            0 -1 186 -269615124 -643958471 -268701898 -168528524
            -2087323252 -1372603593 540558368 543646561</internalNodes>
          <leafValues>
            -2.8340253233909607e-01 1.0989018529653549e-01</leafValues></_>
        <_>
          <internalNodes>
            0 -1 308 -1909761568 -1359402516 -828117074 -135830214
            267026401 66845050 -1157686208 1370641552</internalNodes>
          <leafValues>
            -2.7551719546318054e-01 1.0988820344209671e-01</leafValues></_>
        <_>
          <internalNodes>
            0 -1 222 1085410420 -390837130 -94999074 105139582 -626852
            -61382827 -1095336076 739257600</internalNodes>
          <leafValues>
            -3.9356005191802979e-01 7.8269936144351959e-02</leafValues></_></weakClassifiers></_>
    <!-- stage 6 -->
    <_>
      <maxWeakCount>40</maxWeakCount>
      <stageThreshold>-1.8362586498260498e+00</stageThreshold>
      <weakClassifiers>
        <_>
          <internalNodes>
            0 -1 64 -268440025 -268574993 -1360376304 -411828353
            2004299520 1968666215 -151521931 -134742025</internalNodes>
          <leafValues>
            -5.6778550148010254e-01 -4.1374461725354195e-03</leafValues></_>
        <_>
          <internalNodes>
            0 -1 88 -295179734 -1295998878 -226867654 1078100482
            1864876163 302023714 1383593735 1932784435</internalNodes>
          <leafValues>
            -4.0126636624336243e-01 1.4469565451145172e-01</leafValues></_>
        <_>
          <internalNodes>
            0 -1 167 1318055726 -788529281 -387238902 1618673266
            1941593602 -855638033 1907815680 -789053609</internalNodes>
          <leafValues>
            -3.9120152592658997e-01 1.5201927721500397e-01</leafValues></_>
        <_>
          <internalNodes>
            0 -1 340 -961885139 -302055459 -420314334 -520161588
            -1229398956 -973275457 -1489832843 -453184395</internalNodes>
          <leafValues>
            -2.5741532444953918e-01 2.1375852823257446e-01</leafValues></_>
        <_>
          <internalNodes>
            0 -1 127 -285757522 937409455 -822087921 -1343247457
            -564719215 -3859011 -898241012 -270561329</internalNodes>
          <leafValues>
            -2.1283696591854095e-01 2.3267646133899689e-01</leafValues></_>
        <_>
          <internalNodes>
            0 -1 325 -268439633 -1480622084 -1074791059 -432914678
            -552337477 -1921515521 -543162914 -993798940</internalNodes>
          <leafValues>
            -1.9063574075698853e-01 2.5004389882087708e-01</leafValues></_>
        <_>
          <internalNodes>
            0 -1 163 1953653855 2138781567 1979629247 2144364282
            1995374733 -27849458 -320394052 -82089254</internalNodes>
          <leafValues>
            -2.1402692794799805e-01 2.0813515782356262e-01</leafValues></_>
        <_>
          <internalNodes>
            0 -1 210 -16902985 -285409289 -522240070 -520814594
            1996451580 -861126657 -4251856 -34675632</internalNodes>
          <leafValues>
            -2.0210707187652588e-01 2.0262815058231354e-01</leafValues></_>
        <_>
          <internalNodes>
            0 -1 76 -286334298 -433164929 -218972417 -1065615890
            -269874102 -1116209321 -17629185 -345768333</internalNodes>
          <leafValues>
            -2.1917483210563660e-01 1.7971193790435791e-01</leafValues></_>
        <_>
          <internalNodes>
            0 -1 94 -16822578 -293705313 -253866516 1904143695
            1962171658 -176745131 -198117972 1886578479</internalNodes>
          <leafValues>
            -2.4952726066112518e-01 1.5923924744129181e-01</leafValues></_>
        <_>
          <internalNodes>
            0 -1 313 -1077936129 -437822099 -6 -34120193 -1107429393
            -704643141 -1178620505 -1245754243</internalNodes>
          <leafValues>
            -1.3118553161621094e-01 2.9026770591735840e-01</leafValues></_>
        <_>
          <internalNodes>
            0 -1 51 -454038354 1358941375 -532698198 -1557159262 7627824
            1886535712 -671845072 1114854725</internalNodes>
          <leafValues>
            -4.2898720502853394e-01 8.2416169345378876e-02</leafValues></_>
        <_>
          <internalNodes>
            0 -1 103 -197720731 -844550179 -722012441 -1108410714
            -1073789107 1834975095 -201975963 -18418059</internalNodes>
          <leafValues>
            -2.0697382092475891e-01 1.7468146979808807e-01</leafValues></_>
        <_>
          <internalNodes>
            0 -1 301 1082115457 -1645219089 826131235 2146358271
            352165887 -2130978317 -1334453969 -188744709</internalNodes>
          <leafValues>
            -1.5813314914703369e-01 2.2841525077819824e-01</leafValues></_>
        <_>
          <internalNodes>
            0 -1 285 -1346433219 -1221123 -1158270704 -4432684
            -1208090627 -1883247123 -1224805140 -1778494224</internalNodes>
          <leafValues>
            -1.7666631937026978e-01 1.9932870566844940e-01</leafValues></_>
        <_>
          <internalNodes>
            0 -1 4 -46423149 86159292 -1390150992 -328761520 -1094713601
            -1624375299 -1124613443 211544814</internalNodes>
          <leafValues>
            -1.7992921173572540e-01 1.9119702279567719e-01</leafValues></_>
        <_>
          <internalNodes>
            0 -1 198 -1145426575 -1547776006 -268452559 -27200
            -1350569987 -1613828097 -8611931 -1912650636</internalNodes>
          <leafValues>
            -1.8933086097240448e-01 1.7491595447063446e-01</leafValues></_>
        <_>
          <internalNodes>
            0 -1 170 -553648562 1576316926 -855741876 -537332120
            -860100917 -13582636 1215775820 -268176128</internalNodes>
          <leafValues>
            -2.2905963659286499e-01 1.5076903998851776e-01</leafValues></_>
        <_>
          <internalNodes>
            0 -1 112 -127205458 2132807 -287117457 1240851879 -699007002
            -1200202016 -998783393 1346721101</internalNodes>
          <leafValues>
            -2.3051698505878448e-01 1.3705877959728241e-01</leafValues></_>
        <_>
          <internalNodes>
            0 -1 143 1281873196 -1160353042 -2032220786 -1560269046
            74176697 -234922370 1962799358 1996225659</internalNodes>
          <leafValues>
            -2.1042300760746002e-01 1.5035992860794067e-01</leafValues></_>
        <_>
          <internalNodes>
            0 -1 218 1409303824 -46510497 -38633665 1597144606 -42148724
            -17074065 -137562984 523899804</internalNodes>
          <leafValues>
            -2.6484680175781250e-01 1.2147404253482819e-01</leafValues></_>
        <_>
          <internalNodes>
            0 -1 45 -139203081 -671350850 -1073758224 -218185808
            -2085720833 -281330767 1199404788 -138939529</internalNodes>
          <leafValues>
            -1.2036824971437454e-01 2.8058478236198425e-01</leafValues></_>
        <_>
          <internalNodes>
            0 -1 191 -900812960 -96538756 2086858553 -93599142
            -1369164304 -1129119760 978510853 482024799</internalNodes>
          <leafValues>
            -2.4052856862545013e-01 1.3476362824440002e-01</leafValues></_>
        <_>
          <internalNodes>
            0 -1 344 -1364068507 603205356 -1090548249 -470294545
            939521821 223113196 1073684479 -34611724</internalNodes>
          <leafValues>
            -1.5801455080509186e-01 1.9221393764019012e-01</leafValues></_>
        <_>
          <internalNodes>
            0 -1 62 -1203820794 -1640220833 -17302729 -35244289
            -593804106 -222144818 -1095799586 857388631</internalNodes>
          <leafValues>
            -2.0994418859481812e-01 1.4537887275218964e-01</leafValues></_>
        <_>
          <internalNodes>
            0 -1 110 1336670115 -868159821 -1476839851 -303532240
            -743706213 -1950620245 863122284 -992086695</internalNodes>
          <leafValues>
            -1.5694297850131989e-01 1.8874458968639374e-01</leafValues></_>
        <_>
          <internalNodes>
            0 -1 316 -29622155 -906214353 -252281857 -1074391237
            -1647422091 -1108836609 -252149955 -1359855759</internalNodes>
          <leafValues>
            -2.3362261056900024e-01 1.2793292105197906e-01</leafValues></_>
        <_>
          <internalNodes>
            0 -1 66 -135268889 -273733341 -46725137 -811885112
            -146865729 1206873983 -1208483937 -9437857</internalNodes>
          <leafValues>
            -9.7470074892044067e-02 3.1962454319000244e-01</leafValues></_>
        <_>
          <internalNodes>
            0 -1 78 258360613 771540861 -1477558357 1068267404 800523649
            -18220038 -268479075 -1363251776</internalNodes>
          <leafValues>
            -2.1712061762809753e-01 1.3832078874111176e-01</leafValues></_>
        <_>
          <internalNodes>
            0 -1 173 -71381250 1157777130 -433058625 -544633718
            -962411300 1449279556 2054191704 1538742151</internalNodes>
          <leafValues>
            -1.8625722825527191e-01 1.6270825266838074e-01</leafValues></_>
        <_>
          <internalNodes>
            0 -1 134 1256631910 -626115969 -1841928400 45279200
            1129598821 1365400945 2054344055 1077047795</internalNodes>
          <leafValues>
            -3.6152401566505432e-01 8.5798688232898712e-02</leafValues></_>
        <_>
          <internalNodes>
            0 -1 304 1123021498 70429684 1412869798 -1397293420
            -296247049 -2074975116 -143142193 1078621890</internalNodes>
          <leafValues>
            -2.5200390815734863e-01 1.1721251159906387e-01</leafValues></_>
        <_>
          <internalNodes>
            0 -1 321 -722171348 -1517555740 -227738678 -503324190
            1626480086 -1830912825 -1073893618 363579270</internalNodes>
          <leafValues>
            -1.9556930661201477e-01 1.4912356436252594e-01</leafValues></_>
        <_>
          <internalNodes>
            0 -1 195 2088502348 -159629733 -268500994 -103378
            -1107538107 -59474059 -303223179 -1129294512</internalNodes>
          <leafValues>
            -2.5680562853813171e-01 1.1607552319765091e-01</leafValues></_>
        <_>
          <internalNodes>
            0 -1 209 -75575806 270514107 -1426846866 -33556566
            1314816514 -2066241801 -83966910 -790105361</internalNodes>
          <leafValues>
            -2.1059845387935638e-01 1.3538132607936859e-01</leafValues></_>
        <_>
          <internalNodes>
            0 -1 178 -673247721 2004298551 -806320466 -264618066
            -319447353 1994676083 -237869261 -202199061</internalNodes>
          <leafValues>
            -1.4347541332244873e-01 1.9967839121818542e-01</leafValues></_>
        <_>
          <internalNodes>
            0 -1 81 1618326199 994775923 -345019911 -506756895
            -725757985 -583155795 -270064916 -838885190</internalNodes>
          <leafValues>
            -1.2742780148983002e-01 2.3158742487430573e-01</leafValues></_>
        <_>
          <internalNodes>
            0 -1 144 -1090630432 -873570889 -469800218 -134879433
            -1078055103 -1048577 -1073938693 -1217233887</internalNodes>
          <leafValues>
            -1.8618586659431458e-01 1.5190963447093964e-01</leafValues></_>
        <_>
          <internalNodes>
            0 -1 185 1459606538 1379081616 -226582898 875118352
            -730057523 1918009150 -1563920180 -669815611</internalNodes>
          <leafValues>
            -1.9672636687755585e-01 1.4185233414173126e-01</leafValues></_>
        <_>
          <internalNodes>
            0 -1 219 13038081 -299174973 2088721759 874398462 1442665969
            234813950 -1932221160 1050608572</internalNodes>
          <leafValues>
            -2.2602698206901550e-01 1.2563553452491760e-01</leafValues></_></weakClassifiers></_>
    <!-- stage 7 -->
    <_>
      <maxWeakCount>52</maxWeakCount>
      <stageThreshold>-1.8204952478408813e+00</stageThreshold>
      <weakClassifiers>
        <_>
          <internalNodes>
            0 -1 269 -35209247 -36865 -134217733 -4608839 -1658898
            -1073742083 -1208238595 495716520</internalNodes>
          <leafValues>
            -4.8382011055946350e-01 -3.9999999105930328e-02</leafValues></_>
        <_>
          <internalNodes>
            0 -1 95 2138786525 -4456513 -352359426 -805585350 -9229709
            -276861059 -25723529 -558366860</internalNodes>
          <leafValues>
            -2.4175329506397247e-01 1.9698718190193176e-01</leafValues></_>
        <_>
          <internalNodes>
            0 -1 258 1107232069 893153073 2113814015 -34439181 619669239
            -2013597737 227003836 -1061160006</internalNodes>
          <leafValues>
            -2.2057701647281647e-01 2.1373713016510010e-01</leafValues></_>
        <_>
          <internalNodes>
            0 -1 274 -1965162415 -1073786373 -573441 -57355 -1092657927
            -1074039425 -210683937 993199123</internalNodes>
          <leafValues>
            -2.3246027529239655e-01 1.8952731788158417e-01</leafValues></_>
        <_>
          <internalNodes>
            0 -1 245 8316193 528154623 -139141257 1060265329 -1737550599
            -1668284433 593229117 1002385979</internalNodes>
          <leafValues>
            -2.1841718256473541e-01 1.8301060795783997e-01</leafValues></_>
        <_>
          <internalNodes>
            0 -1 31 61064179 816084978 598942649 623290408 -941230081
            -269680914 1974957561 1226175316</internalNodes>
          <leafValues>
            -1.7140844464302063e-01 2.1518327295780182e-01</leafValues></_>
        <_>
          <internalNodes>
            0 -1 52 -1360740379 -1360592914 661649314 -1275136575
            -488250651 2120744959 -146343961 -268742887</internalNodes>
          <leafValues>
            -1.7662729322910309e-01 2.0915462076663971e-01</leafValues></_>
        <_>
          <internalNodes>
            0 -1 74 -184893220 -657150305 -1069057 -53559366 -73463142
            -635616193 616796158 -665334929</internalNodes>
          <leafValues>
            -1.9574749469757080e-01 1.8437033891677856e-01</leafValues></_>
        <_>
          <internalNodes>
            0 -1 23 -194708756 1995461888 -387944960 -744436448
            -144315794 -1966208 -1470930874 1363277120</internalNodes>
          <leafValues>
            -3.8707122206687927e-01 9.6141912043094635e-02</leafValues></_>
        <_>
          <internalNodes>
            0 -1 192 -939197646 -2135621897 1248726525 -2078024719
            -281477206 -184631043 1869130031 226144703</internalNodes>
          <leafValues>
            -2.1739862859249115e-01 1.5897299349308014e-01</leafValues></_>
        <_>
          <internalNodes>
            0 -1 171 -1213171723 -196625 -289472577 -79895712
            -1363476995 -524289 775880639 -856847312</internalNodes>
          <leafValues>
            -1.6766697168350220e-01 2.0540890097618103e-01</leafValues></_>
        <_>
          <internalNodes>
            0 -1 140 -34582683 -269615131 -608267 -1078595585 -450748
            -277356673 -1073840137 -4284816</internalNodes>
          <leafValues>
            -1.8161380290985107e-01 1.8227298557758331e-01</leafValues></_>
        <_>
          <internalNodes>
            0 -1 312 -1085572000 -1375736207 -32792 -1015902976
            1067318707 -2052849804 -1091076120 365647220</internalNodes>
          <leafValues>
            -2.4581983685493469e-01 1.2900978326797485e-01</leafValues></_>
        <_>
          <internalNodes>
            0 -1 148 -604637321 -51597389 -1476395555 -504627719 -12545
            -33870147 -1258306355 -307515169</internalNodes>
          <leafValues>
            -1.1250576376914978e-01 3.0375531315803528e-01</leafValues></_>
        <_>
          <internalNodes>
            0 -1 60 -198718041 -1355814239 2130584143 -353370409
            -364684849 125767621 -338354 -142607865</internalNodes>
          <leafValues>
            -1.0431694239377975e-01 2.9034113883972168e-01</leafValues></_>
        <_>
          <internalNodes>
            0 -1 182 1290799443 -546079882 -135643345 1966219030
            775838997 -44949689 -269140948 1060245014</internalNodes>
          <leafValues>
            -2.4034462869167328e-01 1.4272160828113556e-01</leafValues></_>
        <_>
          <internalNodes>
            0 -1 243 -593167052 364141588 -1344032964 1608321440
            456961469 -1342341259 753904932 1069252591</internalNodes>
          <leafValues>
            -1.9311639666557312e-01 1.6797012090682983e-01</leafValues></_>
        <_>
          <internalNodes>
            0 -1 211 929180948 -205717697 -1074827778 -55956238
            796853621 -436666507 2113756671 -803941004</internalNodes>
          <leafValues>
            -2.3585306107997894e-01 1.2720604240894318e-01</leafValues></_>
        <_>
          <internalNodes>
            0 -1 288 1426051811 -791218225 -1242038281 -783190033
            -54659905 -723845122 -152208001 -1057557907</internalNodes>
          <leafValues>
            -1.1977477371692657e-01 2.3876100778579712e-01</leafValues></_>
        <_>
          <internalNodes>
            0 -1 135 -72386235 9072367 -474047070 -1299279892 -256043668
            -840533650 -743647836 -739311636</internalNodes>
          <leafValues>
            -1.8110655248165131e-01 1.6089281439781189e-01</leafValues></_>
        <_>
          <internalNodes>
            0 -1 57 -4469041 1274265202 -1174568990 -135055495
            -287848197 794263375 2088075255 -486711449</internalNodes>
          <leafValues>
            -1.1532282829284668e-01 2.5657701492309570e-01</leafValues></_>
        <_>
          <internalNodes>
            0 -1 216 -291480240 -319926447 -1342959772 -866641077
            -704924752 129654782 800462603 742014763</internalNodes>
          <leafValues>
            -2.5819802284240723e-01 1.2035119533538818e-01</leafValues></_>
        <_>
          <internalNodes>
            0 -1 277 1143763988 -973079169 1341420853 -169592397
            -1800425317 -1916928836 934765708 364064402</internalNodes>
          <leafValues>
            -2.4569542706012726e-01 1.1305993795394897e-01</leafValues></_>
        <_>
          <internalNodes>
            0 -1 331 -1292697758 -1594949655 -1073762398 -424611899
            -1377048987 -2023393409 -1078256351 804745193</internalNodes>
          <leafValues>
            -2.0807428658008575e-01 1.4144743978977203e-01</leafValues></_>
        <_>
          <internalNodes>
            0 -1 248 1340857877 402025318 534613369 -323162896 -271115
            -838991913 -704651844 -1526728718</internalNodes>
          <leafValues>
            -1.3657313585281372e-01 2.0535659790039063e-01</leafValues></_>
        <_>
          <internalNodes>
            0 -1 113 -268442386 1788004593 984813794 866371919
            -403683844 1983136880 1883563806 1933005199</internalNodes>
          <leafValues>
            -1.9282500445842743e-01 1.5053661167621613e-01</leafValues></_>
        <_>
          <internalNodes>
            0 -1 82 1211066297 -657916169 -5042119 -1524158289
            -1600012357 -302252097 -226007779 -443591285</internalNodes>
          <leafValues>
            -1.2667672336101532e-01 2.2384437918663025e-01</leafValues></_>
        <_>
          <internalNodes>
            0 -1 188 -67108866 2145218501 989755068 -414322316 683197932
            -1758462515 705717268 8659841</internalNodes>
          <leafValues>
            -3.3769381046295166e-01 8.3898171782493591e-02</leafValues></_>
        <_>
          <internalNodes>
            0 -1 318 1493048693 2035683167 -600514755 -1078968465
            -88933451 -889950297 -85160263 -1431290056</internalNodes>
          <leafValues>
            -1.9559249281883240e-01 1.4430990815162659e-01</leafValues></_>
        <_>
          <internalNodes>
            0 -1 208 -88973836 -33989259 -365166913 -1074852433 -8516020
            -273077188 -71389394 -1461194997</internalNodes>
          <leafValues>
            -1.4151920378208160e-01 1.9275434315204620e-01</leafValues></_>
        <_>
          <internalNodes>
            0 -1 293 -891387744 -1885467250 -83975432 -1610610186
            -577042168 1196361291 -8549752 808529796</internalNodes>
          <leafValues>
            -3.0190867185592651e-01 8.6303547024726868e-02</leafValues></_>
        <_>
          <internalNodes>
            0 -1 24 128192375 203714365 -559115 -1255887055 1979579901
            -1077936129 2146793848 -1482655968</internalNodes>
          <leafValues>
            -2.3791670799255371e-01 1.1690681427717209e-01</leafValues></_>
        <_>
          <internalNodes>
            0 -1 131 -864580161 -481950427 -1706098849 1937057527
            -142914402 -1072411529 -587927740 1986368943</internalNodes>
          <leafValues>
            -1.4320673048496246e-01 1.9389201700687408e-01</leafValues></_>
        <_>
          <internalNodes>
            0 -1 306 -79741005 1717735045 -1518607072 -202189807
            -1212153915 72875633 -738198112 292230584</internalNodes>
          <leafValues>
            -2.0456773042678833e-01 1.3593812286853790e-01</leafValues></_>
        <_>
          <internalNodes>
            0 -1 202 788139085 -17076449 -1094914321 981102462
            2095011609 1969510230 -289928451 941633086</internalNodes>
          <leafValues>
            -2.6399406790733337e-01 1.0357255488634109e-01</leafValues></_>
        <_>
          <internalNodes>
            0 -1 240 -1900527779 -341807377 -1502789837 -1378074641
            83735933 -268470273 -1375895822 -1342241247</internalNodes>
          <leafValues>
            -1.7592073976993561e-01 1.5033112466335297e-01</leafValues></_>
        <_>
          <internalNodes>
            0 -1 239 -458301392 -277643405 -1347509379 219820031
            -1473762108 -1183378127 -1238340582 40419102</internalNodes>
          <leafValues>
            -2.0837545394897461e-01 1.2567088007926941e-01</leafValues></_>
        <_>
          <internalNodes>
            0 -1 61 -4198769 1337949533 -1409294 -16777303 -536876305
            1196914527 -218890241 -277350549</internalNodes>
          <leafValues>
            -7.6158948242664337e-02 3.5698589682579041e-01</leafValues></_>
        <_>
          <internalNodes>
            0 -1 138 1952900509 -278397841 1638911707 -1658954305
            -1334861061 -5371141 -1603165983 -19702805</internalNodes>
          <leafValues>
            -1.1446309834718704e-01 2.2675825655460358e-01</leafValues></_>
        <_>
          <internalNodes>
            0 -1 65 -1356195016 749371385 -1493289206 2130214909
            2130587490 75399039 1996389920 1895783541</internalNodes>
          <leafValues>
            -2.8391206264495850e-01 9.5480963587760925e-02</leafValues></_>
        <_>
          <internalNodes>
            0 -1 132 -423720946 1849192014 1085163951 1057181506
            1147429942 1970430064 -665797195 1933728514</internalNodes>
          <leafValues>
            -2.7722242474555969e-01 8.8812686502933502e-02</leafValues></_>
        <_>
          <internalNodes>
            0 -1 174 -97857938 1487325407 1866079001 1236160298
            1147292909 2019968249 -1107230723 1239635793</internalNodes>
          <leafValues>
            -2.0977982878684998e-01 1.2816500663757324e-01</leafValues></_>
        <_>
          <internalNodes>
            0 -1 0 925897843 616642901 -1074268422 -1489911900
            -1078071809 -1527382545 -438707217 10757422</internalNodes>
          <leafValues>
            -2.1275511384010315e-01 1.2190091609954834e-01</leafValues></_>
        <_>
          <internalNodes>
            0 -1 329 180339370 -2139847780 -352900574 147467966
            -691742788 1147796977 1341972475 -1002256454</internalNodes>
          <leafValues>
            -2.2945398092269897e-01 1.1188844591379166e-01</leafValues></_>
        <_>
          <internalNodes>
            0 -1 271 42076020 -1090363452 -470487781 -134987850
            -1128289035 -1217020417 -1392546251 884505778</internalNodes>
          <leafValues>
            -2.2840493917465210e-01 1.1316967010498047e-01</leafValues></_>
        <_>
          <internalNodes>
            0 -1 19 1946741868 1060207366 -457175745 -1514950770
            -13863458 -279089780 2031442193 207091524</internalNodes>
          <leafValues>
            -2.2433303296566010e-01 1.1166613548994064e-01</leafValues></_>
        <_>
          <internalNodes>
            0 -1 294 -1494306881 -276565004 -1564847872 -994184244
            -2070087751 -1919954408 243646858 1446248066</internalNodes>
          <leafValues>
            -1.4910316467285156e-01 1.7146895825862885e-01</leafValues></_>
        <_>
          <internalNodes>
            0 -1 34 1078273317 1925380769 -1573299 385196578 -220211277
            -327731463 -671656676 -1541945342</internalNodes>
          <leafValues>
            -1.7972384393215179e-01 1.4228324592113495e-01</leafValues></_>
        <_>
          <internalNodes>
            0 -1 224 1455316053 1951161932 183394286 1004306412
            -402756011 -136842153 -1159959604 -1610467740</internalNodes>
          <leafValues>
            -2.3378950357437134e-01 1.1123094707727432e-01</leafValues></_>
        <_>
          <internalNodes>
            0 -1 40 792708087 2146088672 -483043856 -9502796 -675346945
            -277411808 1073053692 -804010770</internalNodes>
          <leafValues>
            -1.1980222910642624e-01 2.1042272448539734e-01</leafValues></_>
        <_>
          <internalNodes>
            0 -1 106 -1603255040 -269861571 -92808146 -9429627
            1015953229 -891625473 648298301 -1413587675</internalNodes>
          <leafValues>
            -2.1633355319499969e-01 1.1748874187469482e-01</leafValues></_>
        <_>
          <internalNodes>
            0 -1 341 -168342739 -1477729301 -2015370394 -1150291994
            -999264993 83752989 1956630163 -1931610915</internalNodes>
          <leafValues>
            -1.3230624794960022e-01 1.9425962865352631e-01</leafValues></_></weakClassifiers></_>
    <!-- stage 8 -->
    <_>
      <maxWeakCount>58</maxWeakCount>
      <stageThreshold>-1.8255674839019775e+00</stageThreshold>
      <weakClassifiers>
        <_>
          <internalNodes>
            0 -1 337 -53552931 -537043217 2146959343 -1049873 -33620033
            -54747137 -65602 -16777233</internalNodes>
          <leafValues>
            -4.1207763552665710e-01 1.0098513960838318e-01</leafValues></_>
        <_>
          <internalNodes>
            0 -1 3 268697608 858895360 -1049501707 998073377 387432351
            -201850921 498835359 1006830883</internalNodes>
          <leafValues>
            -3.6806657910346985e-01 1.3719144463539124e-01</leafValues></_>
        <_>
          <internalNodes>
            0 -1 12 -1174815860 525974924 783609501 993525263
            -1094771316 -547548019 -1073935668 -1349538293</internalNodes>
          <leafValues>
            -2.2060595452785492e-01 1.9657082855701447e-01</leafValues></_>
        <_>
          <internalNodes>
            0 -1 50 -645544738 -976927251 -67305477 -113397853
            -346286856 -833272548 -1966338819 997664767</internalNodes>
          <leafValues>
            -2.3355336487293243e-01 1.6509771347045898e-01</leafValues></_>
        <_>
          <internalNodes>
            0 -1 33 -861244944 359744561 -1346633799 -80350465
            -288557067 -38010893 1588513976 -1199157136</internalNodes>
          <leafValues>
            -1.5794068574905396e-01 2.3183389008045197e-01</leafValues></_>
        <_>
          <internalNodes>
            0 -1 73 -52246312 -594244678 -1082445825 -1612333091
            -1364947812 -617592769 -1364795393 170024263</internalNodes>
          <leafValues>
            -1.7163223028182983e-01 2.0996268093585968e-01</leafValues></_>
        <_>
          <internalNodes>
            0 -1 300 -1322295397 -1477562003 -811999245 -42200659
            -1648364035 -2114027597 -1245983348 -1858122659</internalNodes>
          <leafValues>
            -1.6347455978393555e-01 2.0715019106864929e-01</leafValues></_>
        <_>
          <internalNodes>
            0 -1 275 -322262512 -537489803 -372973569 1292430673
            1022898349 -645967745 1886624794 -231474157</internalNodes>
          <leafValues>
            -2.0997866988182068e-01 1.5886534750461578e-01</leafValues></_>
        <_>
          <internalNodes>
            0 -1 126 -548932878 -607303158 -1075880911 -600065278
            -44958721 -805979651 -413837642 -1059608398</internalNodes>
          <leafValues>
            -1.4417952299118042e-01 2.2576142847537994e-01</leafValues></_>
        <_>
          <internalNodes>
            0 -1 100 289362438 -718375049 914315167 1069767027
            -1062256506 -203276045 1824131082 1865370219</internalNodes>
          <leafValues>
            -2.5090977549552917e-01 1.2230398505926132e-01</leafValues></_>
        <_>
          <internalNodes>
            0 -1 129 -198017293 -123409184 -805872131 -4361992 -67778824
            -800769 -574812115 -1128303439</internalNodes>
          <leafValues>
            -1.3333992660045624e-01 2.3274160921573639e-01</leafValues></_>
        <_>
          <internalNodes>
            0 -1 187 -1023222648 -176097424 251584061 2109798232
            -1448295207 -309572594 1957610501 -725299648</internalNodes>
          <leafValues>
            -3.1370040774345398e-01 9.1545552015304565e-02</leafValues></_>
        <_>
          <internalNodes>
            0 -1 217 1994020912 1591367384 -3376163 487534538 -2837796
            -4202498 -1073826019 1032731272</internalNodes>
          <leafValues>
            -2.5874871015548706e-01 1.1344394832849503e-01</leafValues></_>
        <_>
          <internalNodes>
            0 -1 330 -892418904 552077564 939472043 16515248 -1868917526
            542442650 -84002817 1351500495</internalNodes>
          <leafValues>
            -2.5259998440742493e-01 1.1750881373882294e-01</leafValues></_>
        <_>
          <internalNodes>
            0 -1 90 -125920702 -2136932733 193990400 -483155965
            -973278091 309523568 30441863 41635191</internalNodes>
          <leafValues>
            -2.9832482337951660e-01 9.8498657345771790e-02</leafValues></_>
        <_>
          <internalNodes>
            0 -1 317 1425408084 -1612769601 1069178845 253787406
            -1090613250 -1267319687 -57508181 -1439678938</internalNodes>
          <leafValues>
            -2.2085343301296234e-01 1.2392041832208633e-01</leafValues></_>
        <_>
          <internalNodes>
            0 -1 54 -81790840 1272779261 -4244048 2147310335 -1283524705
            -537168587 226381053 1861211357</internalNodes>
          <leafValues>
            -1.4957593381404877e-01 1.9472192227840424e-01</leafValues></_>
        <_>
          <internalNodes>
            0 -1 151 -1049205869 -678677540 78559227 -375094642
            -269355563 -2001490689 -1611329030 -907025154</internalNodes>
          <leafValues>
            -1.2860772013664246e-01 2.2102001309394836e-01</leafValues></_>
        <_>
          <internalNodes>
            0 -1 125 739118512 1058022320 -309352713 -1650625375
            976817658 -1194786819 -287025667 -1932777968</internalNodes>
          <leafValues>
            -3.3472132682800293e-01 8.3571046590805054e-02</leafValues></_>
        <_>
          <internalNodes>
            0 -1 212 -939594474 -607136902 -1888698373 306043179
            -554849234 -16036067 -2111862261 1498540611</internalNodes>
          <leafValues>
            -1.7171296477317810e-01 1.5961673855781555e-01</leafValues></_>
        <_>
          <internalNodes>
            0 -1 145 -1675098879 -536904347 -215682397 -730760445
            -1208470260 1177746552 -1208207947 -1340063483</internalNodes>
          <leafValues>
            -2.2868342697620392e-01 1.2280949205160141e-01</leafValues></_>
        <_>
          <internalNodes>
            0 -1 267 -177211120 -846660639 1966202225 -840334039
            -1578851415 160208072 -1587955185 -712164678</internalNodes>
          <leafValues>
            -1.6129912436008453e-01 1.7436167597770691e-01</leafValues></_>
        <_>
          <internalNodes>
            0 -1 162 1846150237 -312776843 -33804289 -30396434 -93044617
            -142647713 -1426667011 -379264258</internalNodes>
          <leafValues>
            -1.8937784433364868e-01 1.4735589921474457e-01</leafValues></_>
        <_>
          <internalNodes>
            0 -1 121 -865644176 -19517938 -1913721540 -1895760125
            -2050063125 -402718994 -723188995 2009846779</internalNodes>
          <leafValues>
            -1.6612777113914490e-01 1.7091886699199677e-01</leafValues></_>
        <_>
          <internalNodes>
            0 -1 39 1034059584 -5898904 -1048590 -84100894 1580527583
            796278763 1005015974 -1803091646</internalNodes>
          <leafValues>
            -2.1754585206508636e-01 1.2640568614006042e-01</leafValues></_>
        <_>
          <internalNodes>
            0 -1 335 -1173869024 -1352868247 -142123040 -67122607
            -1216543897 -1372099861 -1279787013 -38314665</internalNodes>
          <leafValues>
            -1.8000005185604095e-01 1.4936713874340057e-01</leafValues></_>
        <_>
          <internalNodes>
            0 -1 86 -4198662 1057746655 -1221124877 757268154 2003983868
            -1547739523 -1615541440 -463233861</internalNodes>
          <leafValues>
            -1.3855409622192383e-01 1.9962395727634430e-01</leafValues></_>
        <_>
          <internalNodes>
            0 -1 115 -873525067 1173304492 619986929 519551993
            1610120885 1164058594 -323715347 -167575922</internalNodes>
          <leafValues>
            -1.5660414099693298e-01 1.7213530838489532e-01</leafValues></_>
        <_>
          <internalNodes>
            0 -1 292 -252837638 703136241 -1141063745 -1352079820
            281555131 -2013306117 -631721286 1413526338</internalNodes>
          <leafValues>
            -2.2881281375885010e-01 1.1764077842235565e-01</leafValues></_>
        <_>
          <internalNodes>
            0 -1 146 -276116224 -672223903 -273752643 -610727859
            -1665786277 -269071746 -1162731827 -1442352576</internalNodes>
          <leafValues>
            -1.7053005099296570e-01 1.5608711540699005e-01</leafValues></_>
        <_>
          <internalNodes>
            0 -1 101 -34349611 1873747761 -50524295 -1342234869 -53777
            -939581649 1559526905 -956303318</internalNodes>
          <leafValues>
            -1.1781901121139526e-01 2.2807560861110687e-01</leafValues></_>
        <_>
          <internalNodes>
            0 -1 230 -641794667 -571380044 1174030334 1236208266
            1127914381 -1879310850 -1393514023 888108503</internalNodes>
          <leafValues>
            -1.5362372994422913e-01 1.7562951147556305e-01</leafValues></_>
        <_>
          <internalNodes>
            0 -1 153 -623183378 -747473933 -268447937 -1086879989
            -61371409 -52296158 -1057527681 1583312709</internalNodes>
          <leafValues>
            -1.4695328474044800e-01 1.8010047078132629e-01</leafValues></_>
        <_>
          <internalNodes>
            0 -1 289 1279544384 -1959615454 618675984 725302794
            1144799742 -1468633481 1557422000 1362167715</internalNodes>
          <leafValues>
            -2.6019400358200073e-01 1.0056443512439728e-01</leafValues></_>
        <_>
          <internalNodes>
            0 -1 8 -200843168 898901502 -988478251 -2096080378 -4194321
            -1452491537 -874117697 -2134840746</internalNodes>
          <leafValues>
            -1.8382547795772552e-01 1.3983345031738281e-01</leafValues></_>
        <_>
          <internalNodes>
            0 -1 214 414848113 1543306999 259030971 -1109641923
            -1083245057 -1082298379 533009569 -1090583087</internalNodes>
          <leafValues>
            -1.6685417294502258e-01 1.5261575579643250e-01</leafValues></_>
        <_>
          <internalNodes>
            0 -1 37 -141562194 330492428 -185151778 -1011955711
            -136880139 1781710557 -849326604 1078312961</internalNodes>
          <leafValues>
            -2.6450324058532715e-01 9.4627998769283295e-02</leafValues></_>
        <_>
          <internalNodes>
            0 -1 307 -1085393152 -1582384403 -218233214 -656542823
            -1492192670 121036156 -1749919753 829234192</internalNodes>
          <leafValues>
            -2.8770896792411804e-01 8.5540182888507843e-02</leafValues></_>
        <_>
          <internalNodes>
            0 -1 47 280956644 -269564162 -218372112 -151327370
            -819048985 1196064171 349454533 1427335211</internalNodes>
          <leafValues>
            -2.1039041876792908e-01 1.1891096085309982e-01</leafValues></_>
        <_>
          <internalNodes>
            0 -1 28 211824736 502111725 -189022275 -2114208066 798765028
            1072037621 782259628 79958020</internalNodes>
          <leafValues>
            -4.0813693404197693e-01 6.3290387392044067e-02</leafValues></_>
        <_>
          <internalNodes>
            0 -1 259 -71316304 -186122396 -324047657 -7887250 1982788480
            -268435491 -4522289 -67634235</internalNodes>
          <leafValues>
            -1.1424014717340469e-01 2.2772851586341858e-01</leafValues></_>
        <_>
          <internalNodes>
            0 -1 179 -354726686 1937662460 -1699057897 1380994220
            -353087946 -766021818 -1342899201 -268239953</internalNodes>
          <leafValues>
            -1.6608101129531860e-01 1.5164877474308014e-01</leafValues></_>
        <_>
          <internalNodes>
            0 -1 261 -998342640 -1714282270 -14715017 730544871
            347997367 -1099037443 1960054597 1078022930</internalNodes>
          <leafValues>
            -2.3766621947288513e-01 1.0616037994623184e-01</leafValues></_>
        <_>
          <internalNodes>
            0 -1 320 -930431061 -1645171933 -168130621 -312170702
            1372641036 256411965 1373409806 14691202</internalNodes>
          <leafValues>
            -2.3865361511707306e-01 1.0425111651420593e-01</leafValues></_>
        <_>
          <internalNodes>
            0 -1 270 -663255796 -2080839938 -1781349330 -180697670
            -1594571345 30408366 -302561347 972521914</internalNodes>
          <leafValues>
            -1.7580896615982056e-01 1.4443157613277435e-01</leafValues></_>
        <_>
          <internalNodes>
            0 -1 109 1850063502 -1952232893 -589216321 -198077136
            -856607236 -1393037058 1618313562 1693815056</internalNodes>
          <leafValues>
            -1.9679138064384460e-01 1.2702037394046783e-01</leafValues></_>
        <_>
          <internalNodes>
            0 -1 189 -2175746 -147204773 1782333995 1930414594
            1209271532 1983075441 -797646854 -67439877</internalNodes>
          <leafValues>
            -1.1004561930894852e-01 2.2357025742530823e-01</leafValues></_>
        <_>
          <internalNodes>
            0 -1 345 -1974467384 795819841 -1180041446 -217117
            -1073811105 1564118037 -1145361409 -297895648</internalNodes>
          <leafValues>
            -1.9362457096576691e-01 1.2410064786672592e-01</leafValues></_>
        <_>
          <internalNodes>
            0 -1 177 -1272012668 -1272795142 -570425860 972178074
            351688112 1973442469 -1313202892 648568363</internalNodes>
          <leafValues>
            -2.6563525199890137e-01 9.1011703014373779e-02</leafValues></_>
        <_>
          <internalNodes>
            0 -1 310 -215813460 -1345532149 813028497 -973276353
            1883301544 13303179 -134224145 -70818065</internalNodes>
          <leafValues>
            -1.3375094532966614e-01 1.8168765306472778e-01</leafValues></_>
        <_>
          <internalNodes>
            0 -1 204 638193720 1893400316 1033975767 -702410506
            2130104437 -13531529 2080275704 -1355648333</internalNodes>
          <leafValues>
            -1.7944130301475525e-01 1.3404922187328339e-01</leafValues></_>
        <_>
          <internalNodes>
            0 -1 67 -323825376 -844395451 -981509121 -449726986
            -151036721 259461111 -25176241 -4256019</internalNodes>
          <leafValues>
            -1.4188918471336365e-01 1.6787686944007874e-01</leafValues></_>
        <_>
          <internalNodes>
            0 -1 30 1544875009 -129414 2136440083 1831938876 -1728758632
            -323144482 2130539100 1081455692</internalNodes>
          <leafValues>
            -1.9580323994159698e-01 1.2310583144426346e-01</leafValues></_>
        <_>
          <internalNodes>
            0 -1 225 1383289030 -50905121 -1024610178 -321967107
            -1493814522 -67208066 2138266555 -1342099647</internalNodes>
          <leafValues>
            -1.8526247143745422e-01 1.3172730803489685e-01</leafValues></_>
        <_>
          <internalNodes>
            0 -1 9 -71371534 -47921872 -1701685616 1811941664
            -1740308506 760557349 3491141 537992450</internalNodes>
          <leafValues>
            -3.2857933640480042e-01 7.1856275200843811e-02</leafValues></_>
        <_>
          <internalNodes>
            0 -1 228 1080208658 -1087267942 -187971 -1947336448
            -2122381893 -1078652423 -1432398760 -83898362</internalNodes>
          <leafValues>
            -1.6629572212696075e-01 1.4652886986732483e-01</leafValues></_>
        <_>
          <internalNodes>
            0 -1 70 -541960988 -1899857923 1990196430 -1279882036
            -1661569916 -1887439363 938947857 -609132731</internalNodes>
          <leafValues>
            -1.8727882206439972e-01 1.2856344878673553e-01</leafValues></_>
        <_>
          <internalNodes>
            0 -1 205 1883685440 1265256671 -1208049697 1666780794
            -166806275 -55990 -1325616440 -1330414769</internalNodes>
          <leafValues>
            -1.6803140938282013e-01 1.4231953024864197e-01</leafValues></_></weakClassifiers></_>
    <!-- stage 9 -->
    <_>
      <maxWeakCount>63</maxWeakCount>
      <stageThreshold>-1.7970056533813477e+00</stageThreshold>
      <weakClassifiers>
        <_>
          <internalNodes>
            0 -1 124 -615252754 -619577619 -620954595 -9699493 -41947921
            -33558801 2055194829 -69472565</internalNodes>
          <leafValues>
            -4.4170239567756653e-01 -2.6757720857858658e-02</leafValues></_>
        <_>
          <internalNodes>
            0 -1 1 134485024 959777937 -302056053 -1317462527
            -1076386385 796359675 -1140883461 1043807923</internalNodes>
          <leafValues>
            -3.6563494801521301e-01 1.0778865963220596e-01</leafValues></_>
        <_>
          <internalNodes>
            0 -1 338 313658815 1069160875 -67282971 -100982805 -360513
            -1074368514 -1090593105 -1359017150</internalNodes>
          <leafValues>
            -2.0586849749088287e-01 2.0426334440708160e-01</leafValues></_>
        <_>
          <internalNodes>
            0 -1 79 -139329896 -30792920 486174713 -295432 -403061252
            -1455624403 -329265924 5246168</internalNodes>
          <leafValues>
            -1.9140660762786865e-01 2.0092678070068359e-01</leafValues></_>
        <_>
          <internalNodes>
            0 -1 183 878334982 -1226913 -1568915809 -244301966
            -1805514613 -10547426 -2073817857 2082233007</internalNodes>
          <leafValues>
            -2.6280626654624939e-01 1.3382703065872192e-01</leafValues></_>
        <_>
          <internalNodes>
            0 -1 117 -4505352 -402688713 1282602747 2075918335 -8473950
            -948474763 2011621278 -8219</internalNodes>
          <leafValues>
            -1.4004293084144592e-01 2.3888452351093292e-01</leafValues></_>
        <_>
          <internalNodes>
            0 -1 342 -202116305 -1083428979 1577035681 -1073763409
            994569855 653843580 -167777025 -2032202514</internalNodes>
          <leafValues>
            -1.7433574795722961e-01 1.8470446765422821e-01</leafValues></_>
        <_>
          <internalNodes>
            0 -1 72 -48046868 -1348806228 -810297377 1035939123
            -1128595970 -714612737 754376191 -1347699129</internalNodes>
          <leafValues>
            -1.2233413010835648e-01 2.3862658441066742e-01</leafValues></_>
        <_>
          <internalNodes>
            0 -1 29 -939263248 2068306535 -748562447 1852103932
            -17592593 -1342738964 -564871369 570922003</internalNodes>
          <leafValues>
            -1.9444456696510315e-01 1.5890000760555267e-01</leafValues></_>
        <_>
          <internalNodes>
            0 -1 168 1077977719 -549798860 1862193148 -922961040
            -335601985 1275019199 -1560656395 401573047</internalNodes>
          <leafValues>
            -2.0633399486541748e-01 1.4166814088821411e-01</leafValues></_>
        <_>
          <internalNodes>
            0 -1 282 -54792264 91815312 808515283 942934436 135955080
            38861316 343656174 890377735</internalNodes>
          <leafValues>
            -2.2375451028347015e-01 1.3482598960399628e-01</leafValues></_>
        <_>
          <internalNodes>
            0 -1 152 1210754866 2103715500 -34875 -442121000 1148138927
            -1480622219 2086489258 -1002110847</internalNodes>
          <leafValues>
            -2.1418601274490356e-01 1.3613602519035339e-01</leafValues></_>
        <_>
          <internalNodes>
            0 -1 237 324866397 1710107565 2147237375 2113728444 -5245957
            -537108500 -370754657 -277735153</internalNodes>
          <leafValues>
            -1.4918634295463562e-01 1.8853507936000824e-01</leafValues></_>
        <_>
          <internalNodes>
            0 -1 156 -1401010992 -1392753444 -1346486480 974786320
            -352430604 -1969728035 792998000 145129331</internalNodes>
          <leafValues>
            -3.6226227879524231e-01 6.8355068564414978e-02</leafValues></_>
        <_>
          <internalNodes>
            0 -1 257 138658949 1519841015 -277975171 -36668301
            1558026397 -1896448535 -50537347 361723443</internalNodes>
          <leafValues>
            -1.9007815420627594e-01 1.3899356126785278e-01</leafValues></_>
        <_>
          <internalNodes>
            0 -1 93 -4494 -1086333790 740222715 -103887065 -603020
            2004080999 -717959299 823230284</internalNodes>
          <leafValues>
            -1.9651316106319427e-01 1.3373519480228424e-01</leafValues></_>
        <_>
          <internalNodes>
            0 -1 290 -923873840 -34926045 -436503181 1336508408 14077183
            1060324095 -866717859 1648424772</internalNodes>
          <leafValues>
            -2.3089109361171722e-01 1.1478869616985321e-01</leafValues></_>
        <_>
          <internalNodes>
            0 -1 286 -1618067123 -1375802514 -5354187 -43352291
            770685917 78618252 603390384 295715002</internalNodes>
          <leafValues>
            -2.5784662365913391e-01 9.7816444933414459e-02</leafValues></_>
        <_>
          <internalNodes>
            0 -1 116 624358558 -1736568709 -13176295 2101462360
            -575765294 -340076580 -1483245929 923790078</internalNodes>
          <leafValues>
            -1.5871061384677887e-01 1.7121684551239014e-01</leafValues></_>
        <_>
          <internalNodes>
            0 -1 165 1594871924 -771762721 1591612623 1499225578
            -889293314 -1191413177 1592687564 -925107309</internalNodes>
          <leafValues>
            -1.3715167343616486e-01 1.9637861847877502e-01</leafValues></_>
        <_>
          <internalNodes>
            0 -1 326 -1140695230 -1105790998 -1344134934 -218110876
            1073673119 -2017232957 1040170255 -781821580</internalNodes>
          <leafValues>
            -1.7678382992744446e-01 1.4820949733257294e-01</leafValues></_>
        <_>
          <internalNodes>
            0 -1 118 -12296868 732901816 1566842366 -1879237380
            733040494 804739967 -82834441 -1752054955</internalNodes>
          <leafValues>
            -2.0148831605911255e-01 1.2805810570716858e-01</leafValues></_>
        <_>
          <internalNodes>
            0 -1 190 -523449504 -903808448 -280835309 -903708304
            -1511332448 787136944 130197765 41091891</internalNodes>
          <leafValues>
            -2.9466795921325684e-01 8.5613816976547241e-02</leafValues></_>
        <_>
          <internalNodes>
            0 -1 199 -588264448 -724902270 1608506626 1387457058
            -319935131 201591246 1083458612 15169271</internalNodes>
          <leafValues>
            -3.4528729319572449e-01 6.9294407963752747e-02</leafValues></_>
        <_>
          <internalNodes>
            0 -1 10 960100748 524941192 1827693075 -1489896447
            -369223433 1583330346 1022705747 911602400</internalNodes>
          <leafValues>
            -2.0996561646461487e-01 1.1908379197120667e-01</leafValues></_>
        <_>
          <internalNodes>
            0 -1 14 -2295826 1567749409 673761696 2136019360 -1395788368
            -1207992351 709657772 861209262</internalNodes>
          <leafValues>
            -2.4066889286041260e-01 1.0480185598134995e-01</leafValues></_>
        <_>
          <internalNodes>
            0 -1 244 -998849008 -571804302 2004570899 -843427022
            1442787771 396989887 1978619679 456024882</internalNodes>
          <leafValues>
            -2.2141100466251373e-01 1.3110654056072235e-01</leafValues></_>
        <_>
          <internalNodes>
            0 -1 226 -11618113 -1795691085 -508101010 -167905482
            -576719369 -1533618473 -106549 -254807089</internalNodes>
          <leafValues>
            -1.1355110257863998e-01 2.2428718209266663e-01</leafValues></_>
        <_>
          <internalNodes>
            0 -1 241 -424743115 -577050823 -1075740673 -1953423463
            -1170799361 -33561346 -1393619794 983289371</internalNodes>
          <leafValues>
            -1.1684384196996689e-01 2.0719456672668457e-01</leafValues></_>
        <_>
          <internalNodes>
            0 -1 119 -524925792 28482035 -42029073 -1682141726
            -1468715057 -741909057 -1342351883 -1427889391</internalNodes>
          <leafValues>
            -2.0936845242977142e-01 1.1175900697708130e-01</leafValues></_>
        <_>
          <internalNodes>
            0 -1 44 -1081418760 -1578001 -570425886 -20609 312570873
            -200323133 -134743813 -402669377</internalNodes>
          <leafValues>
            -9.4991512596607208e-02 2.4682338535785675e-01</leafValues></_>
        <_>
          <internalNodes>
            0 -1 17 -8680774 2065764196 1068474236 -1147329112 -67921112
            -1409712131 1299832724 -1596588604</internalNodes>
          <leafValues>
            -1.5161387622356415e-01 1.6030944883823395e-01</leafValues></_>
        <_>
          <internalNodes>
            0 -1 319 1679426581 -541123491 1073610111 1847732799
            -1000599879 -38052773 -742210 -536828013</internalNodes>
          <leafValues>
            -1.7127116024494171e-01 1.4628282189369202e-01</leafValues></_>
        <_>
          <internalNodes>
            0 -1 5 -692538703 262769224 -1967418505 -6171360 -257167383
            -1112151793 1684985725 818781997</internalNodes>
          <leafValues>
            -1.7588528990745544e-01 1.3227751851081848e-01</leafValues></_>
        <_>
          <internalNodes>
            0 -1 166 -732969818 -682614885 -51647433 887086234
            -799115756 -82354826 -1225612149 -526167039</internalNodes>
          <leafValues>
            -1.6479042172431946e-01 1.4358860254287720e-01</leafValues></_>
        <_>
          <internalNodes>
            0 -1 114 -1091576402 -382858566 1611827448 1933279744
            1959806014 1367031912 -1569657412 1733711105</internalNodes>
          <leafValues>
            -2.3518744111061096e-01 9.9739156663417816e-02</leafValues></_>
        <_>
          <internalNodes>
            0 -1 229 -2078136521 -584049108 -279318531 -10634000
            -1195590147 -1149444615 219220620 -1073806195</internalNodes>
          <leafValues>
            -1.2656298279762268e-01 1.8525426089763641e-01</leafValues></_>
        <_>
          <internalNodes>
            0 -1 15 470288688 1026564063 -333316600 260420408
            -1084506383 1073432564 -265832769 11541946</internalNodes>
          <leafValues>
            -2.3628075420856476e-01 9.9461928009986877e-02</leafValues></_>
        <_>
          <internalNodes>
            0 -1 328 -1663146802 -806502683 -20165466 -319439179
            -1074408132 234876148 -1227027829 -404761093</internalNodes>
          <leafValues>
            -1.4577408134937286e-01 1.6185936331748962e-01</leafValues></_>
        <_>
          <internalNodes>
            0 -1 147 -765108715 -1921220787 -558023044 610910062
            -151116140 -1683162697 -117784684 547546564</internalNodes>
          <leafValues>
            -2.1052780747413635e-01 1.1129568517208099e-01</leafValues></_>
        <_>
          <internalNodes>
            0 -1 99 -389036585 -571476521 -1208621293 -1278104688
            -86636297 -586729 -318783490 -25698630</internalNodes>
          <leafValues>
            -1.0525734722614288e-01 2.2969977557659149e-01</leafValues></_>
        <_>
          <internalNodes>
            0 -1 305 -294402501 -1062887958 1010278199 -1913848342
            -1073771391 -218835739 -1201489239 -234901665</internalNodes>
          <leafValues>
            -1.1637535691261292e-01 2.0343524217605591e-01</leafValues></_>
        <_>
          <internalNodes>
            0 -1 272 -790367041 1935090231 -504697565 -1821984913
            -2006984775 -1814094340 1087070412 2104983546</internalNodes>
          <leafValues>
            -1.1176676303148270e-01 2.0659115910530090e-01</leafValues></_>
        <_>
          <internalNodes>
            0 -1 193 -2224408 -585921 -1292497222 1002080186 -166662524
            1425819191 -624909606 -80564598</internalNodes>
          <leafValues>
            -1.3389965891838074e-01 1.7783626914024353e-01</leafValues></_>
        <_>
          <internalNodes>
            0 -1 102 -1172292148 53369767 -1230310674 -386014035
            -89169081 1338933079 -1107657235 -1884467371</internalNodes>
          <leafValues>
            -2.1170960366725922e-01 1.1188154667615891e-01</leafValues></_>
        <_>
          <internalNodes>
            0 -1 309 -164579664 -1044711235 -193251662 -1236696984
            1375371023 351723283 -235001093 1363403975</internalNodes>
          <leafValues>
            -1.7918859422206879e-01 1.2852893769741058e-01</leafValues></_>
        <_>
          <internalNodes>
            0 -1 203 1135750656 -173789435 -1620357281 2050637432
            -167825282 -178892 -277041153 -1199788097</internalNodes>
          <leafValues>
            -1.7700360715389252e-01 1.2801493704319000e-01</leafValues></_>
        <_>
          <internalNodes>
            0 -1 13 -537006129 -33686627 -528989113 -9070939 -736631053
            -1233125380 -126008073 -14817874</internalNodes>
          <leafValues>
            -9.6703104674816132e-02 2.4097032845020294e-01</leafValues></_>
        <_>
          <internalNodes>
            0 -1 48 1657456324 1342095352 889017914 1417091966
            -169081447 221523296 -973181315 560446383</internalNodes>
          <leafValues>
            -1.6204769909381866e-01 1.4132335782051086e-01</leafValues></_>
        <_>
          <internalNodes>
            0 -1 227 -5050974 -42532994 -629359885 -5447712 -892467007
            -64257 1283194897 -221119532</internalNodes>
          <leafValues>
            -1.9272921979427338e-01 1.1757561564445496e-01</leafValues></_>
        <_>
          <internalNodes>
            0 -1 276 -544146376 12415152 -1450178143 159221073
            1068564145 1376449765 121540232 603907769</internalNodes>
          <leafValues>
            -1.7940635979175568e-01 1.2698639929294586e-01</leafValues></_>
        <_>
          <internalNodes>
            0 -1 264 -930609904 -1516079504 -38281739 1226354020
            -1359471559 -1183958926 -1935387588 -1551823067</internalNodes>
          <leafValues>
            -2.1027520298957825e-01 1.0649098455905914e-01</leafValues></_>
        <_>
          <internalNodes>
            0 -1 223 1052466430 -606732411 -689008929 -1057497897
            -29724693 -58867858 -1699914382 -656943531</internalNodes>
          <leafValues>
            -1.4492255449295044e-01 1.5499420464038849e-01</leafValues></_>
        <_>
          <internalNodes>
            0 -1 172 774015658 -350058271 1261685675 -337272122
            -943074825 2049392692 2094720646 1081425927</internalNodes>
          <leafValues>
            -2.0645381510257721e-01 1.0938947647809982e-01</leafValues></_>
        <_>
          <internalNodes>
            0 -1 107 -1095238098 -1222226685 -2105635235 1326648371
            -467971067 -216578938 -29851649 -2111058603</internalNodes>
          <leafValues>
            -1.5351092815399170e-01 1.4628560841083527e-01</leafValues></_>
        <_>
          <internalNodes>
            0 -1 283 -72467792 -475482112 1712993569 -323008087
            -1088642779 640672513 534471478 948570632</internalNodes>
          <leafValues>
            -2.5195372104644775e-01 9.0219132602214813e-02</leafValues></_>
        <_>
          <internalNodes>
            0 -1 41 -44119074 993158860 -2068762 1732668066 1716916063
            695544493 -318454720 1617370546</internalNodes>
          <leafValues>
            -2.2964596748352051e-01 9.8545730113983154e-02</leafValues></_>
        <_>
          <internalNodes>
            0 -1 238 -1573927406 -273244259 611978495 -261140890
            -1340897549 243255158 233971641 -1976849105</internalNodes>
          <leafValues>
            -1.3886591792106628e-01 1.6411730647087097e-01</leafValues></_>
        <_>
          <internalNodes>
            0 -1 75 -2000434046 -1969688613 592265146 -1989267558
            -255154042 1861119551 -1316534180 1420721523</internalNodes>
          <leafValues>
            -1.9167846441268921e-01 1.1579745262861252e-01</leafValues></_>
        <_>
          <internalNodes>
            0 -1 139 -387633 -270053921 1801070534 2145456103 -295760027
            -27164810 1005991697 -15733411</internalNodes>
          <leafValues>
            -1.5130271017551422e-01 1.5323415398597717e-01</leafValues></_>
        <_>
          <internalNodes>
            0 -1 314 -290469702 2137240402 1593732746 -9 -1366507382
            46038392 637329083 -523243814</internalNodes>
          <leafValues>
            -1.1853672564029694e-01 1.9660672545433044e-01</leafValues></_>
        <_>
          <internalNodes>
            0 -1 232 909548596 1037831284 1823108731 1249381983
            1599100467 -17338113 2120382399 -1141235069</internalNodes>
          <leafValues>
            -1.5703503787517548e-01 1.4466641843318939e-01</leafValues></_>
        <_>
          <internalNodes>
