<?xml version="1.0"?>
<opencv_storage>
<stage4>
  <maxWeakCount>18</maxWeakCount>
  <stageThreshold>-1.8221726417541504e+00</stageThreshold>
  <weakClassifiers>
    <_>
      <internalNodes>
        0 -1 1257 -145 -277872641 -285217043 -286785537 1945859941
        2012708727 -167805852 -84410569</internalNodes>
      <leafValues>
        -5.6835836172103882e-01 1.1946773529052734e-01</leafValues></_>
    <_>
      <internalNodes>
        0 -1 4749 914308983 2147450751 -32769 -17662081 -1073784971
        -32905 -268566156 -26053260</internalNodes>
      <leafValues>
        -3.9029747247695923e-01 2.6576763391494751e-01</leafValues></_>
    <_>
      <internalNodes>
        0 -1 664 -4751553 -285315073 -352355585 -285282561 2146907973
        -32897 -4556939 -16779915</internalNodes>
      <leafValues>
        -2.6505681872367859e-01 3.6409032344818115e-01</leafValues></_>
    <_>
      <internalNodes>
        0 -1 7069 217339189 -1050641 -526465 -16387 -1073905795 -1
        -1073905803 -201676</internalNodes>
      <leafValues>
        -3.1279325485229492e-01 2.9504346847534180e-01</leafValues></_>
    <_>
      <internalNodes>
        0 -1 278 -18 -537002004 1349569290 -781062392 -855706113
        -453314699 -1073692285 1936029479</internalNodes>
      <leafValues>
        -3.2199046015739441e-01 2.4597726762294769e-01</leafValues></_>
    <_>
      <internalNodes>
        0 -1 176 669286263 782532413 -268435465 631664437 1879047669
        -272629761 -557200 -1130301648</internalNodes>
      <leafValues>
        -3.4020635485649109e-01 2.1230125427246094e-01</leafValues></_>
    <_>
      <internalNodes>
        0 -1 8161 -145 -2001045507 -83 -520257544 -4259905 -1898447427
        -1079859280 -1063193420</internalNodes>
      <leafValues>
        -2.7662989497184753e-01 2.4521090090274811e-01</leafValues></_>
    <_>
      <internalNodes>
        0 -1 1376 -1023425010 2028928974 -357630454 1621819086
        1189037636 1195847238 -353698432 1882718071</internalNodes>
      <leafValues>
        -4.9689453840255737e-01 1.2002293765544891e-01</leafValues></_>
    <_>
      <internalNodes>
        0 -1 7600 -1092665539 -1351680644 -205 -1082322980 -1111492739
        -1912602689 -1073902092 -1112783600</internalNodes>
      <leafValues>
        -2.7615875005722046e-01 2.1578218042850494e-01</leafValues></_>
    <_>
      <internalNodes>
        0 -1 560 -335551497 -610091009 -201361440 -151061640 939485779
        -176685193 -152144015 -159974031</internalNodes>
      <leafValues>
        -2.2598546743392944e-01 2.5236439704895020e-01</leafValues></_>
    <_>
      <internalNodes>
        0 -1 1578 -262996242 -246349961 -86185412 -2838609 -662835731
        -55 -61035512 -36831286</internalNodes>
      <leafValues>
        -2.5371867418289185e-01 2.2423051297664642e-01</leafValues></_>
    <_>
      <internalNodes>
        0 -1 8177 7553191 -2064453637 2013147826 -922747975 850993069
        -2065703073 -1126170764 -1141129238</internalNodes>
      <leafValues>
        -2.5972458720207214e-01 2.0558696985244751e-01</leafValues></_>
    <_>
      <internalNodes>
        0 -1 7081 171854917 -1342378027 -34819 -147787984 -1248168332
        -1744830977 -1246070955 -227514800</internalNodes>
      <leafValues>
        -3.2048058509826660e-01 1.5796470642089844e-01</leafValues></_>
    <_>
      <internalNodes>
        0 -1 3688 -285331617 -16781697 -1097793 1915784958 2137070973
        -125868193 -285728806 -148701186</internalNodes>
      <leafValues>
        -2.0924350619316101e-01 2.3567828536033630e-01</leafValues></_>
    <_>
      <internalNodes>
        0 -1 1029 -269490237 -857411610 -1347437147 -852623701
        -1547991621 -440932865 1043804448 -458788573</internalNodes>
      <leafValues>
        -2.0059828460216522e-01 2.2975102066993713e-01</leafValues></_>
    <_>
      <internalNodes>
        0 -1 7627 -1879173835 -1392763540 -1342185613 -474211915
        1206902453 -1929449601 -268477388 -856143788</internalNodes>
      <leafValues>
        -2.6192647218704224e-01 1.6897332668304443e-01</leafValues></_>
    <_>
      <internalNodes>
        0 -1 1191 -17895826 -789910785 -231818202 -768481233 1414551348
        -802008987 -768280697 1382184575</internalNodes>
      <leafValues>
        -3.4126988053321838e-01 1.2540398538112640e-01</leafValues></_>
    <_>
      <internalNodes>
        0 -1 6236 103812917 -436404235 -268435457 -8466443 -1074298881
        -1 -1073856708 -1356070556</internalNodes>
      <leafValues>
        -2.5502488017082214e-01 1.6288571059703827e-01</leafValues></_></weakClassifiers></stage4>
</opencv_storage>
