<?xml version="1.0"?>
<opencv_storage>
<stage6>
  <maxWeakCount>40</maxWeakCount>
  <stageThreshold>-1.8362586498260498e+00</stageThreshold>
  <weakClassifiers>
    <_>
      <internalNodes>
        0 -1 619 -268440025 -268574993 -1360376304 -411828353 2004299520
        1968666215 -151521931 -134742025</internalNodes>
      <leafValues>
        -5.6778550148010254e-01 -4.1374461725354195e-03</leafValues></_>
    <_>
      <internalNodes>
        0 -1 1036 -295179734 -1295998878 -226867654 1078100482
        1864876163 302023714 1383593735 1932784435</internalNodes>
      <leafValues>
        -4.0126636624336243e-01 1.4469565451145172e-01</leafValues></_>
    <_>
      <internalNodes>
        0 -1 3217 1318055726 -788529281 -387238902 1618673266 1941593602
        -855638033 1907815680 -789053609</internalNodes>
      <leafValues>
        -3.9120152592658997e-01 1.5201927721500397e-01</leafValues></_>
    <_>
      <internalNodes>
        0 -1 8442 -961885139 -302055459 -420314334 -520161588
        -1229398956 -973275457 -1489832843 -453184395</internalNodes>
      <leafValues>
        -2.5741532444953918e-01 2.1375852823257446e-01</leafValues></_>
    <_>
      <internalNodes>
        0 -1 2165 -285757522 937409455 -822087921 -1343247457 -564719215
        -3859011 -898241012 -270561329</internalNodes>
      <leafValues>
        -2.1283696591854095e-01 2.3267646133899689e-01</leafValues></_>
    <_>
      <internalNodes>
        0 -1 8167 -268439633 -1480622084 -1074791059 -432914678
        -552337477 -1921515521 -543162914 -993798940</internalNodes>
      <leafValues>
        -1.9063574075698853e-01 2.5004389882087708e-01</leafValues></_>
    <_>
      <internalNodes>
        0 -1 3158 1953653855 2138781567 1979629247 2144364282 1995374733
        -27849458 -320394052 -82089254</internalNodes>
      <leafValues>
        -2.1402692794799805e-01 2.0813515782356262e-01</leafValues></_>
    <_>
      <internalNodes>
        0 -1 4784 -16902985 -285409289 -522240070 -520814594 1996451580
        -861126657 -4251856 -34675632</internalNodes>
      <leafValues>
        -2.0210707187652588e-01 2.0262815058231354e-01</leafValues></_>
    <_>
      <internalNodes>
        0 -1 722 -286334298 -433164929 -218972417 -1065615890 -269874102
        -1116209321 -17629185 -345768333</internalNodes>
      <leafValues>
        -2.1917483210563660e-01 1.7971193790435791e-01</leafValues></_>
    <_>
      <internalNodes>
        0 -1 1211 -16822578 -293705313 -253866516 1904143695 1962171658
        -176745131 -198117972 1886578479</internalNodes>
      <leafValues>
        -2.4952726066112518e-01 1.5923924744129181e-01</leafValues></_>
    <_>
      <internalNodes>
        0 -1 7990 -1077936129 -437822099 -6 -34120193 -1107429393
        -704643141 -1178620505 -1245754243</internalNodes>
      <leafValues>
        -1.3118553161621094e-01 2.9026770591735840e-01</leafValues></_>
    <_>
      <internalNodes>
        0 -1 482 -454038354 1358941375 -532698198 -1557159262 7627824
        1886535712 -671845072 1114854725</internalNodes>
      <leafValues>
        -4.2898720502853394e-01 8.2416169345378876e-02</leafValues></_>
    <_>
      <internalNodes>
        0 -1 1331 -197720731 -844550179 -722012441 -1108410714
        -1073789107 1834975095 -201975963 -18418059</internalNodes>
      <leafValues>
        -2.0697382092475891e-01 1.7468146979808807e-01</leafValues></_>
    <_>
      <internalNodes>
        0 -1 7620 1082115457 -1645219089 826131235 2146358271 352165887
        -2130978317 -1334453969 -188744709</internalNodes>
      <leafValues>
        -1.5813314914703369e-01 2.2841525077819824e-01</leafValues></_>
    <_>
      <internalNodes>
        0 -1 7327 -1346433219 -1221123 -1158270704 -4432684 -1208090627
        -1883247123 -1224805140 -1778494224</internalNodes>
      <leafValues>
        -1.7666631937026978e-01 1.9932870566844940e-01</leafValues></_>
    <_>
      <internalNodes>
        0 -1 17 -46423149 86159292 -1390150992 -328761520 -1094713601
        -1624375299 -1124613443 211544814</internalNodes>
      <leafValues>
        -1.7992921173572540e-01 1.9119702279567719e-01</leafValues></_>
    <_>
      <internalNodes>
        0 -1 4469 -1145426575 -1547776006 -268452559 -27200 -1350569987
        -1613828097 -8611931 -1912650636</internalNodes>
      <leafValues>
        -1.8933086097240448e-01 1.7491595447063446e-01</leafValues></_>
    <_>
      <internalNodes>
        0 -1 3349 -553648562 1576316926 -855741876 -537332120 -860100917
        -13582636 1215775820 -268176128</internalNodes>
      <leafValues>
        -2.2905963659286499e-01 1.5076903998851776e-01</leafValues></_>
    <_>
      <internalNodes>
        0 -1 1656 -127205458 2132807 -287117457 1240851879 -699007002
        -1200202016 -998783393 1346721101</internalNodes>
      <leafValues>
        -2.3051698505878448e-01 1.3705877959728241e-01</leafValues></_>
    <_>
      <internalNodes>
        0 -1 2646 1281873196 -1160353042 -2032220786 -1560269046
        74176697 -234922370 1962799358 1996225659</internalNodes>
      <leafValues>
        -2.1042300760746002e-01 1.5035992860794067e-01</leafValues></_>
    <_>
      <internalNodes>
        0 -1 5173 1409303824 -46510497 -38633665 1597144606 -42148724
        -17074065 -137562984 523899804</internalNodes>
      <leafValues>
        -2.6484680175781250e-01 1.2147404253482819e-01</leafValues></_>
    <_>
      <internalNodes>
        0 -1 457 -139203081 -671350850 -1073758224 -218185808
        -2085720833 -281330767 1199404788 -138939529</internalNodes>
      <leafValues>
        -1.2036824971437454e-01 2.8058478236198425e-01</leafValues></_>
    <_>
      <internalNodes>
        0 -1 4158 -900812960 -96538756 2086858553 -93599142 -1369164304
        -1129119760 978510853 482024799</internalNodes>
      <leafValues>
        -2.4052856862545013e-01 1.3476362824440002e-01</leafValues></_>
    <_>
      <internalNodes>
        0 -1 8457 -1364068507 603205356 -1090548249 -470294545 939521821
        223113196 1073684479 -34611724</internalNodes>
      <leafValues>
        -1.5801455080509186e-01 1.9221393764019012e-01</leafValues></_>
    <_>
      <internalNodes>
        0 -1 615 -1203820794 -1640220833 -17302729 -35244289 -593804106
        -222144818 -1095799586 857388631</internalNodes>
      <leafValues>
        -2.0994418859481812e-01 1.4537887275218964e-01</leafValues></_>
    <_>
      <internalNodes>
        0 -1 1542 1336670115 -868159821 -1476839851 -303532240
        -743706213 -1950620245 863122284 -992086695</internalNodes>
      <leafValues>
        -1.5694297850131989e-01 1.8874458968639374e-01</leafValues></_>
    <_>
      <internalNodes>
        0 -1 8049 -29622155 -906214353 -252281857 -1074391237
        -1647422091 -1108836609 -252149955 -1359855759</internalNodes>
      <leafValues>
        -2.3362261056900024e-01 1.2793292105197906e-01</leafValues></_>
    <_>
      <internalNodes>
        0 -1 644 -135268889 -273733341 -46725137 -811885112 -146865729
        1206873983 -1208483937 -9437857</internalNodes>
      <leafValues>
        -9.7470074892044067e-02 3.1962454319000244e-01</leafValues></_>
    <_>
      <internalNodes>
        0 -1 792 258360613 771540861 -1477558357 1068267404 800523649
        -18220038 -268479075 -1363251776</internalNodes>
      <leafValues>
        -2.1712061762809753e-01 1.3832078874111176e-01</leafValues></_>
    <_>
      <internalNodes>
        0 -1 3538 -71381250 1157777130 -433058625 -544633718 -962411300
        1449279556 2054191704 1538742151</internalNodes>
      <leafValues>
        -1.8625722825527191e-01 1.6270825266838074e-01</leafValues></_>
    <_>
      <internalNodes>
        0 -1 2503 1256631910 -626115969 -1841928400 45279200 1129598821
        1365400945 2054344055 1077047795</internalNodes>
      <leafValues>
        -3.6152401566505432e-01 8.5798688232898712e-02</leafValues></_>
    <_>
      <internalNodes>
        0 -1 7635 1123021498 70429684 1412869798 -1397293420 -296247049
        -2074975116 -143142193 1078621890</internalNodes>
      <leafValues>
        -2.5200390815734863e-01 1.1721251159906387e-01</leafValues></_>
    <_>
      <internalNodes>
        0 -1 8124 -722171348 -1517555740 -227738678 -503324190
        1626480086 -1830912825 -1073893618 363579270</internalNodes>
      <leafValues>
        -1.9556930661201477e-01 1.4912356436252594e-01</leafValues></_>
    <_>
      <internalNodes>
        0 -1 4294 2088502348 -159629733 -268500994 -103378 -1107538107
        -59474059 -303223179 -1129294512</internalNodes>
      <leafValues>
        -2.5680562853813171e-01 1.1607552319765091e-01</leafValues></_>
    <_>
      <internalNodes>
        0 -1 4783 -75575806 270514107 -1426846866 -33556566 1314816514
        -2066241801 -83966910 -790105361</internalNodes>
      <leafValues>
        -2.1059845387935638e-01 1.3538132607936859e-01</leafValues></_>
    <_>
      <internalNodes>
        0 -1 3640 -673247721 2004298551 -806320466 -264618066 -319447353
        1994676083 -237869261 -202199061</internalNodes>
      <leafValues>
        -1.4347541332244873e-01 1.9967839121818542e-01</leafValues></_>
    <_>
      <internalNodes>
        0 -1 814 1618326199 994775923 -345019911 -506756895 -725757985
        -583155795 -270064916 -838885190</internalNodes>
      <leafValues>
        -1.2742780148983002e-01 2.3158742487430573e-01</leafValues></_>
    <_>
      <internalNodes>
        0 -1 2647 -1090630432 -873570889 -469800218 -134879433
        -1078055103 -1048577 -1073938693 -1217233887</internalNodes>
      <leafValues>
        -1.8618586659431458e-01 1.5190963447093964e-01</leafValues></_>
    <_>
      <internalNodes>
        0 -1 3767 1459606538 1379081616 -226582898 875118352 -730057523
        1918009150 -1563920180 -669815611</internalNodes>
      <leafValues>
        -1.9672636687755585e-01 1.4185233414173126e-01</leafValues></_>
    <_>
      <internalNodes>
        0 -1 5195 13038081 -299174973 2088721759 874398462 1442665969
        234813950 -1932221160 1050608572</internalNodes>
      <leafValues>
        -2.2602698206901550e-01 1.2563553452491760e-01</leafValues></_></weakClassifiers></stage6>
</opencv_storage>
