<?xml version="1.0"?>
<opencv_storage>
<stage7>
  <maxWeakCount>52</maxWeakCount>
  <stageThreshold>-1.8204952478408813e+00</stageThreshold>
  <weakClassifiers>
    <_>
      <internalNodes>
        0 -1 6755 -35209247 -36865 -134217733 -4608839 -1658898
        -1073742083 -1208238595 495716520</internalNodes>
      <leafValues>
        -4.8382011055946350e-01 -3.9999999105930328e-02</leafValues></_>
    <_>
      <internalNodes>
        0 -1 1254 2138786525 -4456513 -352359426 -805585350 -9229709
        -276861059 -25723529 -558366860</internalNodes>
      <leafValues>
        -2.4175329506397247e-01 1.9698718190193176e-01</leafValues></_>
    <_>
      <internalNodes>
        0 -1 6426 1107232069 893153073 2113814015 -34439181 619669239
        -2013597737 227003836 -1061160006</internalNodes>
      <leafValues>
        -2.2057701647281647e-01 2.1373713016510010e-01</leafValues></_>
    <_>
      <internalNodes>
        0 -1 6861 -1965162415 -1073786373 -573441 -57355 -1092657927
        -1074039425 -210683937 993199123</internalNodes>
      <leafValues>
        -2.3246027529239655e-01 1.8952731788158417e-01</leafValues></_>
    <_>
      <internalNodes>
        0 -1 6035 8316193 528154623 -139141257 1060265329 -1737550599
        -1668284433 593229117 1002385979</internalNodes>
      <leafValues>
        -2.1841718256473541e-01 1.8301060795783997e-01</leafValues></_>
    <_>
      <internalNodes>
        0 -1 256 61064179 816084978 598942649 623290408 -941230081
        -269680914 1974957561 1226175316</internalNodes>
      <leafValues>
        -1.7140844464302063e-01 2.1518327295780182e-01</leafValues></_>
    <_>
      <internalNodes>
        0 -1 496 -1360740379 -1360592914 661649314 -1275136575
        -488250651 2120744959 -146343961 -268742887</internalNodes>
      <leafValues>
        -1.7662729322910309e-01 2.0915462076663971e-01</leafValues></_>
    <_>
      <internalNodes>
        0 -1 703 -184893220 -657150305 -1069057 -53559366 -73463142
        -635616193 616796158 -665334929</internalNodes>
      <leafValues>
        -1.9574749469757080e-01 1.8437033891677856e-01</leafValues></_>
    <_>
      <internalNodes>
        0 -1 165 -194708756 1995461888 -387944960 -744436448 -144315794
        -1966208 -1470930874 1363277120</internalNodes>
      <leafValues>
        -3.8707122206687927e-01 9.6141912043094635e-02</leafValues></_>
    <_>
      <internalNodes>
        0 -1 4165 -939197646 -2135621897 1248726525 -2078024719
        -281477206 -184631043 1869130031 226144703</internalNodes>
      <leafValues>
        -2.1739862859249115e-01 1.5897299349308014e-01</leafValues></_>
    <_>
      <internalNodes>
        0 -1 3394 -1213171723 -196625 -289472577 -79895712 -1363476995
        -524289 775880639 -856847312</internalNodes>
      <leafValues>
        -1.6766697168350220e-01 2.0540890097618103e-01</leafValues></_>
    <_>
      <internalNodes>
        0 -1 2619 -34582683 -269615131 -608267 -1078595585 -450748
        -277356673 -1073840137 -4284816</internalNodes>
      <leafValues>
        -1.8161380290985107e-01 1.8227298557758331e-01</leafValues></_>
    <_>
      <internalNodes>
        0 -1 7988 -1085572000 -1375736207 -32792 -1015902976 1067318707
        -2052849804 -1091076120 365647220</internalNodes>
      <leafValues>
        -2.4581983685493469e-01 1.2900978326797485e-01</leafValues></_>
    <_>
      <internalNodes>
        0 -1 2677 -604637321 -51597389 -1476395555 -504627719 -12545
        -33870147 -1258306355 -307515169</internalNodes>
      <leafValues>
        -1.1250576376914978e-01 3.0375531315803528e-01</leafValues></_>
    <_>
      <internalNodes>
        0 -1 567 -198718041 -1355814239 2130584143 -353370409 -364684849
        125767621 -338354 -142607865</internalNodes>
      <leafValues>
        -1.0431694239377975e-01 2.9034113883972168e-01</leafValues></_>
    <_>
      <internalNodes>
        0 -1 3706 1290799443 -546079882 -135643345 1966219030 775838997
        -44949689 -269140948 1060245014</internalNodes>
      <leafValues>
        -2.4034462869167328e-01 1.4272160828113556e-01</leafValues></_>
    <_>
      <internalNodes>
        0 -1 5943 -593167052 364141588 -1344032964 1608321440 456961469
        -1342341259 753904932 1069252591</internalNodes>
      <leafValues>
        -1.9311639666557312e-01 1.6797012090682983e-01</leafValues></_>
    <_>
      <internalNodes>
        0 -1 4831 929180948 -205717697 -1074827778 -55956238 796853621
        -436666507 2113756671 -803941004</internalNodes>
      <leafValues>
        -2.3585306107997894e-01 1.2720604240894318e-01</leafValues></_>
    <_>
      <internalNodes>
        0 -1 7358 1426051811 -791218225 -1242038281 -783190033 -54659905
        -723845122 -152208001 -1057557907</internalNodes>
      <leafValues>
        -1.1977477371692657e-01 2.3876100778579712e-01</leafValues></_>
    <_>
      <internalNodes>
        0 -1 2515 -72386235 9072367 -474047070 -1299279892 -256043668
        -840533650 -743647836 -739311636</internalNodes>
      <leafValues>
        -1.8110655248165131e-01 1.6089281439781189e-01</leafValues></_>
    <_>
      <internalNodes>
        0 -1 529 -4469041 1274265202 -1174568990 -135055495 -287848197
        794263375 2088075255 -486711449</internalNodes>
      <leafValues>
        -1.1532282829284668e-01 2.5657701492309570e-01</leafValues></_>
    <_>
      <internalNodes>
        0 -1 5092 -291480240 -319926447 -1342959772 -866641077
        -704924752 129654782 800462603 742014763</internalNodes>
      <leafValues>
        -2.5819802284240723e-01 1.2035119533538818e-01</leafValues></_>
    <_>
      <internalNodes>
        0 -1 7047 1143763988 -973079169 1341420853 -169592397
        -1800425317 -1916928836 934765708 364064402</internalNodes>
      <leafValues>
        -2.4569542706012726e-01 1.1305993795394897e-01</leafValues></_>
    <_>
      <internalNodes>
        0 -1 8273 -1292697758 -1594949655 -1073762398 -424611899
        -1377048987 -2023393409 -1078256351 804745193</internalNodes>
      <leafValues>
        -2.0807428658008575e-01 1.4144743978977203e-01</leafValues></_>
    <_>
      <internalNodes>
        0 -1 6062 1340857877 402025318 534613369 -323162896 -271115
        -838991913 -704651844 -1526728718</internalNodes>
      <leafValues>
        -1.3657313585281372e-01 2.0535659790039063e-01</leafValues></_>
    <_>
      <internalNodes>
        0 -1 1755 -268442386 1788004593 984813794 866371919 -403683844
        1983136880 1883563806 1933005199</internalNodes>
      <leafValues>
        -1.9282500445842743e-01 1.5053661167621613e-01</leafValues></_>
    <_>
      <internalNodes>
        0 -1 946 1211066297 -657916169 -5042119 -1524158289 -1600012357
        -302252097 -226007779 -443591285</internalNodes>
      <leafValues>
        -1.2667672336101532e-01 2.2384437918663025e-01</leafValues></_>
    <_>
      <internalNodes>
        0 -1 3945 -67108866 2145218501 989755068 -414322316 683197932
        -1758462515 705717268 8659841</internalNodes>
      <leafValues>
        -3.3769381046295166e-01 8.3898171782493591e-02</leafValues></_>
    <_>
      <internalNodes>
        0 -1 8062 1493048693 2035683167 -600514755 -1078968465 -88933451
        -889950297 -85160263 -1431290056</internalNodes>
      <leafValues>
        -1.9559249281883240e-01 1.4430990815162659e-01</leafValues></_>
    <_>
      <internalNodes>
        0 -1 4774 -88973836 -33989259 -365166913 -1074852433 -8516020
        -273077188 -71389394 -1461194997</internalNodes>
      <leafValues>
        -1.4151920378208160e-01 1.9275434315204620e-01</leafValues></_>
    <_>
      <internalNodes>
        0 -1 7512 -891387744 -1885467250 -83975432 -1610610186
        -577042168 1196361291 -8549752 808529796</internalNodes>
      <leafValues>
        -3.0190867185592651e-01 8.6303547024726868e-02</leafValues></_>
    <_>
      <internalNodes>
        0 -1 176 128192375 203714365 -559115 -1255887055 1979579901
        -1077936129 2146793848 -1482655968</internalNodes>
      <leafValues>
        -2.3791670799255371e-01 1.1690681427717209e-01</leafValues></_>
    <_>
      <internalNodes>
        0 -1 2464 -864580161 -481950427 -1706098849 1937057527
        -142914402 -1072411529 -587927740 1986368943</internalNodes>
      <leafValues>
        -1.4320673048496246e-01 1.9389201700687408e-01</leafValues></_>
    <_>
      <internalNodes>
        0 -1 7788 -79741005 1717735045 -1518607072 -202189807
        -1212153915 72875633 -738198112 292230584</internalNodes>
      <leafValues>
        -2.0456773042678833e-01 1.3593812286853790e-01</leafValues></_>
    <_>
      <internalNodes>
        0 -1 4709 788139085 -17076449 -1094914321 981102462 2095011609
        1969510230 -289928451 941633086</internalNodes>
      <leafValues>
        -2.6399406790733337e-01 1.0357255488634109e-01</leafValues></_>
    <_>
      <internalNodes>
        0 -1 5792 -1900527779 -341807377 -1502789837 -1378074641
        83735933 -268470273 -1375895822 -1342241247</internalNodes>
      <leafValues>
        -1.7592073976993561e-01 1.5033112466335297e-01</leafValues></_>
    <_>
      <internalNodes>
        0 -1 5721 -458301392 -277643405 -1347509379 219820031
        -1473762108 -1183378127 -1238340582 40419102</internalNodes>
      <leafValues>
        -2.0837545394897461e-01 1.2567088007926941e-01</leafValues></_>
    <_>
      <internalNodes>
        0 -1 593 -4198769 1337949533 -1409294 -16777303 -536876305
        1196914527 -218890241 -277350549</internalNodes>
      <leafValues>
        -7.6158948242664337e-02 3.5698589682579041e-01</leafValues></_>
    <_>
      <internalNodes>
        0 -1 2595 1952900509 -278397841 1638911707 -1658954305
        -1334861061 -5371141 -1603165983 -19702805</internalNodes>
      <leafValues>
        -1.1446309834718704e-01 2.2675825655460358e-01</leafValues></_>
    <_>
      <internalNodes>
        0 -1 640 -1356195016 749371385 -1493289206 2130214909 2130587490
        75399039 1996389920 1895783541</internalNodes>
      <leafValues>
        -2.8391206264495850e-01 9.5480963587760925e-02</leafValues></_>
    <_>
      <internalNodes>
        0 -1 2467 -423720946 1849192014 1085163951 1057181506 1147429942
        1970430064 -665797195 1933728514</internalNodes>
      <leafValues>
        -2.7722242474555969e-01 8.8812686502933502e-02</leafValues></_>
    <_>
      <internalNodes>
        0 -1 3543 -97857938 1487325407 1866079001 1236160298 1147292909
        2019968249 -1107230723 1239635793</internalNodes>
      <leafValues>
        -2.0977982878684998e-01 1.2816500663757324e-01</leafValues></_>
    <_>
      <internalNodes>
        0 -1 0 925897843 616642901 -1074268422 -1489911900 -1078071809
        -1527382545 -438707217 10757422</internalNodes>
      <leafValues>
        -2.1275511384010315e-01 1.2190091609954834e-01</leafValues></_>
    <_>
      <internalNodes>
        0 -1 8185 180339370 -2139847780 -352900574 147467966 -691742788
        1147796977 1341972475 -1002256454</internalNodes>
      <leafValues>
        -2.2945398092269897e-01 1.1188844591379166e-01</leafValues></_>
    <_>
      <internalNodes>
        0 -1 6782 42076020 -1090363452 -470487781 -134987850 -1128289035
        -1217020417 -1392546251 884505778</internalNodes>
      <leafValues>
        -2.2840493917465210e-01 1.1316967010498047e-01</leafValues></_>
    <_>
      <internalNodes>
        0 -1 101 1946741868 1060207366 -457175745 -1514950770 -13863458
        -279089780 2031442193 207091524</internalNodes>
      <leafValues>
        -2.2433303296566010e-01 1.1166613548994064e-01</leafValues></_>
    <_>
      <internalNodes>
        0 -1 7523 -1494306881 -276565004 -1564847872 -994184244
        -2070087751 -1919954408 243646858 1446248066</internalNodes>
      <leafValues>
        -1.4910316467285156e-01 1.7146895825862885e-01</leafValues></_>
    <_>
      <internalNodes>
        0 -1 293 1078273317 1925380769 -1573299 385196578 -220211277
        -327731463 -671656676 -1541945342</internalNodes>
      <leafValues>
        -1.7972384393215179e-01 1.4228324592113495e-01</leafValues></_>
    <_>
      <internalNodes>
        0 -1 5239 1455316053 1951161932 183394286 1004306412 -402756011
        -136842153 -1159959604 -1610467740</internalNodes>
      <leafValues>
        -2.3378950357437134e-01 1.1123094707727432e-01</leafValues></_>
    <_>
      <internalNodes>
        0 -1 383 792708087 2146088672 -483043856 -9502796 -675346945
        -277411808 1073053692 -804010770</internalNodes>
      <leafValues>
        -1.1980222910642624e-01 2.1042272448539734e-01</leafValues></_>
    <_>
      <internalNodes>
        0 -1 1359 -1603255040 -269861571 -92808146 -9429627 1015953229
        -891625473 648298301 -1413587675</internalNodes>
      <leafValues>
        -2.1633355319499969e-01 1.1748874187469482e-01</leafValues></_>
    <_>
      <internalNodes>
        0 -1 8445 -168342739 -1477729301 -2015370394 -1150291994
        -999264993 83752989 1956630163 -1931610915</internalNodes>
      <leafValues>
        -1.3230624794960022e-01 1.9425962865352631e-01</leafValues></_></weakClassifiers></stage7>
</opencv_storage>
