<?xml version="1.0"?>
<opencv_storage>
<stage2>
  <maxWeakCount>27</maxWeakCount>
  <stageThreshold>-1.9133428335189819e+00</stageThreshold>
  <weakClassifiers>
    <_>
      <internalNodes>
        0 -1 2574 1434207262 2144796767 -33817089 1057706395 -218758964
        -65458 -322655041 2138774299</internalNodes>
      <leafValues>
        -5.9458798170089722e-01 -3.8489736616611481e-03</leafValues></_>
    <_>
      <internalNodes>
        0 -1 102 -165609730 -15668495 -931078413 -217981661 -863962625
        -1123862 -2011106061 -743180861</internalNodes>
      <leafValues>
        -3.3773335814476013e-01 2.7810233831405640e-01</leafValues></_>
    <_>
      <internalNodes>
        0 -1 375 -67118594 -107017 458232352 1597185793 -2097491716
        -671197988 1212289272 322572571</internalNodes>
      <leafValues>
        -4.0670415759086609e-01 2.0646762847900391e-01</leafValues></_>
    <_>
      <internalNodes>
        0 -1 7598 -84041 -1242159867 -11265 -570721299 -206570564
        -1880703820 -1125144322 27983880</internalNodes>
      <leafValues>
        -2.4740123748779297e-01 3.3247506618499756e-01</leafValues></_>
    <_>
      <internalNodes>
        0 -1 1994 -121061160 -573744999 -727393025 -575045833 -129361190
        -92381637 -1476386852 -1205380105</internalNodes>
      <leafValues>
        -2.3295266926288605e-01 2.8171825408935547e-01</leafValues></_>
    <_>
      <internalNodes>
        0 -1 6516 -260124592 -537174443 -579117057 -539404973 -330825544
        -2157313 136613896 -217983934</internalNodes>
      <leafValues>
        -2.8311702609062195e-01 2.3578155040740967e-01</leafValues></_>
    <_>
      <internalNodes>
        0 -1 2033 -39792336 -243238118 1609397977 22150808 -1079128579
        -1107755651 -402683656 -1917869944</internalNodes>
      <leafValues>
        -2.4637082219123840e-01 2.6031118631362915e-01</leafValues></_>
    <_>
      <internalNodes>
        0 -1 6795 272815292 273825846 -1310659589 -682100738 3797432
        -1996767814 1088483790 -2131492870</internalNodes>
      <leafValues>
        -2.6923918724060059e-01 2.2252087295055389e-01</leafValues></_>
    <_>
      <internalNodes>
        0 -1 1139 -573586355 -1074982718 -1275113985 -1445261225
        251399389 -1610676002 721307981 -832633633</internalNodes>
      <leafValues>
        -2.0441366732120514e-01 2.8588381409645081e-01</leafValues></_>
    <_>
      <internalNodes>
        0 -1 3050 1213744372 -76346307 2113953501 1397817377 -197108226
        1953660925 -124583941 857955703</internalNodes>
      <leafValues>
        -3.0606293678283691e-01 1.8337197601795197e-01</leafValues></_>
    <_>
      <internalNodes>
        0 -1 232 33689712 -1759247947 -343365651 -1075509243 -1326238220
        -1074462800 -271475202 -910098096</internalNodes>
      <leafValues>
        -2.9320564866065979e-01 1.9577310979366302e-01</leafValues></_>
    <_>
      <internalNodes>
        0 -1 8435 -1068728312 -753016914 1073550242 -1061531472
        -153178184 -225193794 -1225868833 -119546149</internalNodes>
      <leafValues>
        -2.0335575938224792e-01 2.6555469632148743e-01</leafValues></_>
    <_>
      <internalNodes>
        0 -1 2307 -13567746 -546289865 -2065021894 -548058336 -51053313
        -1083430664 183828719 1079066625</internalNodes>
      <leafValues>
        -3.1220865249633789e-01 1.6037847101688385e-01</leafValues></_>
    <_>
      <internalNodes>
        0 -1 5239 -701866916 -573759928 974001647 -1180949412 -21215536
        -166235071 -1707066418 -1300225472</internalNodes>
      <leafValues>
        -2.7804481983184814e-01 1.9395774602890015e-01</leafValues></_>
    <_>
      <internalNodes>
        0 -1 6350 -100048 -706475672 397161853 1697192255 -1279478880
        77389768 -1275184337 96418042</internalNodes>
      <leafValues>
        -2.7455362677574158e-01 1.9161283969879150e-01</leafValues></_>
    <_>
      <internalNodes>
        0 -1 8309 -569504624 -785172691 469636337 -13023447 -1665626408
        -1661612165 -1206216562 -1098248566</internalNodes>
      <leafValues>
        -1.9121181964874268e-01 2.5472792983055115e-01</leafValues></_>
    <_>
      <internalNodes>
        0 -1 58 -109446772 524390408 795986953 117556745 -1111867970
        -10658670 -1073799333 -1349679526</internalNodes>
      <leafValues>
        -2.0498852431774139e-01 2.3586826026439667e-01</leafValues></_>
    <_>
      <internalNodes>
        0 -1 377 -6236352 -5636768 -1145569294 -67137285 -567940393
        796835825 1374147490 -1797308349</internalNodes>
      <leafValues>
        -1.9633956253528595e-01 2.4646168947219849e-01</leafValues></_>
    <_>
      <internalNodes>
        0 -1 7979 -1599021338 -2013291203 -1212198165 -1798449687
        -2114566145 100653557 -1208008709 301404411</internalNodes>
      <leafValues>
        -2.6167896389961243e-01 1.7318214476108551e-01</leafValues></_>
    <_>
      <internalNodes>
        0 -1 807 -354242063 2053161313 1832349109 -43951880 -21574419
        -1370891589 -437304103 -1408299830</internalNodes>
      <leafValues>
        -1.7725932598114014e-01 2.5230136513710022e-01</leafValues></_>
    <_>
      <internalNodes>
        0 -1 7377 -929541104 -1178991582 820002560 725298730 1279017468
        -1204540367 475270328 1359021619</internalNodes>
      <leafValues>
        -3.0874308943748474e-01 1.4156818389892578e-01</leafValues></_>
    <_>
      <internalNodes>
        0 -1 83 -623715088 1527991808 2142715728 221255168 -1174598568
        -289454661 1449418020 1076166656</internalNodes>
      <leafValues>
        -4.2065194249153137e-01 1.0086147487163544e-01</leafValues></_>
    <_>
      <internalNodes>
        0 -1 5201 880024400 -36425340 -545398819 2133853206 1009862336
        -1193013418 -2069756760 -1104016302</internalNodes>
      <leafValues>
        -2.4687398970127106e-01 1.7685179412364960e-01</leafValues></_>
    <_>
      <internalNodes>
        0 -1 3021 -486613780 -419804084 712138713 1799065192 -528710472
        1894469880 1584968637 2064864535</internalNodes>
      <leafValues>
        -2.3590669035911560e-01 1.7618231475353241e-01</leafValues></_>
    <_>
      <internalNodes>
        0 -1 6556 -1909967824 292624352 521223129 2046368893 -1364706884
        -1092788769 817372561 -1155004400</internalNodes>
      <leafValues>
        -3.1206133961677551e-01 1.2818457186222076e-01</leafValues></_>
    <_>
      <internalNodes>
        0 -1 5701 -692201296 368911880 -5341489 -537706810 1291298178
        -1560349291 2133183418 -563563</internalNodes>
      <leafValues>
        -1.5129189193248749e-01 2.6578375697135925e-01</leafValues></_>
    <_>
      <internalNodes>
        0 -1 3165 -756361406 -14519857 2130179550 989987367 -1594064671
        -234952997 -86187719 2080328063</internalNodes>
      <leafValues>
        -1.9204893708229065e-01 2.1367876231670380e-01</leafValues></_></weakClassifiers></stage2>
</opencv_storage>
