<?xml version="1.0"?>
<opencv_storage>
<stage1>
  <maxWeakCount>19</maxWeakCount>
  <stageThreshold>-1.9419071674346924e+00</stageThreshold>
  <weakClassifiers>
    <_>
      <internalNodes>
        0 -1 3147 343365076 2134071123 1610307551 528683546 419103999
        -111361 987716347 2075853435</internalNodes>
      <leafValues>
        -6.1949241161346436e-01 9.5458664000034332e-02</leafValues></_>
    <_>
      <internalNodes>
        0 -1 3306 -640615224 -45026568 -590545899 -2294440 -267858776
        -34026264 -939210548 -20132216</internalNodes>
      <leafValues>
        -4.8064512014389038e-01 2.6730045676231384e-01</leafValues></_>
    <_>
      <internalNodes>
        0 -1 511 -103497476 -34340507 -65605 -15137297 -359399352
        -598731440 -46136227 2064844591</internalNodes>
      <leafValues>
        -3.9639735221862793e-01 2.7968341112136841e-01</leafValues></_>
    <_>
      <internalNodes>
        0 -1 53 -572728086 -3014720 -116337596 -48118527 -2143036694
        -67110228 1612726471 -682507261</internalNodes>
      <leafValues>
        -3.1749361753463745e-01 3.1025055050849915e-01</leafValues></_>
    <_>
      <internalNodes>
        0 -1 1350 -725040936 -178942791 -1265665 -539976303 -1174402920
        -13607622 -1977593858 -1172217997</internalNodes>
      <leafValues>
        -2.8226503729820251e-01 3.3745300769805908e-01</leafValues></_>
    <_>
      <internalNodes>
        0 -1 7569 -3181073 -2050022272 -705818459 367793588 -1812990465
        268401149 -707054081 301797563</internalNodes>
      <leafValues>
        -3.4636509418487549e-01 2.6298642158508301e-01</leafValues></_>
    <_>
      <internalNodes>
        0 -1 2178 -1442799216 -34593264 504397809 366280708 -2146387716
        -1909424263 -1635199812 -2004352864</internalNodes>
      <leafValues>
        -3.5526162385940552e-01 2.4131594598293304e-01</leafValues></_>
    <_>
      <internalNodes>
        0 -1 5222 1481661524 -546038044 1060134909 -14604796 -128401415
        -2099723 -296682503 -1204746752</internalNodes>
      <leafValues>
        -3.5432097315788269e-01 2.2120259702205658e-01</leafValues></_>
    <_>
      <internalNodes>
        0 -1 4414 679479984 2134770608 804654909 959390001 -1946154824
        -72687880 1335364795 -1886581755</internalNodes>
      <leafValues>
        -3.3128041028976440e-01 2.3293508589267731e-01</leafValues></_>
    <_>
      <internalNodes>
        0 -1 8133 -797645136 -168759579 -135998792 -34235027 -795042562
        -1728124692 -1260519489 -103027745</internalNodes>
      <leafValues>
        -1.9042097032070160e-01 3.6137056350708008e-01</leafValues></_>
    <_>
      <internalNodes>
        0 -1 443 -555024674 -781137166 -2128065883 -1820909525
        -264224748 2054307876 -773825180 1395868163</internalNodes>
      <leafValues>
        -3.8678938150405884e-01 1.7165672779083252e-01</leafValues></_>
    <_>
      <internalNodes>
        0 -1 6422 269488208 -10202080 957832703 -37151976 1055940528
        -33685516 -1738121910 -1734344640</internalNodes>
      <leafValues>
        -2.9428443312644958e-01 2.0899587869644165e-01</leafValues></_>
    <_>
      <internalNodes>
        0 -1 8042 1512177808 -4387467 682766269 488636703 1548786938
        -1430880522 487988666 941624882</internalNodes>
      <leafValues>
        -3.2704079151153564e-01 1.7510566115379333e-01</leafValues></_>
    <_>
      <internalNodes>
        0 -1 25 -775687757 2044895274 -1984912131 389514513 -789976113
        -814730561 -868777749 -2004115201</internalNodes>
      <leafValues>
        -1.7081663012504578e-01 3.5518142580986023e-01</leafValues></_>
    <_>
      <internalNodes>
        0 -1 496 -1765754016 -9528342 923522432 -1814317616 -1507536223
        -1100693793 -146378112 -147108077</internalNodes>
      <leafValues>
        -2.0887467265129089e-01 2.6788949966430664e-01</leafValues></_>
    <_>
      <internalNodes>
        0 -1 683 -25371412 -307238273 -589987409 -570585203 -444709746
        92241621 -1397072641 -8434605</internalNodes>
      <leafValues>
        -1.9093459844589233e-01 2.9457783699035645e-01</leafValues></_>
    <_>
      <internalNodes>
        0 -1 7056 139511856 87769023 525944119 -4957134 -1581400385
        201064383 568967612 297474234</internalNodes>
      <leafValues>
        -3.3192533254623413e-01 1.7147940397262573e-01</leafValues></_>
    <_>
      <internalNodes>
        0 -1 3767 -697772968 1383140370 -218219811 1561231317 -194218764
        -84770958 -100116344 -660906541</internalNodes>
      <leafValues>
        -2.0024247467517853e-01 2.6307412981987000e-01</leafValues></_>
    <_>
      <internalNodes>
        0 -1 2991 -21050148 -213237557 -63959367 -817755638 1580220664
        -87406392 1779498749 2070102023</internalNodes>
      <leafValues>
        -2.4856886267662048e-01 2.1434961259365082e-01</leafValues></_></weakClassifiers></stage1>
</opencv_storage>
