<?xml version="1.0"?>
<opencv_storage>
<stage0>
  <maxWeakCount>11</maxWeakCount>
  <stageThreshold>-1.8707354068756104e+00</stageThreshold>
  <weakClassifiers>
    <_>
      <internalNodes>
        0 -1 217 -1 -305920 -1078452225 1560348928 -3342337 -2466295
        -1540097 1527976195</internalNodes>
      <leafValues>
        -6.4820355176925659e-01 3.1185066699981689e-01</leafValues></_>
    <_>
      <internalNodes>
        0 -1 2754 -587139904 -49217880 -645866475 -15075055 -132069204
        -33765204 -402601780 -113128958</internalNodes>
      <leafValues>
        -5.2529704570770264e-01 3.6152645945549011e-01</leafValues></_>
    <_>
      <internalNodes>
        0 -1 5678 80 286262043 431166975 393434931 11030776 -1985157121
        10485947 163259067</internalNodes>
      <leafValues>
        -5.1131695508956909e-01 3.3417344093322754e-01</leafValues></_>
    <_>
      <internalNodes>
        0 -1 2638 -130006960 -546026416 -103260163 1563974960 2097400
        -8880332 673189887 -1173140278</internalNodes>
      <leafValues>
        -3.9370152354240417e-01 3.3818471431732178e-01</leafValues></_>
    <_>
      <internalNodes>
        0 -1 7314 -2305583 -1577234980 -8585801 -1246424683 -1885610535
        497606136 -2017488385 29036698</internalNodes>
      <leafValues>
        -3.1216990947723389e-01 3.5916200280189514e-01</leafValues></_>
    <_>
      <internalNodes>
        0 -1 41 -201047968 494928074 83886097 285278208 -1179334259
        -1190490710 -1966866291 -2000551929</internalNodes>
      <leafValues>
        -3.3687037229537964e-01 2.8802490234375000e-01</leafValues></_>
    <_>
      <internalNodes>
        0 -1 953 -364842414 -250565088 -72262241 1595134546 -881601806
        -1881894416 -919119829 -445132745</internalNodes>
      <leafValues>
        -2.9476764798164368e-01 2.9793545603752136e-01</leafValues></_>
    <_>
      <internalNodes>
        0 -1 4259 1950368788 -206434019 894992095 1962936144 -398719796
        -88143859 -326361414 -1087288374</internalNodes>
      <leafValues>
        -2.9236701130867004e-01 2.8396138548851013e-01</leafValues></_>
    <_>
      <internalNodes>
        0 -1 8343 -805269456 157342208 -1619462815 -1315400960
        -766115880 -2004036664 -1827490849 -450102305</internalNodes>
      <leafValues>
        -2.6444143056869507e-01 3.0513215065002441e-01</leafValues></_>
    <_>
      <internalNodes>
        0 -1 6480 -575666096 -549775819 -1880854595 -1625610595
        -1195893510 -1099016838 -1397353221 -1154416637</internalNodes>
      <leafValues>
        -2.7988320589065552e-01 2.7373906970024109e-01</leafValues></_>
    <_>
      <internalNodes>
        0 -1 3945 -573639172 -2278411 -1464188404 -150925250 -1599544120
        -1758661139 672670876 8857122</internalNodes>
      <leafValues>
        -4.1536256670951843e-01 1.7913919687271118e-01</leafValues></_></weakClassifiers></stage0>
</opencv_storage>
