<?xml version="1.0"?>
<opencv_storage>
<stage3>
  <maxWeakCount>37</maxWeakCount>
  <stageThreshold>-1.8659543991088867e+00</stageThreshold>
  <weakClassifiers>
    <_>
      <internalNodes>
        0 -1 1262 -178723 -45703 -277929985 -10014733 -51118019 -8972937
        -386655137 -8945793</internalNodes>
      <leafValues>
        -5.0119662284851074e-01 2.1427320316433907e-02</leafValues></_>
    <_>
      <internalNodes>
        0 -1 8143 -1310805 -1484814851 503315915 1071073973 -268501281
        -2031185985 -50332465 83691707</internalNodes>
      <leafValues>
        -2.9799202084541321e-01 2.3190589249134064e-01</leafValues></_>
    <_>
      <internalNodes>
        0 -1 199 -905912542 -232725984 -550240905 268519424 -127402241
        -222959367 1897258879 270778931</internalNodes>
      <leafValues>
        -3.6545729637145996e-01 1.8737253546714783e-01</leafValues></_>
    <_>
      <internalNodes>
        0 -1 2075 -613221240 -539951478 805088777 -1155399816 -47129468
        -1913692 -363206587 -2753469</internalNodes>
      <leafValues>
        -2.6668614149093628e-01 2.4506615102291107e-01</leafValues></_>
    <_>
      <internalNodes>
        0 -1 3074 -855896996 -86030252 -29864739 1593968483 -329502721
        -646695081 -233545729 993673151</internalNodes>
      <leafValues>
        -3.1016770005226135e-01 1.7730414867401123e-01</leafValues></_>
    <_>
      <internalNodes>
        0 -1 1198 -94905616 -85669208 1400765153 -33829919 2146914691
        -940632617 1945576069 -215485145</internalNodes>
      <leafValues>
        -2.1003860235214233e-01 2.6969623565673828e-01</leafValues></_>
    <_>
      <internalNodes>
        0 -1 6059 4379777 1559392595 2100690431 2098494707 -995303939
        -1934694948 271965629 25941691</internalNodes>
      <leafValues>
        -2.7934294939041138e-01 1.8950261175632477e-01</leafValues></_>
    <_>
      <internalNodes>
        0 -1 2483 -867762226 -800919818 1650853183 1936974451
        -2143234848 1894830197 155190543 1669231935</internalNodes>
      <leafValues>
        -2.6798340678215027e-01 1.9377811253070831e-01</leafValues></_>
    <_>
      <internalNodes>
        0 -1 705 -790639404 -623051046 -1604767809 -572772598 -255718774
        -16884674 -267186438 -790134785</internalNodes>
      <leafValues>
        -2.0690755546092987e-01 2.4127726256847382e-01</leafValues></_>
    <_>
      <internalNodes>
        0 -1 456 -1985293840 -51917841 -536871582 -21569 11793073
        -595365935 -254316357 -134225217</internalNodes>
      <leafValues>
        -1.6395296156406403e-01 3.0911311507225037e-01</leafValues></_>
    <_>
      <internalNodes>
        0 -1 85 -109350221 1342237250 1991729986 624679427 -17367041
        -1518999561 678623818 -387777862</internalNodes>
      <leafValues>
        -1.6172294318675995e-01 2.7056792378425598e-01</leafValues></_>
    <_>
      <internalNodes>
        0 -1 6361 -1933392 -1184053840 2008778641 -113616971 -1087178864
        -475215088 -1287983319 -1985313664</internalNodes>
      <leafValues>
        -2.2554315626621246e-01 2.0000031590461731e-01</leafValues></_>
    <_>
      <internalNodes>
        0 -1 161 -6 -172800 -1749529176 1496910848 -554373180 -92507359
        -1198587929 810879746</internalNodes>
      <leafValues>
        -3.5601499676704407e-01 1.1607238650321960e-01</leafValues></_>
    <_>
      <internalNodes>
        0 -1 7472 -436027388 -139764643 -1108148235 -414628493
        -1036959539 -1565035313 -791374709 -469511609</internalNodes>
      <leafValues>
        -1.8722753226757050e-01 2.1892561018466949e-01</leafValues></_>
    <_>
      <internalNodes>
        0 -1 6286 -4661484 494433468 -1073867685 2133790592 -1833391444
        -1077937217 -1665618780 532629187</internalNodes>
      <leafValues>
        -2.1383905410766602e-01 1.8590946495532990e-01</leafValues></_>
    <_>
      <internalNodes>
        0 -1 5700 899830992 -736692713 -1628015969 -101024050 1028797600
        -1191773153 326955610 -257425903</internalNodes>
      <leafValues>
        -2.1223223209381104e-01 1.8598350882530212e-01</leafValues></_>
    <_>
      <internalNodes>
        0 -1 468 -25186570 1697383974 -422051228 -272222290 1692273912
        1073941973 -1460400319 1634957059</internalNodes>
      <leafValues>
        -2.8049901127815247e-01 1.3949052989482880e-01</leafValues></_>
    <_>
      <internalNodes>
        0 -1 121 -2143271611 -1155192524 -1346407011 -69369068
        2139052543 -1111762690 -1080603233 -1128948428</internalNodes>
      <leafValues>
        -2.4251200258731842e-01 1.6184493899345398e-01</leafValues></_>
    <_>
      <internalNodes>
        0 -1 667 -20023612 -271628498 -947975441 -1557590770 -13675123
        267345917 -1249913377 -115095721</internalNodes>
      <leafValues>
        -1.9223819673061371e-01 2.0043841004371643e-01</leafValues></_>
    <_>
      <internalNodes>
        0 -1 5551 -328269900 -304034576 1184893329 -804612037 -269704272
        28817842 234881547 11239863</internalNodes>
      <leafValues>
        -2.6260444521903992e-01 1.4581781625747681e-01</leafValues></_>
    <_>
      <internalNodes>
        0 -1 9 -836260080 289436416 817738740 488749749 710905036
        -1087389785 -536950276 -1124141554</internalNodes>
      <leafValues>
        -1.9856584072113037e-01 1.8644036352634430e-01</leafValues></_>
    <_>
      <internalNodes>
        0 -1 977 -799866906 2138103616 -923276162 -610195167 -195560333
        -1301029049 -1068153781 -750399676</internalNodes>
      <leafValues>
        -2.4573168158531189e-01 1.5154783427715302e-01</leafValues></_>
    <_>
      <internalNodes>
        0 -1 3681 -538310698 -198025380 -5312514 1058170370 -1326054151
        -251988643 1442782495 2142926778</internalNodes>
      <leafValues>
        -2.1431033313274384e-01 1.7633196711540222e-01</leafValues></_>
    <_>
      <internalNodes>
        0 -1 2701 -792838140 2034316195 -1598412099 648316416 -608125635
        -548459757 1140868703 205857367</internalNodes>
      <leafValues>
        -2.7134135365486145e-01 1.3787128031253815e-01</leafValues></_>
    <_>
      <internalNodes>
        0 -1 8363 -1088686174 -2071001599 -1616937558 -1979758883
        -1112820025 -2138700796 -1080049681 -1612755755</internalNodes>
      <leafValues>
        -1.8310585618019104e-01 1.9879865646362305e-01</leafValues></_>
    <_>
      <internalNodes>
        0 -1 6550 -286350320 -571310081 -894656577 800258865 -522182428
        -1277158857 -257556773 -219956429</internalNodes>
      <leafValues>
        -1.7821705341339111e-01 2.0016132295131683e-01</leafValues></_>
    <_>
      <internalNodes>
        0 -1 2563 -252772288 684666635 1969644511 1665346543 -766050288
        1079475285 -170117824 -671618448</internalNodes>
      <leafValues>
        -2.6129400730133057e-01 1.3712261617183685e-01</leafValues></_>
    <_>
      <internalNodes>
        0 -1 4756 168980994 -31309663 1324843007 -55114958 -1462467423
        -1329800235 -1365714632 953113394</internalNodes>
      <leafValues>
        -2.6110985875129700e-01 1.4027063548564911e-01</leafValues></_>
    <_>
      <internalNodes>
        0 -1 8461 -1462763304 2075045855 -4460662 -1275809853
        -1160026018 1308374041 1002086139 -1423020097</internalNodes>
      <leafValues>
        -2.0123127102851868e-01 1.7918102443218231e-01</leafValues></_>
    <_>
      <internalNodes>
        0 -1 4319 -558377640 -223142063 -757190401 -209511392 -158701624
        -266436890 -91616056 -762099775</internalNodes>
      <leafValues>
        -1.7071583867073059e-01 2.1586738526821136e-01</leafValues></_>
    <_>
      <internalNodes>
        0 -1 6465 -624507888 -1331523422 1366358480 725266722 -881572622
        -1975115356 -1040820942 91395</internalNodes>
      <leafValues>
        -2.9201126098632813e-01 1.2170200794935226e-01</leafValues></_>
    <_>
      <internalNodes>
        0 -1 563 -570425984 738159005 2130656866 -419438981 -1896059188
        1316822037 -942086449 -922913769</internalNodes>
      <leafValues>
        -1.5657845139503479e-01 2.2187122702598572e-01</leafValues></_>
    <_>
      <internalNodes>
        0 -1 3069 -536934834 -42660805 -395639431 2071432962 -119607365
        -185187019 -60784643 -213463121</internalNodes>
      <leafValues>
        -1.4623497426509857e-01 2.3730723559856415e-01</leafValues></_>
    <_>
      <internalNodes>
        0 -1 4874 1073750544 -1153956176 531480249 195989266 2079067580
        -1685279620 241470504 1259080964</internalNodes>
      <leafValues>
        -3.3775013685226440e-01 1.0286891460418701e-01</leafValues></_>
    <_>
      <internalNodes>
        0 -1 335 -867764494 807861286 -139739183 2102202591 -992544769
        -1345520451 -679004402 -1035477749</internalNodes>
      <leafValues>
        -1.5964326262474060e-01 2.1870857477188110e-01</leafValues></_>
    <_>
      <internalNodes>
        0 -1 7542 -223300976 -396841295 -1863289620 -118196512
        -1609563991 -2002038871 -1279737425 1372292611</internalNodes>
      <leafValues>
        -2.1797597408294678e-01 1.5469536185264587e-01</leafValues></_>
    <_>
      <internalNodes>
        0 -1 3586 -495988460 -12661622 -599892203 523373834 -1504782923
        -174664457 1014919957 -1414833429</internalNodes>
      <leafValues>
        -1.7868219316005707e-01 1.8692602217197418e-01</leafValues></_></weakClassifiers></stage3>
</opencv_storage>
