<?xml version="1.0"?>
<opencv_storage>
<stage9>
  <maxWeakCount>63</maxWeakCount>
  <stageThreshold>-1.7970056533813477e+00</stageThreshold>
  <weakClassifiers>
    <_>
      <internalNodes>
        0 -1 2125 -615252754 -619577619 -620954595 -9699493 -41947921
        -33558801 2055194829 -69472565</internalNodes>
      <leafValues>
        -4.4170239567756653e-01 -2.6757720857858658e-02</leafValues></_>
    <_>
      <internalNodes>
        0 -1 3 134485024 959777937 -302056053 -1317462527 -1076386385
        796359675 -1140883461 1043807923</internalNodes>
      <leafValues>
        -3.6563494801521301e-01 1.0778865963220596e-01</leafValues></_>
    <_>
      <internalNodes>
        0 -1 8425 313658815 1069160875 -67282971 -100982805 -360513
        -1074368514 -1090593105 -1359017150</internalNodes>
      <leafValues>
        -2.0586849749088287e-01 2.0426334440708160e-01</leafValues></_>
    <_>
      <internalNodes>
        0 -1 800 -139329896 -30792920 486174713 -295432 -403061252
        -1455624403 -329265924 5246168</internalNodes>
      <leafValues>
        -1.9140660762786865e-01 2.0092678070068359e-01</leafValues></_>
    <_>
      <internalNodes>
        0 -1 3723 878334982 -1226913 -1568915809 -244301966 -1805514613
        -10547426 -2073817857 2082233007</internalNodes>
      <leafValues>
        -2.6280626654624939e-01 1.3382703065872192e-01</leafValues></_>
    <_>
      <internalNodes>
        0 -1 1919 -4505352 -402688713 1282602747 2075918335 -8473950
        -948474763 2011621278 -8219</internalNodes>
      <leafValues>
        -1.4004293084144592e-01 2.3888452351093292e-01</leafValues></_>
    <_>
      <internalNodes>
        0 -1 8448 -202116305 -1083428979 1577035681 -1073763409
        994569855 653843580 -167777025 -2032202514</internalNodes>
      <leafValues>
        -1.7433574795722961e-01 1.8470446765422821e-01</leafValues></_>
    <_>
      <internalNodes>
        0 -1 699 -48046868 -1348806228 -810297377 1035939123 -1128595970
        -714612737 754376191 -1347699129</internalNodes>
      <leafValues>
        -1.2233413010835648e-01 2.3862658441066742e-01</leafValues></_>
    <_>
      <internalNodes>
        0 -1 240 -939263248 2068306535 -748562447 1852103932 -17592593
        -1342738964 -564871369 570922003</internalNodes>
      <leafValues>
        -1.9444456696510315e-01 1.5890000760555267e-01</leafValues></_>
    <_>
      <internalNodes>
        0 -1 3229 1077977719 -549798860 1862193148 -922961040 -335601985
        1275019199 -1560656395 401573047</internalNodes>
      <leafValues>
        -2.0633399486541748e-01 1.4166814088821411e-01</leafValues></_>
    <_>
      <internalNodes>
        0 -1 7246 -54792264 91815312 808515283 942934436 135955080
        38861316 343656174 890377735</internalNodes>
      <leafValues>
        -2.2375451028347015e-01 1.3482598960399628e-01</leafValues></_>
    <_>
      <internalNodes>
        0 -1 2849 1210754866 2103715500 -34875 -442121000 1148138927
        -1480622219 2086489258 -1002110847</internalNodes>
      <leafValues>
        -2.1418601274490356e-01 1.3613602519035339e-01</leafValues></_>
    <_>
      <internalNodes>
        0 -1 5704 324866397 1710107565 2147237375 2113728444 -5245957
        -537108500 -370754657 -277735153</internalNodes>
      <leafValues>
        -1.4918634295463562e-01 1.8853507936000824e-01</leafValues></_>
    <_>
      <internalNodes>
        0 -1 3004 -1401010992 -1392753444 -1346486480 974786320
        -352430604 -1969728035 792998000 145129331</internalNodes>
      <leafValues>
        -3.6226227879524231e-01 6.8355068564414978e-02</leafValues></_>
    <_>
      <internalNodes>
        0 -1 6425 138658949 1519841015 -277975171 -36668301 1558026397
        -1896448535 -50537347 361723443</internalNodes>
      <leafValues>
        -1.9007815420627594e-01 1.3899356126785278e-01</leafValues></_>
    <_>
      <internalNodes>
        0 -1 1206 -4494 -1086333790 740222715 -103887065 -603020
        2004080999 -717959299 823230284</internalNodes>
      <leafValues>
        -1.9651316106319427e-01 1.3373519480228424e-01</leafValues></_>
    <_>
      <internalNodes>
        0 -1 7401 -923873840 -34926045 -436503181 1336508408 14077183
        1060324095 -866717859 1648424772</internalNodes>
      <leafValues>
        -2.3089109361171722e-01 1.1478869616985321e-01</leafValues></_>
    <_>
      <internalNodes>
        0 -1 7331 -1618067123 -1375802514 -5354187 -43352291 770685917
        78618252 603390384 295715002</internalNodes>
      <leafValues>
        -2.5784662365913391e-01 9.7816444933414459e-02</leafValues></_>
    <_>
      <internalNodes>
        0 -1 1861 624358558 -1736568709 -13176295 2101462360 -575765294
        -340076580 -1483245929 923790078</internalNodes>
      <leafValues>
        -1.5871061384677887e-01 1.7121684551239014e-01</leafValues></_>
    <_>
      <internalNodes>
        0 -1 3210 1594871924 -771762721 1591612623 1499225578 -889293314
        -1191413177 1592687564 -925107309</internalNodes>
      <leafValues>
        -1.3715167343616486e-01 1.9637861847877502e-01</leafValues></_>
    <_>
      <internalNodes>
        0 -1 8176 -1140695230 -1105790998 -1344134934 -218110876
        1073673119 -2017232957 1040170255 -781821580</internalNodes>
      <leafValues>
        -1.7678382992744446e-01 1.4820949733257294e-01</leafValues></_>
    <_>
      <internalNodes>
        0 -1 1920 -12296868 732901816 1566842366 -1879237380 733040494
        804739967 -82834441 -1752054955</internalNodes>
      <leafValues>
        -2.0148831605911255e-01 1.2805810570716858e-01</leafValues></_>
    <_>
      <internalNodes>
        0 -1 4136 -523449504 -903808448 -280835309 -903708304
        -1511332448 787136944 130197765 41091891</internalNodes>
      <leafValues>
        -2.9466795921325684e-01 8.5613816976547241e-02</leafValues></_>
    <_>
      <internalNodes>
        0 -1 4599 -588264448 -724902270 1608506626 1387457058 -319935131
        201591246 1083458612 15169271</internalNodes>
      <leafValues>
        -3.4528729319572449e-01 6.9294407963752747e-02</leafValues></_>
    <_>
      <internalNodes>
        0 -1 50 960100748 524941192 1827693075 -1489896447 -369223433
        1583330346 1022705747 911602400</internalNodes>
      <leafValues>
        -2.0996561646461487e-01 1.1908379197120667e-01</leafValues></_>
    <_>
      <internalNodes>
        0 -1 63 -2295826 1567749409 673761696 2136019360 -1395788368
        -1207992351 709657772 861209262</internalNodes>
      <leafValues>
        -2.4066889286041260e-01 1.0480185598134995e-01</leafValues></_>
    <_>
      <internalNodes>
        0 -1 5999 -998849008 -571804302 2004570899 -843427022 1442787771
        396989887 1978619679 456024882</internalNodes>
      <leafValues>
        -2.2141100466251373e-01 1.3110654056072235e-01</leafValues></_>
    <_>
      <internalNodes>
        0 -1 5243 -11618113 -1795691085 -508101010 -167905482 -576719369
        -1533618473 -106549 -254807089</internalNodes>
      <leafValues>
        -1.1355110257863998e-01 2.2428718209266663e-01</leafValues></_>
    <_>
      <internalNodes>
        0 -1 5833 -424743115 -577050823 -1075740673 -1953423463
        -1170799361 -33561346 -1393619794 983289371</internalNodes>
      <leafValues>
        -1.1684384196996689e-01 2.0719456672668457e-01</leafValues></_>
    <_>
      <internalNodes>
        0 -1 1978 -524925792 28482035 -42029073 -1682141726 -1468715057
        -741909057 -1342351883 -1427889391</internalNodes>
      <leafValues>
        -2.0936845242977142e-01 1.1175900697708130e-01</leafValues></_>
    <_>
      <internalNodes>
        0 -1 456 -1081418760 -1578001 -570425886 -20609 312570873
        -200323133 -134743813 -402669377</internalNodes>
      <leafValues>
        -9.4991512596607208e-02 2.4682338535785675e-01</leafValues></_>
    <_>
      <internalNodes>
        0 -1 84 -8680774 2065764196 1068474236 -1147329112 -67921112
        -1409712131 1299832724 -1596588604</internalNodes>
      <leafValues>
        -1.5161387622356415e-01 1.6030944883823395e-01</leafValues></_>
    <_>
      <internalNodes>
        0 -1 8081 1679426581 -541123491 1073610111 1847732799
        -1000599879 -38052773 -742210 -536828013</internalNodes>
      <leafValues>
        -1.7127116024494171e-01 1.4628282189369202e-01</leafValues></_>
    <_>
      <internalNodes>
        0 -1 18 -692538703 262769224 -1967418505 -6171360 -257167383
        -1112151793 1684985725 818781997</internalNodes>
      <leafValues>
        -1.7588528990745544e-01 1.3227751851081848e-01</leafValues></_>
    <_>
      <internalNodes>
        0 -1 3215 -732969818 -682614885 -51647433 887086234 -799115756
        -82354826 -1225612149 -526167039</internalNodes>
      <leafValues>
        -1.6479042172431946e-01 1.4358860254287720e-01</leafValues></_>
    <_>
      <internalNodes>
        0 -1 1795 -1091576402 -382858566 1611827448 1933279744
        1959806014 1367031912 -1569657412 1733711105</internalNodes>
      <leafValues>
        -2.3518744111061096e-01 9.9739156663417816e-02</leafValues></_>
    <_>
      <internalNodes>
        0 -1 5425 -2078136521 -584049108 -279318531 -10634000
        -1195590147 -1149444615 219220620 -1073806195</internalNodes>
      <leafValues>
        -1.2656298279762268e-01 1.8525426089763641e-01</leafValues></_>
    <_>
      <internalNodes>
        0 -1 64 470288688 1026564063 -333316600 260420408 -1084506383
        1073432564 -265832769 11541946</internalNodes>
      <leafValues>
        -2.3628075420856476e-01 9.9461928009986877e-02</leafValues></_>
    <_>
      <internalNodes>
        0 -1 8178 -1663146802 -806502683 -20165466 -319439179
        -1074408132 234876148 -1227027829 -404761093</internalNodes>
      <leafValues>
        -1.4577408134937286e-01 1.6185936331748962e-01</leafValues></_>
    <_>
      <internalNodes>
        0 -1 2676 -765108715 -1921220787 -558023044 610910062 -151116140
        -1683162697 -117784684 547546564</internalNodes>
      <leafValues>
        -2.1052780747413635e-01 1.1129568517208099e-01</leafValues></_>
    <_>
      <internalNodes>
        0 -1 1286 -389036585 -571476521 -1208621293 -1278104688
        -86636297 -586729 -318783490 -25698630</internalNodes>
      <leafValues>
        -1.0525734722614288e-01 2.2969977557659149e-01</leafValues></_>
    <_>
      <internalNodes>
        0 -1 7644 -294402501 -1062887958 1010278199 -1913848342
        -1073771391 -218835739 -1201489239 -234901665</internalNodes>
      <leafValues>
        -1.1637535691261292e-01 2.0343524217605591e-01</leafValues></_>
    <_>
      <internalNodes>
        0 -1 6795 -790367041 1935090231 -504697565 -1821984913
        -2006984775 -1814094340 1087070412 2104983546</internalNodes>
      <leafValues>
        -1.1176676303148270e-01 2.0659115910530090e-01</leafValues></_>
    <_>
      <internalNodes>
        0 -1 4168 -2224408 -585921 -1292497222 1002080186 -166662524
        1425819191 -624909606 -80564598</internalNodes>
      <leafValues>
        -1.3389965891838074e-01 1.7783626914024353e-01</leafValues></_>
    <_>
      <internalNodes>
        0 -1 1318 -1172292148 53369767 -1230310674 -386014035 -89169081
        1338933079 -1107657235 -1884467371</internalNodes>
      <leafValues>
        -2.1170960366725922e-01 1.1188154667615891e-01</leafValues></_>
    <_>
      <internalNodes>
        0 -1 7948 -164579664 -1044711235 -193251662 -1236696984
        1375371023 351723283 -235001093 1363403975</internalNodes>
      <leafValues>
        -1.7918859422206879e-01 1.2852893769741058e-01</leafValues></_>
    <_>
      <internalNodes>
        0 -1 4724 1135750656 -173789435 -1620357281 2050637432
        -167825282 -178892 -277041153 -1199788097</internalNodes>
      <leafValues>
        -1.7700360715389252e-01 1.2801493704319000e-01</leafValues></_>
    <_>
      <internalNodes>
        0 -1 61 -537006129 -33686627 -528989113 -9070939 -736631053
        -1233125380 -126008073 -14817874</internalNodes>
      <leafValues>
        -9.6703104674816132e-02 2.4097032845020294e-01</leafValues></_>
    <_>
      <internalNodes>
        0 -1 463 1657456324 1342095352 889017914 1417091966 -169081447
        221523296 -973181315 560446383</internalNodes>
      <leafValues>
        -1.6204769909381866e-01 1.4132335782051086e-01</leafValues></_>
    <_>
      <internalNodes>
        0 -1 5350 -5050974 -42532994 -629359885 -5447712 -892467007
        -64257 1283194897 -221119532</internalNodes>
      <leafValues>
        -1.9272921979427338e-01 1.1757561564445496e-01</leafValues></_>
    <_>
      <internalNodes>
        0 -1 7010 -544146376 12415152 -1450178143 159221073 1068564145
        1376449765 121540232 603907769</internalNodes>
      <leafValues>
        -1.7940635979175568e-01 1.2698639929294586e-01</leafValues></_>
    <_>
      <internalNodes>
        0 -1 6535 -930609904 -1516079504 -38281739 1226354020
        -1359471559 -1183958926 -1935387588 -1551823067</internalNodes>
      <leafValues>
        -2.1027520298957825e-01 1.0649098455905914e-01</leafValues></_>
    <_>
      <internalNodes>
        0 -1 5235 1052466430 -606732411 -689008929 -1057497897 -29724693
        -58867858 -1699914382 -656943531</internalNodes>
      <leafValues>
        -1.4492255449295044e-01 1.5499420464038849e-01</leafValues></_>
    <_>
      <internalNodes>
        0 -1 3443 774015658 -350058271 1261685675 -337272122 -943074825
        2049392692 2094720646 1081425927</internalNodes>
      <leafValues>
        -2.0645381510257721e-01 1.0938947647809982e-01</leafValues></_>
    <_>
      <internalNodes>
        0 -1 1374 -1095238098 -1222226685 -2105635235 1326648371
        -467971067 -216578938 -29851649 -2111058603</internalNodes>
      <leafValues>
        -1.5351092815399170e-01 1.4628560841083527e-01</leafValues></_>
    <_>
      <internalNodes>
        0 -1 7288 -72467792 -475482112 1712993569 -323008087 -1088642779
        640672513 534471478 948570632</internalNodes>
      <leafValues>
        -2.5195372104644775e-01 9.0219132602214813e-02</leafValues></_>
    <_>
      <internalNodes>
        0 -1 394 -44119074 993158860 -2068762 1732668066 1716916063
        695544493 -318454720 1617370546</internalNodes>
      <leafValues>
        -2.2964596748352051e-01 9.8545730113983154e-02</leafValues></_>
    <_>
      <internalNodes>
        0 -1 5720 -1573927406 -273244259 611978495 -261140890
        -1340897549 243255158 233971641 -1976849105</internalNodes>
      <leafValues>
        -1.3886591792106628e-01 1.6411730647087097e-01</leafValues></_>
    <_>
      <internalNodes>
        0 -1 705 -2000434046 -1969688613 592265146 -1989267558
        -255154042 1861119551 -1316534180 1420721523</internalNodes>
      <leafValues>
        -1.9167846441268921e-01 1.1579745262861252e-01</leafValues></_>
    <_>
      <internalNodes>
        0 -1 2605 -387633 -270053921 1801070534 2145456103 -295760027
        -27164810 1005991697 -15733411</internalNodes>
      <leafValues>
        -1.5130271017551422e-01 1.5323415398597717e-01</leafValues></_>
    <_>
      <internalNodes>
        0 -1 8003 -290469702 2137240402 1593732746 -9 -1366507382
        46038392 637329083 -523243814</internalNodes>
      <leafValues>
        -1.1853672564029694e-01 1.9660672545433044e-01</leafValues></_>
    <_>
      <internalNodes>
        0 -1 5598 909548596 1037831284 1823108731 1249381983 1599100467
        -17338113 2120382399 -1141235069</internalNodes>
      <leafValues>
        -1.5703503787517548e-01 1.4466641843318939e-01</leafValues></_>
    <_>
      <internalNodes>
        0 -1 461 -8958028 -405809181 -454618895 -1512065105 -1212352527
        -1076889664 -21874497 -1495826325</internalNodes>
      <leafValues>
        -1.1191435903310776e-01 2.0386755466461182e-01</leafValues></_></weakClassifiers></stage9>
</opencv_storage>
