<?xml version="1.0"?>
<opencv_storage>
<stage1>
  <maxWeakCount>20</maxWeakCount>
  <stageThreshold>-1.7170970439910889e+00</stageThreshold>
  <weakClassifiers>
    <_>
      <internalNodes>
        0 -1 3708 1414545492 -8436649 -33587201 2136935807 -468843841
        -53841 -319750145 -294913</internalNodes>
      <leafValues>
        -4.2002606391906738e-01 3.7562310695648193e-01</leafValues></_>
    <_>
      <internalNodes>
        0 -1 3306 -783221560 -45026320 -577176555 -2753776 -669464408
        -34028312 -927676216 -53621624</internalNodes>
      <leafValues>
        -4.2510303854942322e-01 3.0882626771926880e-01</leafValues></_>
    <_>
      <internalNodes>
        0 -1 455 -536948482 -8502185 -135259208 1599168401 1110987000
        1897021520 1932660991 858919803</internalNodes>
      <leafValues>
        -4.1537794470787048e-01 2.5550976395606995e-01</leafValues></_>
    <_>
      <internalNodes>
        0 -1 6747 1599346133 -1778580259 1475810805 -707459753
        1438376379 98082268 -1783232323 96141370</internalNodes>
      <leafValues>
        -3.2184070348739624e-01 3.1858003139495850e-01</leafValues></_>
    <_>
      <internalNodes>
        0 -1 130 -805242640 1462884177 -138685067 2133020977 -341840965
        -276824142 -1155859525 -351841021</internalNodes>
      <leafValues>
        -2.9155969619750977e-01 3.1232237815856934e-01</leafValues></_>
    <_>
      <internalNodes>
        0 -1 50 -123680628 -1080979328 1123043865 251727361 -219805462
        -547748630 785467611 -1346270590</internalNodes>
      <leafValues>
        -3.0295193195343018e-01 2.4375747144222260e-01</leafValues></_>
    <_>
      <internalNodes>
        0 -1 703 -798441252 -639633219 -7966721 -40517702 -1342044024
        -618774479 -1472196852 -83666429</internalNodes>
      <leafValues>
        -2.1631506085395813e-01 3.3580398559570313e-01</leafValues></_>
    <_>
      <internalNodes>
        0 -1 8056 -663748396 -10529510 1048469341 487151375 921218044
        -130139015 -1198506309 -1473237454</internalNodes>
      <leafValues>
        -2.9002314805984497e-01 2.2151412069797516e-01</leafValues></_>
    <_>
      <internalNodes>
        0 -1 499 -216010616 -335734443 -21029344 -67299075 -2105801340
        -1078512299 1291209948 -352365483</internalNodes>
      <leafValues>
        -2.7008885145187378e-01 2.4490214884281158e-01</leafValues></_>
    <_>
      <internalNodes>
        0 -1 2991 -5977892 -607502167 1823608569 -549827288 1579188472
        -92651504 -1439630594 2070102047</internalNodes>
      <leafValues>
        -2.1361087262630463e-01 2.9013875126838684e-01</leafValues></_>
    <_>
      <internalNodes>
        0 -1 6188 176 -1284498792 422583807 832055632 -1145567235
        -1158132379 790904813 -1145568208</internalNodes>
      <leafValues>
        -3.7553578615188599e-01 1.4661225676536560e-01</leafValues></_>
    <_>
      <internalNodes>
        0 -1 6051 272678912 1565262391 -1784521289 1597142135 278189305
        -1980829762 808464568 145883307</internalNodes>
      <leafValues>
        -3.1353220343589783e-01 1.8670767545700073e-01</leafValues></_>
    <_>
      <internalNodes>
        0 -1 7528 -257888080 -1417610335 -1263469064 -374241179
        -253693784 -2002096472 -1137067093 10746667</internalNodes>
      <leafValues>
        -2.7653470635414124e-01 2.1021045744419098e-01</leafValues></_>
    <_>
      <internalNodes>
        0 -1 1920 -14927548 -307283542 2112887028 -1240899 -403431698
        1877940539 -950785033 -6618601</internalNodes>
      <leafValues>
        -2.4135495722293854e-01 2.3342698812484741e-01</leafValues></_>
    <_>
      <internalNodes>
        0 -1 174 -539109170 -709558864 1345324288 -680447232 -925053010
        -273809963 1074315395 1879113990</internalNodes>
      <leafValues>
        -3.6957356333732605e-01 1.4521834254264832e-01</leafValues></_>
    <_>
      <internalNodes>
        0 -1 6763 991432784 -169849856 -33988611 -545172208 -1092579596
        -219106432 -1433391688 -1181744096</internalNodes>
      <leafValues>
        -2.4158856272697449e-01 2.1990743279457092e-01</leafValues></_>
    <_>
      <internalNodes>
        0 -1 377 488773440 -173146686 -1049616 -67133270 -1767061506
        259944425 275731363 -1664679870</internalNodes>
      <leafValues>
        -2.6817148923873901e-01 1.9990797340869904e-01</leafValues></_>
    <_>
      <internalNodes>
        0 -1 17 -670915664 1896166300 -1358943248 -1389424048 -155536200
        -1157251137 -591877955 203073546</internalNodes>
      <leafValues>
        -2.4950504302978516e-01 2.0986337959766388e-01</leafValues></_>
    <_>
      <internalNodes>
        0 -1 3137 -859288496 2145149972 -55137025 2002009332 -24883983
        -11141035 -1392731938 1895970038</internalNodes>
      <leafValues>
        -2.7389615774154663e-01 1.7521440982818604e-01</leafValues></_>
    <_>
      <internalNodes>
        0 -1 5700 -174001968 -665428347 -1242270530 -39944984 1014027696
        -1327694833 928036506 -123511535</internalNodes>
      <leafValues>
        -1.8029622733592987e-01 2.6095792651176453e-01</leafValues></_></weakClassifiers></stage1>
</opencv_storage>
