<?xml version="1.0"?>
<opencv_storage>
<stage2>
  <maxWeakCount>31</maxWeakCount>
  <stageThreshold>-1.6916073560714722e+00</stageThreshold>
  <weakClassifiers>
    <_>
      <internalNodes>
        0 -1 1262 -703275 -61957 -1106049 -8704077 2096366781 -8972937
        -320595873 -8421505</internalNodes>
      <leafValues>
        -3.4567239880561829e-01 3.4782609343528748e-01</leafValues></_>
    <_>
      <internalNodes>
        0 -1 102 -167706882 -15675663 -390005001 -217973439 -25101313
        -402965 -2006844677 -605816893</internalNodes>
      <leafValues>
        -2.5864255428314209e-01 3.4830406308174133e-01</leafValues></_>
    <_>
      <internalNodes>
        0 -1 3699 339886164 1970296406 2134275581 522387474 282919160
        -235178753 1023344890 1001067067</internalNodes>
      <leafValues>
        -3.9069217443466187e-01 2.1690589189529419e-01</leafValues></_>
    <_>
      <internalNodes>
        0 -1 7569 -540018193 -2013810527 -978364947 -1779166747
        -1062218305 201063933 -706750981 436015295</internalNodes>
      <leafValues>
        -2.5015363097190857e-01 2.7893438935279846e-01</leafValues></_>
    <_>
      <internalNodes>
        0 -1 6516 -1068313520 -499883 1840897535 -539929135 -1809841992
        -604039955 134250504 -752749565</internalNodes>
      <leafValues>
        -2.5198736786842346e-01 2.5698029994964600e-01</leafValues></_>
    <_>
      <internalNodes>
        0 -1 1996 -129186732 -598455587 -38772739 -544321726 -119530852
        -104582 -268369974 -262975710</internalNodes>
      <leafValues>
        -2.9517114162445068e-01 2.0561178028583527e-01</leafValues></_>
    <_>
      <internalNodes>
        0 -1 154 -196610 -48179178 -50431779 218185809 -537075713
        -851441639 -396067329 1096105987</internalNodes>
      <leafValues>
        -3.0820465087890625e-01 2.1190255880355835e-01</leafValues></_>
    <_>
      <internalNodes>
        0 -1 2178 -1979711088 -34327024 525352377 -1649078256
        -1676889668 -1403684999 -1680812292 -2012676064</internalNodes>
      <leafValues>
        -3.1390076875686646e-01 1.6936309635639191e-01</leafValues></_>
    <_>
      <internalNodes>
        0 -1 8309 -569899888 -105760215 -1711405339 -13103575
        -1667189000 -1116647559 -1194804582 -1366815606</internalNodes>
      <leafValues>
        -2.3802840709686279e-01 2.2269994020462036e-01</leafValues></_>
    <_>
      <internalNodes>
        0 -1 453 -50790674 -596312322 186681902 -671903953 -179768858
        -261062364 1077941579 1400571191</internalNodes>
      <leafValues>
        -2.8313186764717102e-01 1.8891066312789917e-01</leafValues></_>
    <_>
      <internalNodes>
        0 -1 5592 -570942032 -774371104 1970828669 -1389883280
        -1074351632 547417312 -1074905169 682240170</internalNodes>
      <leafValues>
        -3.0032202601432800e-01 1.6981910169124603e-01</leafValues></_>
    <_>
      <internalNodes>
        0 -1 41 -199213024 387195362 16777553 318964239 -1145706001
        -881934337 1860568413 -2008086449</internalNodes>
      <leafValues>
        -2.1963092684745789e-01 2.2228372097015381e-01</leafValues></_>
    <_>
      <internalNodes>
        0 -1 496 -1220214812 -17920154 924111744 -201329328 1659171493
        -1369000385 1466202016 -138735102</internalNodes>
      <leafValues>
        -2.0629605650901794e-01 2.2142323851585388e-01</leafValues></_>
    <_>
      <internalNodes>
        0 -1 5334 -526212848 -1181210096 254553917 791225653 -3267144
        -5646179 -1440116805 -1440937981</internalNodes>
      <leafValues>
        -2.2134503722190857e-01 2.0435303449630737e-01</leafValues></_>
    <_>
      <internalNodes>
        0 -1 645 -33369664 -844379065 -38327601 -402670114 -206437172
        254500863 2009047023 -4207521</internalNodes>
      <leafValues>
        -1.7709125578403473e-01 2.6242500543594360e-01</leafValues></_>
    <_>
      <internalNodes>
        0 -1 1621 -805241626 -16756912 -555955110 1594960675 -329911069
        -30139020 -2141831101 1140936004</internalNodes>
      <leafValues>
        -3.4034502506256104e-01 1.2979021668434143e-01</leafValues></_>
    <_>
      <internalNodes>
        0 -1 5201 336613456 -34197456 -679620647 -9434096 1013973184
        -571201980 1624247464 -1188035520</internalNodes>
      <leafValues>
        -2.6287275552749634e-01 1.6489224135875702e-01</leafValues></_>
    <_>
      <internalNodes>
        0 -1 6795 4379828 276193334 -1595867457 -780994626 845304
        -2003116550 1145077960 11763706</internalNodes>
      <leafValues>
        -2.8151017427444458e-01 1.5223270654678345e-01</leafValues></_>
    <_>
      <internalNodes>
        0 -1 541 -26220819 1400268623 -253361955 -135827665 -252704636
        1903305812 -463405089 1913847599</internalNodes>
      <leafValues>
        -1.9764122366905212e-01 2.1661823987960815e-01</leafValues></_>
    <_>
      <internalNodes>
        0 -1 232 638320736 325330208 -1248844379 -35312987 -1294395915
        -1074758666 -1245241862 -977203120</internalNodes>
      <leafValues>
        -2.6064968109130859e-01 1.5400578081607819e-01</leafValues></_>
    <_>
      <internalNodes>
        0 -1 6286 -467180 1035474364 2146371409 1072639464 -1699169539
        -2425941 -1934055260 430900386</internalNodes>
      <leafValues>
        -2.2081930935382843e-01 1.7338286340236664e-01</leafValues></_>
    <_>
      <internalNodes>
        0 -1 5541 -339726544 -1411228656 -926097583 -885486928
        -362748688 -1343052425 -1221024475 679687623</internalNodes>
      <leafValues>
        -2.8403452038764954e-01 1.3524475693702698e-01</leafValues></_>
    <_>
      <internalNodes>
        0 -1 753 -563367791 2099948458 -729739984 226343424 -822094369
        -1879286339 517333245 -1901354254</internalNodes>
      <leafValues>
        -1.6526329517364502e-01 2.3290576040744781e-01</leafValues></_>
    <_>
      <internalNodes>
        0 -1 4319 -709471140 -267379952 -264097537 824388768 -425169152
        -99467600 -74440837 -770488507</internalNodes>
      <leafValues>
        -2.0685288310050964e-01 1.8355795741081238e-01</leafValues></_>
    <_>
      <internalNodes>
        0 -1 6847 -392519595 -1760156142 -76357635 2138912411
        -1267728129 -1164431606 -499513270 976422402</internalNodes>
      <leafValues>
        -1.9408123195171356e-01 1.9637688994407654e-01</leafValues></_>
    <_>
      <internalNodes>
        0 -1 8178 -1869982520 -806549779 -825741652 -285884675
        -1506741780 -2034238020 -1076255573 -203471621</internalNodes>
      <leafValues>
        -1.7137467861175537e-01 2.1698501706123352e-01</leafValues></_>
    <_>
      <internalNodes>
        0 -1 7082 1543886068 -1782381370 -38404107 -3292714 -819793701
        -1076039242 -40567207 -60992257</internalNodes>
      <leafValues>
        -1.2730397284030914e-01 2.7995306253433228e-01</leafValues></_>
    <_>
      <internalNodes>
        0 -1 5419 -1442708304 -408386068 -1011593867 -715581259
        -1507149670 1660729597 640433147 -1953890164</internalNodes>
      <leafValues>
        -2.1813857555389404e-01 1.6433423757553101e-01</leafValues></_>
    <_>
      <internalNodes>
        0 -1 1262 1221499246 -949230227 -1921634490 1072117602 -46433178
        1207402492 1043630052 1924629423</internalNodes>
      <leafValues>
        -1.9672690331935883e-01 1.7848338186740875e-01</leafValues></_>
    <_>
      <internalNodes>
        0 -1 2473 -65125156 -570539779 -14483691 491324471 -20681260
        2138996246 -559915279 35868819</internalNodes>
      <leafValues>
        -2.6587945222854614e-01 1.2977512180805206e-01</leafValues></_>
    <_>
      <internalNodes>
        0 -1 8062 1515328560 1507331185 892341279 -1623713923
        -1296394768 -1964978780 -1341910853 -1977601480</internalNodes>
      <leafValues>
        -2.5005924701690674e-01 1.3721981644630432e-01</leafValues></_></weakClassifiers></stage2>
</opencv_storage>
