<?xml version="1.0"?>
<opencv_storage>
<stage3>
  <maxWeakCount>43</maxWeakCount>
  <stageThreshold>-1.7149044275283813e+00</stageThreshold>
  <weakClassifiers>
    <_>
      <internalNodes>
        0 -1 4259 1966234711 -8710817 -176553985 2136096594 2062944479
        -67154625 -856769281 -12886049</internalNodes>
      <leafValues>
        -3.0754125118255615e-01 2.7316036820411682e-01</leafValues></_>
    <_>
      <internalNodes>
        0 -1 2075 -751641432 -611255094 -1258488807 -80609415 -63316786
        -1325844 -260511527 -293</internalNodes>
      <leafValues>
        -2.5673067569732666e-01 2.8595152497291565e-01</leafValues></_>
    <_>
      <internalNodes>
        0 -1 2638 -666873636 -578978565 -34217985 1577017338 -1868035873
        -13011073 678498252 -1193836821</internalNodes>
      <leafValues>
        -2.4067617952823639e-01 2.6553225517272949e-01</leafValues></_>
    <_>
      <internalNodes>
        0 -1 8143 -72352861 90146285 -1610613301 533990576 -542113825
        -1880184833 -50594597 82118843</internalNodes>
      <leafValues>
        -2.5608506798744202e-01 2.4134533107280731e-01</leafValues></_>
    <_>
      <internalNodes>
        0 -1 247 -16842896 1460690000 -541984975 1426152464 -772989456
        2137347441 1130713376 1098339347</internalNodes>
      <leafValues>
        -3.8218185305595398e-01 1.2759949266910553e-01</leafValues></_>
    <_>
      <internalNodes>
        0 -1 6403 6340836 1073614847 -578757257 -9415375 557118719
        -1913733169 284639421 423434299</internalNodes>
      <leafValues>
        -2.6955398917198181e-01 1.9432070851325989e-01</leafValues></_>
    <_>
      <internalNodes>
        0 -1 53 -571679506 -2752527 -529509308 -417209088 1482947246
        -1098907675 -533674811 -715795456</internalNodes>
      <leafValues>
        -2.7651241421699524e-01 1.7453896999359131e-01</leafValues></_>
    <_>
      <internalNodes>
        0 -1 3050 1792820476 -76345665 1581272285 1567689770 -799794247
        2018659701 -133103617 858922431</internalNodes>
      <leafValues>
        -3.0189359188079834e-01 1.3202004134654999e-01</leafValues></_>
    <_>
      <internalNodes>
        0 -1 64 -1677682528 897588620 673838653 -1349178595 -1111573254
        -1896209168 -1945190725 -1652024166</internalNodes>
      <leafValues>
        -1.8548950552940369e-01 2.3893900215625763e-01</leafValues></_>
    <_>
      <internalNodes>
        0 -1 531 -605040320 -1476437547 -83947280 -486713903 -1968810792
        -889367427 1560040655 -875573033</internalNodes>
      <leafValues>
        -1.7002308368682861e-01 2.6205417513847351e-01</leafValues></_>
    <_>
      <internalNodes>
        0 -1 6702 -176359152 -175603232 1964048177 -578278031
        -1276070983 433893593 -1257702465 -708892673</internalNodes>
      <leafValues>
        -1.6666033864021301e-01 2.4752044677734375e-01</leafValues></_>
    <_>
      <internalNodes>
        0 -1 1348 -156574396 -39078874 2008688559 -4378945 -1163256680
        -684249089 -1079836673 -1356642809</internalNodes>
      <leafValues>
        -1.6500987112522125e-01 2.4651531875133514e-01</leafValues></_>
    <_>
      <internalNodes>
        0 -1 559 -1334164276 -75874466 -1279311953 534470489 -1847175948
        -753770556 872054527 395971919</internalNodes>
      <leafValues>
        -2.5192958116531372e-01 1.6008280217647552e-01</leafValues></_>
    <_>
      <internalNodes>
        0 -1 2185 -1037936976 1484809730 -147382819 -1291775712
        -1577989896 -1330470529 1106776233 -1666494301</internalNodes>
      <leafValues>
        -1.8910141289234161e-01 2.1489727497100830e-01</leafValues></_>
    <_>
      <internalNodes>
        0 -1 5903 -1376972 -545629802 1602187253 2111570708 -693597955
        -862397736 -1931900740 415178371</internalNodes>
      <leafValues>
        -1.9670595228672028e-01 2.0353458821773529e-01</leafValues></_>
    <_>
      <internalNodes>
        0 -1 7377 -891796400 -1141767114 -1353697892 724766474
        1611923710 -1183579913 201591992 590546723</internalNodes>
      <leafValues>
        -2.6980170607566833e-01 1.3789701461791992e-01</leafValues></_>
    <_>
      <internalNodes>
        0 -1 3819 -3542034 -1715883335 -860196064 -1244630732
        -1164126724 -1077953550 540042336 547824615</internalNodes>
      <leafValues>
        -2.7846652269363403e-01 1.3735947012901306e-01</leafValues></_>
    <_>
      <internalNodes>
        0 -1 5222 1480119380 -562272540 -59318691 -14457274 -59466755
        -16838441 -367854760 -126794208</internalNodes>
      <leafValues>
        -2.1500842273235321e-01 1.7263570427894592e-01</leafValues></_>
    <_>
      <internalNodes>
        0 -1 2090 -766971486 -887005168 1809295530 -697829614 -481235273
        -1409844481 2002088039 -1066929150</internalNodes>
      <leafValues>
        -1.8539376556873322e-01 1.9849137961864471e-01</leafValues></_>
    <_>
      <internalNodes>
        0 -1 456 -1212493332 -1070097 -6815840 -291921 -2135690319
        -259784751 1912074939 -268451137</internalNodes>
      <leafValues>
        -1.1928422749042511e-01 3.2280123233795166e-01</leafValues></_>
    <_>
      <internalNodes>
        0 -1 238 671245840 286262048 766548821 488191027 -1492977748
        -1648281648 -1130354472 -1796144112</internalNodes>
      <leafValues>
        -2.1111750602722168e-01 1.6728450357913971e-01</leafValues></_>
    <_>
      <internalNodes>
        0 -1 2619 -48234428 -320043804 -1277905422 -4381187 -137362364
        -970634158 -1074643661 -139289536</internalNodes>
      <leafValues>
        -2.4073357880115509e-01 1.4029343426227570e-01</leafValues></_>
    <_>
      <internalNodes>
        0 -1 8217 -661764868 -243919053 934766527 2099524438 -1191392546
        -1166123042 -1429405953 -1439688566</internalNodes>
      <leafValues>
        -1.7698296904563904e-01 1.9153693318367004e-01</leafValues></_>
    <_>
      <internalNodes>
        0 -1 1960 -1943874174 -16116537 -606177378 856054603 -2067890048
        -151070726 -1997470791 2146910513</internalNodes>
      <leafValues>
        -1.9426724314689636e-01 1.7700667679309845e-01</leafValues></_>
    <_>
      <internalNodes>
        0 -1 3573 -858996484 -641071060 -897921196 54659336 1584421052
        1408637434 840982429 1260603155</internalNodes>
      <leafValues>
        -2.4600066244602203e-01 1.3557428121566772e-01</leafValues></_>
    <_>
      <internalNodes>
        0 -1 7940 -592400132 -1879282577 1614082608 -587406632
        -1744797458 137002165 -1335050341 271459843</internalNodes>
      <leafValues>
        -2.4035607278347015e-01 1.3839149475097656e-01</leafValues></_>
    <_>
      <internalNodes>
        0 -1 7617 285364640 -1595403548 -69493261 -6483832 -1787234883
        -2052066399 -1586723831 -1312947016</internalNodes>
      <leafValues>
        -2.0384304225444794e-01 1.5796242654323578e-01</leafValues></_>
    <_>
      <internalNodes>
        0 -1 18 -718359663 1578739720 1379074097 -1114533840 -72613905
        -1149268498 1683850751 751241775</internalNodes>
      <leafValues>
        -1.5360958874225616e-01 2.0796076953411102e-01</leafValues></_>
    <_>
      <internalNodes>
        0 -1 6069 2126140496 -1219225056 -30474992 1603653352 521197776
        -1602691884 714136314 -108819312</internalNodes>
      <leafValues>
        -1.7352738976478577e-01 1.8382582068443298e-01</leafValues></_>
    <_>
      <internalNodes>
        0 -1 3884 1778557456 938509282 800005949 234662791 -297005640
        -628602764 1282223162 -818049979</internalNodes>
      <leafValues>
        -2.1513278782367706e-01 1.4960603415966034e-01</leafValues></_>
    <_>
      <internalNodes>
        0 -1 1167 -84107442 -890716513 730998532 -374103537 -323159945
        36748648 160460071 1379040631</internalNodes>
      <leafValues>
        -3.0429136753082275e-01 1.0486613214015961e-01</leafValues></_>
    <_>
      <internalNodes>
        0 -1 3079 1952629852 407719005 -34185840 956304762 -541452
        -2529298 -36015852 780893438</internalNodes>
      <leafValues>
        -2.2529040277004242e-01 1.3646154105663300e-01</leafValues></_>
    <_>
      <internalNodes>
        0 -1 497 -33837628 -1051115606 -559216 -168477382 1782996173
        846724541 -406569971 -255333581</internalNodes>
      <leafValues>
        -1.4655558764934540e-01 2.1412761509418488e-01</leafValues></_>
    <_>
      <internalNodes>
        0 -1 4890 -542966288 2104776641 -302075941 1606189024 -926250801
        -44415749 68027404 -993225404</internalNodes>
      <leafValues>
        -2.5802537798881531e-01 1.2498717010021210e-01</leafValues></_>
    <_>
      <internalNodes>
        0 -1 2336 -27009878 -84747071 -288956610 -1078112381 -2105696970
        -88909414 -32370086 1524588379</internalNodes>
      <leafValues>
        -1.7269673943519592e-01 1.8563802540302277e-01</leafValues></_>
    <_>
      <internalNodes>
        0 -1 1345 -57125652 1709932211 892974315 -72409349 -1330639667
        -2122680452 -190251009 -1413804589</internalNodes>
      <leafValues>
        -1.3330192863941193e-01 2.3236790299415588e-01</leafValues></_>
    <_>
      <internalNodes>
        0 -1 8435 -741834740 -138807387 1035539232 -590081926 2027076286
        -88098402 452360639 -102761257</internalNodes>
      <leafValues>
        -1.3077595829963684e-01 2.3785850405693054e-01</leafValues></_>
    <_>
      <internalNodes>
        0 -1 176 -968601227 522464945 2006413797 488703009 -168501771
        -2018411010 -673744488 -1163856733</internalNodes>
      <leafValues>
        -1.5921978652477264e-01 1.8439750373363495e-01</leafValues></_>
    <_>
      <internalNodes>
        0 -1 6089 -1000176524 -1288621704 -496730627 791816051
        -1877307233 -2132147178 -1521319027 -1979676669</internalNodes>
      <leafValues>
        -1.7895327508449554e-01 1.5869601070880890e-01</leafValues></_>
    <_>
      <internalNodes>
        0 -1 5651 1852982293 1596028454 871514109 -1082120606 -353038632
        -425324739 550901916 1065888808</internalNodes>
      <leafValues>
        -2.3805584013462067e-01 1.2171135097742081e-01</leafValues></_>
    <_>
      <internalNodes>
        0 -1 473 -54597042 623248683 -320836420 -278410102 1994788045
        1547046134 -194730539 1915975587</internalNodes>
      <leafValues>
        -2.2430856525897980e-01 1.2969213724136353e-01</leafValues></_>
    <_>
      <internalNodes>
        0 -1 8170 -1930764832 -353280535 -354550016 -268615188
        -1413611555 41810210 -1346903649 -1043643912</internalNodes>
      <leafValues>
        -1.5276987850666046e-01 1.8586969375610352e-01</leafValues></_>
    <_>
      <internalNodes>
        0 -1 7144 -1003355052 -714920498 -375391209 152111417 -992107287
        -1796123299 1372138775 808655411</internalNodes>
      <leafValues>
        -2.0723810791969299e-01 1.4059352874755859e-01</leafValues></_></weakClassifiers></stage3>
</opencv_storage>
