<?xml version="1.0"?>
<opencv_storage>
<stage5>
  <maxWeakCount>40</maxWeakCount>
  <stageThreshold>-1.6897525787353516e+00</stageThreshold>
  <weakClassifiers>
    <_>
      <internalNodes>
        0 -1 4749 880547125 -32769 -32769 -622601 -1073782923 -137
        -285315588 -363012</internalNodes>
      <leafValues>
        -3.7598702311515808e-01 2.4151702225208282e-01</leafValues></_>
    <_>
      <internalNodes>
        0 -1 6412 635701109 -10518529 -32769 -32833 1879013299 -65537
        -16809985 -17809420</internalNodes>
      <leafValues>
        -3.0041772127151489e-01 2.5284561514854431e-01</leafValues></_>
    <_>
      <internalNodes>
        0 -1 1319 -307329 -49165 -118865 -593922 -763561 -8422529 -32897
        -9</internalNodes>
      <leafValues>
        -1.9506190717220306e-01 3.3304679393768311e-01</leafValues></_>
    <_>
      <internalNodes>
        0 -1 5844 202387253 -1359151116 -268439553 -1342373899
        -1073840131 -1 -1073799169 -1359213548</internalNodes>
      <leafValues>
        -3.0325403809547424e-01 1.9555754959583282e-01</leafValues></_>
    <_>
      <internalNodes>
        0 -1 7590 -403736633 -2113945617 -43065 -167788561 -1073819666
        -2080440835 -1243613185 301406635</internalNodes>
      <leafValues>
        -1.8574596941471100e-01 2.5850242376327515e-01</leafValues></_>
    <_>
      <internalNodes>
        0 -1 6392 485760373 -229377 -4194505 -360584 -55509131 -524299
        -29474819 -1096802384</internalNodes>
      <leafValues>
        -2.9877594113349915e-01 1.5042814612388611e-01</leafValues></_>
    <_>
      <internalNodes>
        0 -1 1432 1584721134 1567948780 -84220764 -571412828 -252393370
        -84478234 -529316668 -170799036</internalNodes>
      <leafValues>
        -3.5615390539169312e-01 1.5635144710540771e-01</leafValues></_>
    <_>
      <internalNodes>
        0 -1 592 -22062017 -402685953 1834811042 -50414850 -402686205
        2004844467 1870626597 -185073803</internalNodes>
      <leafValues>
        -2.4967910349369049e-01 1.8035462498664856e-01</leafValues></_>
    <_>
      <internalNodes>
        0 -1 232 571344229 -1478053961 -20497 -1074877533 -16818177 -1
        -20481 -34251404</internalNodes>
      <leafValues>
        -2.1744394302368164e-01 2.1105471253395081e-01</leafValues></_>
    <_>
      <internalNodes>
        0 -1 1241 -521223097 -268515361 -221839437 1833067778 -118095620
        -84541316 -18825537 1916226175</internalNodes>
      <leafValues>
        -2.1390111744403839e-01 1.9441063702106476e-01</leafValues></_>
    <_>
      <internalNodes>
        0 -1 1183 -956314545 -294719889 -257011715 -9737330 -194751388
        1970488883 -260776514 1934778151</internalNodes>
      <leafValues>
        -2.4153909087181091e-01 1.6219027340412140e-01</leafValues></_>
    <_>
      <internalNodes>
        0 -1 2404 -285750098 -1058403075 -488927397 1342089514
        1471168756 1392459829 -31392780 1601394455</internalNodes>
      <leafValues>
        -2.5821936130523682e-01 1.4068417251110077e-01</leafValues></_>
    <_>
      <internalNodes>
        0 -1 1350 -991248226 -186273877 -897025 -823087326 -1095098401
        -5026790 -1373515922 -395976889</internalNodes>
      <leafValues>
        -1.9236724078655243e-01 1.8507584929466248e-01</leafValues></_>
    <_>
      <internalNodes>
        0 -1 5240 116873719 -553713665 -353666452 -1459716097
        -1745472185 -16810403 -13312453 -260571323</internalNodes>
      <leafValues>
        -1.8384303152561188e-01 1.9383521378040314e-01</leafValues></_>
    <_>
      <internalNodes>
        0 -1 8363 -1077969625 -1358966801 -2097170 -1375772707
        -1212418073 -1929585084 -1212432385 -1342745131</internalNodes>
      <leafValues>
        -1.7118239402770996e-01 2.0706798136234283e-01</leafValues></_>
    <_>
      <internalNodes>
        0 -1 93 543433383 934946806 -341573131 98730211 -301994545
        -573771779 -842243602 -1930450698</internalNodes>
      <leafValues>
        -1.7469552159309387e-01 1.9866324961185455e-01</leafValues></_>
    <_>
      <internalNodes>
        0 -1 1331 -466205195 -2013299201 -704661529 -33539 1073176447
        1868529535 -134863005 -21076363</internalNodes>
      <leafValues>
        -1.8159915506839752e-01 1.8191902339458466e-01</leafValues></_>
    <_>
      <internalNodes>
        0 -1 5943 1294757684 565992689 260714431 1572605386 -1346572875
        -1350664323 787393964 1068185007</internalNodes>
      <leafValues>
        -1.9302485883235931e-01 1.7351469397544861e-01</leafValues></_>
    <_>
      <internalNodes>
        0 -1 137 -935002378 -1557996745 2128553591 942852642 -68734977
        -391643297 1937077110 -462071806</internalNodes>
      <leafValues>
        -2.2192035615444183e-01 1.5266232192516327e-01</leafValues></_>
    <_>
      <internalNodes>
        0 -1 120 604127008 631406423 -1048715 -1416069279 -272631833
        1039138679 -553879563 -1464795600</internalNodes>
      <leafValues>
        -2.6979827880859375e-01 1.1196076124906540e-01</leafValues></_>
    <_>
      <internalNodes>
        0 -1 7626 15984295 218034111 -998824655 -973083665 -2139246851
        -2047639557 -2066508623 -2069168129</internalNodes>
      <leafValues>
        -1.7828279733657837e-01 1.7431229352951050e-01</leafValues></_>
    <_>
      <internalNodes>
        0 -1 3584 1811853158 1782886234 -814547145 -344945038 -286101024
        -461744651 66366245 1043536247</internalNodes>
      <leafValues>
        -2.4979819357395172e-01 1.2451082468032837e-01</leafValues></_>
    <_>
      <internalNodes>
        0 -1 119 -537070612 -101425872 1220020100 1752236800 -929237179
        1958699969 5816448 541402882</internalNodes>
      <leafValues>
        -3.6962184309959412e-01 7.7002353966236115e-02</leafValues></_>
    <_>
      <internalNodes>
        0 -1 5124 2135706160 -25272452 2146450393 1782075338 -151455888
        -352513 1058723080 674921419</internalNodes>
      <leafValues>
        -2.6540940999984741e-01 1.1239305883646011e-01</leafValues></_>
    <_>
      <internalNodes>
        0 -1 4265 -956643818 -56469738 1299135997 -862446 -822147842
        -51421449 -50365889 2035971011</internalNodes>
      <leafValues>
        -1.6785104572772980e-01 1.7567542195320129e-01</leafValues></_>
    <_>
      <internalNodes>
        0 -1 8442 -291320787 -973275139 -1259165918 -524357875
        -140657058 -436273153 -1225335244 -1599015628</internalNodes>
      <leafValues>
        -2.1227918565273285e-01 1.3924711942672729e-01</leafValues></_>
    <_>
      <internalNodes>
        0 -1 6465 -891419628 -1307918598 2112929277 -1556882625
        -480492298 -1369624659 -103464655 184618815</internalNodes>
      <leafValues>
        -2.2329246997833252e-01 1.2838955223560333e-01</leafValues></_>
    <_>
      <internalNodes>
        0 -1 422 801097718 -405348694 -772411952 -135004166 -1209634883
        1416588804 -178042959 -176692529</internalNodes>
      <leafValues>
        -1.4096274971961975e-01 2.0415973663330078e-01</leafValues></_>
    <_>
      <internalNodes>
        0 -1 5261 -827981803 -776454465 -282284801 -1490014721
        -1929509859 -1619153281 -562361778 2107426</internalNodes>
      <leafValues>
        -2.3033875226974487e-01 1.2448973208665848e-01</leafValues></_>
    <_>
      <internalNodes>
        0 -1 7622 -1230310095 -1356660869 -671088779 -608305282
        -1212162703 -33752453 -105022159 -1111871148</internalNodes>
      <leafValues>
        -1.7941287159919739e-01 1.5526188910007477e-01</leafValues></_>
    <_>
      <internalNodes>
        0 -1 3742 -61322155 -302792705 -1107349585 -1124188547
        1072709493 -9339021 -1074249878 -1104000224</internalNodes>
      <leafValues>
        -1.9260814785957336e-01 1.4194819331169128e-01</leafValues></_>
    <_>
      <internalNodes>
        0 -1 3195 -658800604 -75993097 -1390018562 463138730 -17547329
        -29417633 -124797042 -128483407</internalNodes>
      <leafValues>
        -1.6196686029434204e-01 1.6619345545768738e-01</leafValues></_>
    <_>
      <internalNodes>
        0 -1 569 -173045777 -269507097 -286380039 -745558392 2113877021
        1451173155 -101714807 -202965298</internalNodes>
      <leafValues>
        -1.3139718770980835e-01 2.0902910828590393e-01</leafValues></_>
    <_>
      <internalNodes>
        0 -1 4043 -78981784 -659542606 -545793228 1570276096 -1219053151
        -1296947696 -453515224 545477681</internalNodes>
      <leafValues>
        -2.6760464906692505e-01 1.0530430823564529e-01</leafValues></_>
    <_>
      <internalNodes>
        0 -1 3221 -740198571 -1179854978 -134217985 -1107476680
        -11694403 -738198145 -1610674963 -1917612991</internalNodes>
      <leafValues>
        -1.5128818154335022e-01 1.7873965203762054e-01</leafValues></_>
    <_>
      <internalNodes>
        0 -1 6318 1845411120 -319943040 -268691660 -860332181 871281585
        133703295 -1277087439 547110698</internalNodes>
      <leafValues>
        -2.7590417861938477e-01 9.9172748625278473e-02</leafValues></_>
    <_>
      <internalNodes>
        0 -1 7266 -1363875328 -1937740011 -520687488 -1730335103
        791733677 83870974 -1749239874 47677483</internalNodes>
      <leafValues>
        -2.2463959455490112e-01 1.1986754834651947e-01</leafValues></_>
    <_>
      <internalNodes>
        0 -1 8210 -1392620467 861437943 -1090633729 1060918655 -75843
        -32961 -553746518 -290431174</internalNodes>
      <leafValues>
        -1.6333714127540588e-01 1.6462208330631256e-01</leafValues></_>
    <_>
      <internalNodes>
        0 -1 5668 556140071 364519415 1438734087 -617134 366818741
        -1780491425 1434398728 968585418</internalNodes>
      <leafValues>
        -2.1265575289726257e-01 1.2244119495153427e-01</leafValues></_>
    <_>
      <internalNodes>
        0 -1 6182 -488210432 1783693293 2080145399 228654357 -254148540
        -229671604 1421173248 570719026</internalNodes>
      <leafValues>
        -3.1516116857528687e-01 8.3038114011287689e-02</leafValues></_></weakClassifiers></stage5>
</opencv_storage>
