<?xml version="1.0"?>
<opencv_storage>
<stage7>
  <maxWeakCount>64</maxWeakCount>
  <stageThreshold>-1.6071220636367798e+00</stageThreshold>
  <weakClassifiers>
    <_>
      <internalNodes>
        0 -1 4275 2004049239 -33283 -16814337 -9273346 -25219409
        -8434177 -855655169 -33849345</internalNodes>
      <leafValues>
        -2.4243946373462677e-01 2.5046470761299133e-01</leafValues></_>
    <_>
      <internalNodes>
        0 -1 6015 1055546877 1069236081 -1078460481 -1086689760
        -1175650305 -73138177 -1079967815 -1432204080</internalNodes>
      <leafValues>
        -1.9283470511436462e-01 2.2352819144725800e-01</leafValues></_>
    <_>
      <internalNodes>
        0 -1 6861 -285343659 -1610663169 -311297 -49163 -1090560771
        -1141147777 -252494353 998179871</internalNodes>
      <leafValues>
        -1.9127233326435089e-01 2.0737728476524353e-01</leafValues></_>
    <_>
      <internalNodes>
        0 -1 561 -8197 1879015411 -49166 -285262857 -536924339
        1878490995 -302030987 -268436099</internalNodes>
      <leafValues>
        -1.8256632983684540e-01 2.3307149112224579e-01</leafValues></_>
    <_>
      <internalNodes>
        0 -1 2524 2117469269 -698243 -50794507 1606426658 -294384412
        -95222715 -155928641 856897023</internalNodes>
      <leafValues>
        -2.3370701074600220e-01 1.6116307675838470e-01</leafValues></_>
    <_>
      <internalNodes>
        0 -1 2041 1650897779 1970059764 1291579353 687518202 -319371281
        -570609857 -320156467 636455099</internalNodes>
      <leafValues>
        -1.6710276901721954e-01 1.9888982176780701e-01</leafValues></_>
    <_>
      <internalNodes>
        0 -1 8274 -1930177369 -277885461 -17318350 -452989766 314261383
        -2136277626 -1212189449 -67108929</internalNodes>
      <leafValues>
        -1.4946645498275757e-01 2.4021595716476440e-01</leafValues></_>
    <_>
      <internalNodes>
        0 -1 648 -157040430 -506581467 -100669833 -20509120 -135852657
        -683193233 -1460678825 -631845884</internalNodes>
      <leafValues>
        -1.2927603721618652e-01 2.2589078545570374e-01</leafValues></_>
    <_>
      <internalNodes>
        0 -1 6212 204486449 -1350270987 -1342459907 -1073926156
        -1476975235 -1 1072762869 -1074000780</internalNodes>
      <leafValues>
        -2.4853202700614929e-01 1.2282512336969376e-01</leafValues></_>
    <_>
      <internalNodes>
        0 -1 245 1225521059 -626988304 -14582411 -270227417 -205785110
        -33817109 -203197143 -439884800</internalNodes>
      <leafValues>
        -1.7290313541889191e-01 1.7317457497119904e-01</leafValues></_>
    <_>
      <internalNodes>
        0 -1 7589 -8423625 -1050400843 -545259984 -706723871 -536871081
        107884885 -201326679 92541320</internalNodes>
      <leafValues>
        -1.9740697741508484e-01 1.5503826737403870e-01</leafValues></_>
    <_>
      <internalNodes>
        0 -1 1989 -1095104412 -1381597209 -151077339 -1279967435
        2134514484 -8388747 -1073859147 -1413849756</internalNodes>
      <leafValues>
        -2.5346490740776062e-01 9.9616050720214844e-02</leafValues></_>
    <_>
      <internalNodes>
        0 -1 2646 1281873700 -84652306 -2065834050 -1375719678
        -452998982 -168465666 1962258552 1959097203</internalNodes>
      <leafValues>
        -1.9054979085922241e-01 1.5966697037220001e-01</leafValues></_>
    <_>
      <internalNodes>
        0 -1 5229 -1296868271 -3 -593921 -557057 -561537 -17 -1355366418
        -1573392429</internalNodes>
      <leafValues>
        -1.5610651671886444e-01 1.9328431785106659e-01</leafValues></_>
    <_>
      <internalNodes>
        0 -1 4141 -1563627708 -1607426521 -834615517 1626526067
        -1411209312 -1850681859 252054277 7541175</internalNodes>
      <leafValues>
        -2.8762286901473999e-01 1.1271578073501587e-01</leafValues></_>
    <_>
      <internalNodes>
        0 -1 377 -5570752 -1131026 -67108942 -83968326 1446505439
        -1351090197 1895257079 -587248533</internalNodes>
      <leafValues>
        -1.6662220656871796e-01 1.7025412619113922e-01</leafValues></_>
    <_>
      <internalNodes>
        0 -1 165 -194707730 2137001216 -54376448 -746533600 -1150814594
        -1714888 -1426627545 -766126272</internalNodes>
      <leafValues>
        -2.7796640992164612e-01 1.1242933571338654e-01</leafValues></_>
    <_>
      <internalNodes>
        0 -1 8056 1291190356 -77629891 -155295907 1144684351 1993146364
        -797680539 -21725645 -1506775502</internalNodes>
      <leafValues>
        -2.4802531301975250e-01 1.0799984633922577e-01</leafValues></_>
    <_>
      <internalNodes>
        0 -1 3696 75482132 -30906761 1979613183 86399530 -189840131
        -253085443 -184781532 2131692091</internalNodes>
      <leafValues>
        -2.2151240706443787e-01 1.2077715247869492e-01</leafValues></_>
    <_>
      <internalNodes>
        0 -1 4119 -269728532 -138783729 -355073489 1399745798 1143997668
        2138260593 -797679656 1941592063</internalNodes>
      <leafValues>
        -1.8615226447582245e-01 1.3977181911468506e-01</leafValues></_>
    <_>
      <internalNodes>
        0 -1 7339 77071733 -839616003 -152158 -202080259 -1112229899
        -570957829 -1084428543 -1242036876</internalNodes>
      <leafValues>
        -2.2430963814258575e-01 1.2124112993478775e-01</leafValues></_>
    <_>
      <internalNodes>
        0 -1 1282 -400044579 -808517634 787353517 -5619806 1691305012
        1598447167 -320484281 -128647606</internalNodes>
      <leafValues>
        -1.6168914735317230e-01 1.6293220221996307e-01</leafValues></_>
    <_>
      <internalNodes>
        0 -1 85 1837065907 472418779 2146922306 1864056411 -229113857
        -1377372673 1752628810 -393548118</internalNodes>
      <leafValues>
        -1.4134177565574646e-01 1.8968209624290466e-01</leafValues></_>
    <_>
      <internalNodes>
        0 -1 7756 -1427049808 -1578565655 -1197300960 1619313576
        -1623999319 229560231 -1183989874 936371531</internalNodes>
      <leafValues>
        -1.7936298251152039e-01 1.4418797194957733e-01</leafValues></_>
    <_>
      <internalNodes>
        0 -1 6436 1063148628 -834895877 -21561346 -1140951170
        -1216938828 938860537 -21561364 -990740555</internalNodes>
      <leafValues>
        -1.9622682034969330e-01 1.2571834027767181e-01</leafValues></_>
    <_>
      <internalNodes>
        0 -1 5306 -1024028912 1000386416 -16109761 -1425526870
        -1179664376 -75805159 -766443008 184659459</internalNodes>
      <leafValues>
        -2.3562888801097870e-01 9.9639825522899628e-02</leafValues></_>
    <_>
      <internalNodes>
        0 -1 177 81998085 938077612 -35143763 -1744919244 -557846548
        -1074135057 2096068233 -1913318012</internalNodes>
      <leafValues>
        -2.0337441563606262e-01 1.2158271670341492e-01</leafValues></_>
    <_>
      <internalNodes>
        0 -1 1117 -369719218 724101196 -300922116 1466943682 -185202817
        2004042817 -93278226 1730352384</internalNodes>
      <leafValues>
        -2.4169112741947174e-01 1.0059595853090286e-01</leafValues></_>
    <_>
      <internalNodes>
        0 -1 2903 1914896358 1109569315 -298408081 -973426909 -159396483
        -462067933 1153761356 1482113345</internalNodes>
      <leafValues>
        -2.1289718151092529e-01 1.0759051144123077e-01</leafValues></_>
    <_>
      <internalNodes>
        0 -1 557 1223634436 -620845065 -1901449430 -1558042846
        1097102962 1081112182 1527968805 1650614971</internalNodes>
      <leafValues>
        -3.4235614538192749e-01 7.0583730936050415e-02</leafValues></_>
    <_>
      <internalNodes>
        0 -1 6011 -842104031 -59183629 -1077979341 -116894 1174299641
        368893785 -173582931 229512354</internalNodes>
      <leafValues>
        -1.8976773321628571e-01 1.2526577711105347e-01</leafValues></_>
    <_>
      <internalNodes>
        0 -1 423 1857769274 737963902 2147383600 2011201524 -6928647
        1609779121 -39289996 1350951554</internalNodes>
      <leafValues>
        -1.9574785232543945e-01 1.2236468493938446e-01</leafValues></_>
    <_>
      <internalNodes>
        0 -1 3220 -93036683 -1342423043 -218104268 805187564 -353081345
        -1140949025 2096397397 35923012</internalNodes>
      <leafValues>
        -2.2787645459175110e-01 1.0282465815544128e-01</leafValues></_>
    <_>
      <internalNodes>
        0 -1 4600 -657662668 1424117456 -268562500 262802570 -46338631
        -1082500368 805607485 409425839</internalNodes>
      <leafValues>
        -1.9232931733131409e-01 1.2345638871192932e-01</leafValues></_>
    <_>
      <internalNodes>
        0 -1 2605 2145275485 1877430215 -1143049298 -273518635
        -405311619 -289048755 -268495083 -273944587</internalNodes>
      <leafValues>
        -1.6308939456939697e-01 1.5274471044540405e-01</leafValues></_>
    <_>
      <internalNodes>
        0 -1 705 1121701078 1389161112 -1453511422 -1949552742
        -203949414 -8424321 -243577392 1348959074</internalNodes>
      <leafValues>
        -1.8168440461158752e-01 1.2827387452125549e-01</leafValues></_>
    <_>
      <internalNodes>
        0 -1 696 -1100069040 1877704685 -1359255870 -134262785
        1953920884 1207400303 -101814160 -219197068</internalNodes>
      <leafValues>
        -1.8752491474151611e-01 1.3257434964179993e-01</leafValues></_>
    <_>
      <internalNodes>
        0 -1 8181 148492171 704613375 1676282848 -1593996549 887882463
        18902905 -9449731 -791873538</internalNodes>
      <leafValues>
        -1.6380381584167480e-01 1.4620119333267212e-01</leafValues></_>
    <_>
      <internalNodes>
        0 -1 2246 -636296274 -150820239 -583184539 1843899600
        -1541998595 740451438 1827525451 1255621831</internalNodes>
      <leafValues>
        -1.5373164415359497e-01 1.4939598739147186e-01</leafValues></_>
    <_>
      <internalNodes>
        0 -1 3653 1861624626 549870959 -834466515 976368254 -431728828
        -42303620 1863644928 707948591</internalNodes>
      <leafValues>
        -2.7541306614875793e-01 8.2911372184753418e-02</leafValues></_>
    <_>
      <internalNodes>
        0 -1 47 -16978190 1337726720 -1733784192 1746928640 -889954476
        -428537083 4999476 4522240</internalNodes>
      <leafValues>
        -4.1474094986915588e-01 5.4485499858856201e-02</leafValues></_>
    <_>
      <internalNodes>
        0 -1 4793 -446693104 897519345 -169400097 -1402303338 -4376769
        -1107480863 -33557121 94717410</internalNodes>
      <leafValues>
        -2.0180530846118927e-01 1.1117304861545563e-01</leafValues></_>
    <_>
      <internalNodes>
        0 -1 496 -1899708572 -1427706898 -1476480608 -1275267592
        581202663 1043641983 -146376799 -432810415</internalNodes>
      <leafValues>
        -1.8755050003528595e-01 1.1497666686773300e-01</leafValues></_>
    <_>
      <internalNodes>
        0 -1 3722 -841087521 -204326025 -167772673 -1954281 -592751
        -42772715 -2118945361 -214172681</internalNodes>
      <leafValues>
        -9.4201050698757172e-02 2.2974649071693420e-01</leafValues></_>
    <_>
      <internalNodes>
        0 -1 730 -286332638 183110090 -620838388 140716078 1676629836
        1691182933 -621586290 7830341</internalNodes>
      <leafValues>
        -2.8112992644309998e-01 7.9422265291213989e-02</leafValues></_>
    <_>
      <internalNodes>
        0 -1 7627 -1883876044 -1359577739 -268575277 -343270346
        -2048548937 -923095115 -306351068 -2064498604</internalNodes>
      <leafValues>
        -2.0468534529209137e-01 1.0490155965089798e-01</leafValues></_>
    <_>
      <internalNodes>
        0 -1 5243 -621872221 279967675 -276908041 -168828298 1440741335
        -1527345071 1610543047 -802688145</internalNodes>
      <leafValues>
        -1.2478678673505783e-01 1.7172166705131531e-01</leafValues></_>
    <_>
      <internalNodes>
        0 -1 6714 1493048248 -916165984 -1146472531 -987145797
        -1483287255 83425240 632993067 621488552</internalNodes>
      <leafValues>
        -2.1025897562503815e-01 1.0211370885372162e-01</leafValues></_>
    <_>
      <internalNodes>
        0 -1 2479 -657473730 -789927817 24628575 -1512634613 -713234575
        -251733515 1576045423 2075804783</internalNodes>
      <leafValues>
        -1.3584646582603455e-01 1.5700894594192505e-01</leafValues></_>
    <_>
      <internalNodes>
        0 -1 5239 1455053949 -36733235 442466287 486162424 -285845947
        1960277109 -17028371 -1292423355</internalNodes>
      <leafValues>
        -1.5923556685447693e-01 1.3448825478553772e-01</leafValues></_>
    <_>
      <internalNodes>
        0 -1 4168 -16888579 -547000465 -159502594 1667951534 -155392026
        1962305335 -658477382 -214761810</internalNodes>
      <leafValues>
        -1.1955595761537552e-01 1.8418435752391815e-01</leafValues></_>
    <_>
      <internalNodes>
        0 -1 900 -1362100242 321288959 1205698037 1001029307 644693164
        -1149272644 1564818045 -931660118</internalNodes>
      <leafValues>
        -1.1270822584629059e-01 1.9194112718105316e-01</leafValues></_>
    <_>
      <internalNodes>
        0 -1 502 2060628704 50315518 -671140558 1189019642 18490649
        1610230705 670848852 1197776800</internalNodes>
      <leafValues>
        -2.1310313045978546e-01 1.0074836015701294e-01</leafValues></_>
    <_>
      <internalNodes>
        0 -1 2227 908203425 -1098319901 -1077948417 -1477658720
        -1073893889 -1343619073 -1091227971 -2136211424</internalNodes>
      <leafValues>
        -1.9360257685184479e-01 1.1082635819911957e-01</leafValues></_>
    <_>
      <internalNodes>
        0 -1 644 -166836988 -275903705 1073286135 -1394632536 -233176659
        256331123 662009613 1953873242</internalNodes>
      <leafValues>
        -1.9797824323177338e-01 1.0756307840347290e-01</leafValues></_>
    <_>
      <internalNodes>
        0 -1 528 -84171548 -1276211220 -704796704 -746642502 1711212748
        1697046303 2146776043 -944263817</internalNodes>
      <leafValues>
        -1.1774655431509018e-01 1.7877942323684692e-01</leafValues></_>
    <_>
      <internalNodes>
        0 -1 4469 -1153819279 -1342422024 -1409419485 -33718136
        -1520194049 -1882297089 -35232284 -1879112620</internalNodes>
      <leafValues>
        -1.4663231372833252e-01 1.4402037858963013e-01</leafValues></_>
    <_>
      <internalNodes>
        0 -1 6778 1833925378 275538886 1836724645 -42437896 -75497550
        -2053115214 199979296 83814587</internalNodes>
      <leafValues>
        -1.8325962126255035e-01 1.1599348485469818e-01</leafValues></_>
    <_>
      <internalNodes>
        0 -1 4890 -964231834 -47955997 -1308688689 523008992 -926234395
        -270743847 206405632 1355601413</internalNodes>
      <leafValues>
        -2.2917346656322479e-01 9.0793639421463013e-02</leafValues></_>
    <_>
      <internalNodes>
        0 -1 822 1678042684 1584852791 -690094291 -321679602 1220244988
        -1455792470 1266499947 215325398</internalNodes>
      <leafValues>
        -1.8570581078529358e-01 1.1406702548265457e-01</leafValues></_>
    <_>
      <internalNodes>
        0 -1 1158 80149576 -832690638 1562435373 492282635 -53192228
        -95394004 -25944589 279065794</internalNodes>
      <leafValues>
        -2.2137446701526642e-01 9.2756129801273346e-02</leafValues></_>
    <_>
      <internalNodes>
        0 -1 8083 -1040317270 603662233 -805480449 233505967 1353950907
        468415435 -42486241 1077993986</internalNodes>
      <leafValues>
        -1.8631760776042938e-01 1.1106356978416443e-01</leafValues></_>
    <_>
      <internalNodes>
        0 -1 4929 37246321 -1301251119 -1347256452 -1115908852
        -1142620929 859668413 483201456 -1359084268</internalNodes>
      <leafValues>
        -1.9531349837779999e-01 1.0925354808568954e-01</leafValues></_>
    <_>
      <internalNodes>
        0 -1 654 1953293506 -303511421 -186597659 418250796 -185786187
        -25231240 1694313137 1483107218</internalNodes>
      <leafValues>
        -1.9104534387588501e-01 1.1025267839431763e-01</leafValues></_></weakClassifiers></stage7>
</opencv_storage>
