<?xml version="1.0"?>
<opencv_storage>
<stage8>
  <maxWeakCount>72</maxWeakCount>
  <stageThreshold>-1.6445676088333130e+00</stageThreshold>
  <weakClassifiers>
    <_>
      <internalNodes>
        0 -1 58 -1317827188 521256328 594923161 1058254379 -1078248050
        -2155365 -1342240053 -1077958053</internalNodes>
      <leafValues>
        -2.7204856276512146e-01 1.8756982684135437e-01</leafValues></_>
    <_>
      <internalNodes>
        0 -1 1304 -252690224 -167965155 -4747275 -4903369 -387773285
        -8956805 -1461380609 -94413586</internalNodes>
      <leafValues>
        -2.5235638022422791e-01 1.9827203452587128e-01</leafValues></_>
    <_>
      <internalNodes>
        0 -1 73 67108992 -1288620240 454918015 -67302352 1058144159
        -534537 -1622171681 277304339</internalNodes>
      <leafValues>
        -2.8639045357704163e-01 1.3588348031044006e-01</leafValues></_>
    <_>
      <internalNodes>
        0 -1 465 -417409595 -144715307 -899726241 -278923691 775816013
        -1083303041 -551265075 1603210959</internalNodes>
      <leafValues>
        -1.5719431638717651e-01 2.2402134537696838e-01</leafValues></_>
    <_>
      <internalNodes>
        0 -1 8133 -797907276 -240064787 -1485506885 -34213905 -795549697
        1086254831 -170524673 -234882321</internalNodes>
      <leafValues>
        -1.5306009352207184e-01 2.4665425717830658e-01</leafValues></_>
    <_>
      <internalNodes>
        0 -1 280 35665696 -1081724994 -1477576723 -1078085720 -831193116
        -539111956 -843027972 75764016</internalNodes>
      <leafValues>
        -3.2754576206207275e-01 8.8512919843196869e-02</leafValues></_>
    <_>
      <internalNodes>
        0 -1 5144 1920356624 1599755888 -70698659 1561005850 -36391208
        -458756 -1080150259 1066080922</internalNodes>
      <leafValues>
        -2.5571414828300476e-01 1.2709748744964600e-01</leafValues></_>
    <_>
      <internalNodes>
        0 -1 7042 -1911927040 -50141212 -5722393 -37982416 -1212502027
        -405020707 -1383929944 -1920859136</internalNodes>
      <leafValues>
        -1.9206427037715912e-01 1.5648500621318817e-01</leafValues></_>
    <_>
      <internalNodes>
        0 -1 2186 -475860045 -645813525 -269598814 -169495420
        -1848975873 -576758401 594246008 -464550912</internalNodes>
      <leafValues>
        -1.6410386562347412e-01 1.7765648663043976e-01</leafValues></_>
    <_>
      <internalNodes>
        0 -1 1994 -34942760 1556895771 -34611265 -1649771742 -85288545
        993942078 -1105142002 942899047</internalNodes>
      <leafValues>
        -1.7378093302249908e-01 1.6243486106395721e-01</leafValues></_>
    <_>
      <internalNodes>
        0 -1 1920 -9676459 -340837976 2145540596 -268609284 -806265041
        -479953049 -15455753 -558773419</internalNodes>
      <leafValues>
        -1.6405659914016724e-01 1.7195367813110352e-01</leafValues></_>
    <_>
      <internalNodes>
        0 -1 6908 -321212928 -537227663 -388707073 1158212897 -642535251
        -645976025 -261629926 -223101165</internalNodes>
      <leafValues>
        -1.7732799053192139e-01 1.4968524873256683e-01</leafValues></_>
    <_>
      <internalNodes>
        0 -1 7948 -189205064 -923207169 -251678030 -1225005336
        -774226033 -1997078593 -67195153 -191960354</internalNodes>
      <leafValues>
        -1.4428696036338806e-01 1.8402586877346039e-01</leafValues></_>
    <_>
      <internalNodes>
        0 -1 17 -601050496 1965277148 -1448953168 -312131724 -592379909
        -415907911 -1393433347 207284810</internalNodes>
      <leafValues>
        -1.7949497699737549e-01 1.4921310544013977e-01</leafValues></_>
    <_>
      <internalNodes>
        0 -1 5652 1617088016 2141781633 1962761567 1030966611 -50475568
        -1648428034 -1359020835 1066864314</internalNodes>
      <leafValues>
        -2.1190772950649261e-01 1.2084672600030899e-01</leafValues></_>
    <_>
      <internalNodes>
        0 -1 6794 1115638213 859005603 1811892207 -577863721 1755308991
        -876876369 1288532430 -118492929</internalNodes>
      <leafValues>
        -1.1083511263132095e-01 2.2572208940982819e-01</leafValues></_>
    <_>
      <internalNodes>
        0 -1 2956 -352328976 -408502102 -423998956 -269613750 -231673092
        1078084648 1966141472 1629963359</internalNodes>
      <leafValues>
        -2.0973607897758484e-01 1.2079413235187531e-01</leafValues></_>
    <_>
      <internalNodes>
        0 -1 8042 -1005977444 -37822603 -51216484 1026968095 1861419001
        -1095311625 -25792584 2116029970</internalNodes>
      <leafValues>
        -2.1487492322921753e-01 1.1647842079401016e-01</leafValues></_>
    <_>
      <internalNodes>
        0 -1 5369 -1029528304 -35611237 -140174339 1302725929 -41974343
        -1616833031 -292727764 -622865393</internalNodes>
      <leafValues>
        -1.6273306310176849e-01 1.5531532466411591e-01</leafValues></_>
    <_>
      <internalNodes>
        0 -1 1179 -806370726 791408131 -523992835 -15754705 1868711680
        1466393703 -1670316691 1933797135</internalNodes>
      <leafValues>
        -2.0861497521400452e-01 1.1955250799655914e-01</leafValues></_>
    <_>
      <internalNodes>
        0 -1 62 -855844914 -576324224 -936902144 -26122496 -2124421660
        331306917 -2131181372 542375940</internalNodes>
      <leafValues>
        -3.4566536545753479e-01 7.1525387465953827e-02</leafValues></_>
    <_>
      <internalNodes>
        0 -1 7604 -1242671695 -437302171 -1212477519 -184595401
        -1175454323 -2055471635 -1312893762 -1247069006</internalNodes>
      <leafValues>
        -1.4472015202045441e-01 1.6565777361392975e-01</leafValues></_>
    <_>
      <internalNodes>
        0 -1 8167 -450138712 -443077148 -1074403475 -164425921 -72089693
        74972914 -41026163 -995932956</internalNodes>
      <leafValues>
        -1.6286070644855499e-01 1.3942988216876984e-01</leafValues></_>
    <_>
      <internalNodes>
        0 -1 0 609485941 552943572 783642168 995458908 -1120604674
        -1526858501 -974585876 8399898</internalNodes>
      <leafValues>
        -2.3507516086101532e-01 1.0182602703571320e-01</leafValues></_>
    <_>
      <internalNodes>
        0 -1 457 -17584665 -537940562 -132112 -253837384 128445647
        1877686937 -545423626 -206048529</internalNodes>
      <leafValues>
        -9.0646885335445404e-02 2.6396545767784119e-01</leafValues></_>
    <_>
      <internalNodes>
        0 -1 5680 2083543120 2096911223 -570982471 889068463 -85434923
        -67141634 -298152047 -1462731072</internalNodes>
      <leafValues>
        -2.7347737550735474e-01 8.2440383732318878e-02</leafValues></_>
    <_>
      <internalNodes>
        0 -1 4013 -737944128 2011352998 -1935676175 -538839181
        -388381491 -1713264923 1214236715 1657233031</internalNodes>
      <leafValues>
        -1.5866643190383911e-01 1.4342544972896576e-01</leafValues></_>
    <_>
      <internalNodes>
        0 -1 3501 -1393761924 -1354874450 -1409658592 2137539488
        624727548 -1213310612 540028988 548156375</internalNodes>
      <leafValues>
        -2.7656963467597961e-01 8.1644222140312195e-02</leafValues></_>
    <_>
      <internalNodes>
        0 -1 1203 779552316 126557228 1727919487 1366261098 1819684855
        1131287298 -1364967616 1749475246</internalNodes>
      <leafValues>
        -2.1265558898448944e-01 1.0132340341806412e-01</leafValues></_>
    <_>
      <internalNodes>
        0 -1 1332 -1163895484 757513773 -588255569 -1343312339
        2013151052 -983859387 -302232577 -2014491059</internalNodes>
      <leafValues>
        -2.0403458178043365e-01 1.0991654545068741e-01</leafValues></_>
    <_>
      <internalNodes>
        0 -1 4575 -691348176 -787308628 -1879095203 1610501634 -6775315
        -67959110 -1733261060 447961515</internalNodes>
      <leafValues>
        -1.5470923483371735e-01 1.4043562114238739e-01</leafValues></_>
    <_>
      <internalNodes>
        0 -1 5700 -1246866990 -736695273 -689577329 1034887106
        -1626024521 -1195574241 930152363 -117965039</internalNodes>
      <leafValues>
        -1.2365468591451645e-01 1.7494750022888184e-01</leafValues></_>
    <_>
      <internalNodes>
        0 -1 8003 -487669074 1650608596 1593720482 -286589278 -84000601
        41842804 -1644241157 -1072466014</internalNodes>
      <leafValues>
        -1.7920163273811340e-01 1.2085437774658203e-01</leafValues></_>
    <_>
      <internalNodes>
        0 -1 728 -1291969500 264199977 -1110132 -539187852 251541239
        -2031190289 -135109131 -4563462</internalNodes>
      <leafValues>
        -1.4986984431743622e-01 1.4734904468059540e-01</leafValues></_>
    <_>
      <internalNodes>
        0 -1 420 2127559944 -605209289 -167955536 -169925609 561959509
        -1632890367 475419179 106880212</internalNodes>
      <leafValues>
        -1.7135663330554962e-01 1.2527722120285034e-01</leafValues></_>
    <_>
      <internalNodes>
        0 -1 3669 1712065604 1944852345 -151114313 1062339900 2004174060
        -29354121 -1268919116 1009875618</internalNodes>
      <leafValues>
        -2.9476109147071838e-01 7.4102304875850677e-02</leafValues></_>
    <_>
      <internalNodes>
        0 -1 173 -536871937 -139779 -587999233 -148563 -354422785
        -1073741889 -935378737 -2097233</internalNodes>
      <leafValues>
        -5.1290269941091537e-02 4.2630806565284729e-01</leafValues></_>
    <_>
      <internalNodes>
        0 -1 6646 -8193 -5527653 -388378727 -33685840 -36851781
        704292415 -572654821 -167775437</internalNodes>
      <leafValues>
        -7.0814333856105804e-02 2.9069423675537109e-01</leafValues></_>
    <_>
      <internalNodes>
        0 -1 6236 17831281 -131087 -1073905665 -536879108 -1616440339
        -335650819 768743287 -1350814411</internalNodes>
      <leafValues>
        -1.6672398149967194e-01 1.2357576191425323e-01</leafValues></_>
    <_>
      <internalNodes>
        0 -1 4341 -1073313392 1567830455 217894104 -1556740873 -68321443
        -1082503400 -1529586209 672465046</internalNodes>
      <leafValues>
        -1.7999100685119629e-01 1.1330865323543549e-01</leafValues></_>
    <_>
      <internalNodes>
        0 -1 6464 -1065899438 -1002118463 -902331607 -1046283205
        -1994536318 -1941617966 636974858 -2123631273</internalNodes>
      <leafValues>
        -1.4558218419551849e-01 1.4064875245094299e-01</leafValues></_>
    <_>
      <internalNodes>
        0 -1 6853 26345744 -4768268 1927973085 -40653091 -1897545783
        -1380160163 486422015 -2010119102</internalNodes>
      <leafValues>
        -1.8908439576625824e-01 1.0698936879634857e-01</leafValues></_>
    <_>
      <internalNodes>
        0 -1 448 -50667698 -664483713 -506368218 -1854730434 -51577049
        -261040892 1165499831 1081280789</internalNodes>
      <leafValues>
        -2.5269195437431335e-01 8.1397064030170441e-02</leafValues></_>
    <_>
      <internalNodes>
        0 -1 383 422301167 2147155676 -1862511503 -1351620675 -440760341
        -277395445 -1113261748 -257564465</internalNodes>
      <leafValues>
        -9.4924233853816986e-02 2.1814005076885223e-01</leafValues></_>
    <_>
      <internalNodes>
        0 -1 591 -1876151282 -1626384610 -1291944001 -1209838784
        -1862974297 -214557969 -1124787020 598412300</internalNodes>
      <leafValues>
        -1.9190810620784760e-01 1.0617668181657791e-01</leafValues></_>
    <_>
      <internalNodes>
        0 -1 6793 -2006778335 1944483268 -585072834 -39301426 -38961219
        446619056 -266504707 83260530</internalNodes>
      <leafValues>
        -1.7518733441829681e-01 1.1972016096115112e-01</leafValues></_>
    <_>
      <internalNodes>
        0 -1 4154 1148992352 1231581016 2121939953 36374050 -293183843
        -66951204 -289999307 976946447</internalNodes>
      <leafValues>
        -2.2531566023826599e-01 9.2790514230728149e-02</leafValues></_>
    <_>
      <internalNodes>
        0 -1 2585 -163843 -1349566673 -872600720 -2659225 -814338216
        -2126684577 -675532988 -67113133</internalNodes>
      <leafValues>
        -1.3434086740016937e-01 1.6603486239910126e-01</leafValues></_>
    <_>
      <internalNodes>
        0 -1 8425 -202322129 -206172245 -209882268 -486732054 -268767809
        -805408834 -16843322 -1493741754</internalNodes>
      <leafValues>
        -1.1134543269872665e-01 1.8348836898803711e-01</leafValues></_>
    <_>
      <internalNodes>
        0 -1 3745 -793653027 -583434771 2011623295 -845279441 -299728913
        -42044033 -457441394 -324698490</internalNodes>
      <leafValues>
        -1.0352151095867157e-01 1.9740371406078339e-01</leafValues></_>
    <_>
      <internalNodes>
        0 -1 329 902838176 -1582682976 -59310094 -520182558 112146430
        -15287233 1558658555 350568548</internalNodes>
      <leafValues>
        -2.3958362638950348e-01 8.3358503878116608e-02</leafValues></_>
    <_>
      <internalNodes>
        0 -1 4658 -153334722 -690659617 -86102081 -1309005053 1987054908
        1122918239 -17006595 -1161941090</internalNodes>
      <leafValues>
        -1.3388574123382568e-01 1.5365496277809143e-01</leafValues></_>
    <_>
      <internalNodes>
        0 -1 3276 -996363341 2076899503 -825694212 1856962112 1173302751
        11501487 -71870092 1878754384</internalNodes>
      <leafValues>
        -1.4742785692214966e-01 1.3424752652645111e-01</leafValues></_>
    <_>
      <internalNodes>
        0 -1 3538 -4289972 1361757903 1050807996 1436847112 -793197348
        1181110342 -764101000 1874317191</internalNodes>
      <leafValues>
        -1.4336808025836945e-01 1.3387563824653625e-01</leafValues></_>
    <_>
      <internalNodes>
        0 -1 4315 -666955768 245282702 906324494 1196026828 1484677049
        1989729472 -447753199 -716966201</internalNodes>
      <leafValues>
        -1.8428416550159454e-01 1.0597860068082809e-01</leafValues></_>
    <_>
      <internalNodes>
        0 -1 264 -1241255124 -635353856 -50663494 -1135409107 -1574937
        -1100662540 -194560830 281529573</internalNodes>
      <leafValues>
        -1.9237528741359711e-01 9.9288605153560638e-02</leafValues></_>
    <_>
      <internalNodes>
        0 -1 7781 -202735864 -438382811 -1825054432 -1057014899
        -2017265707 1294924797 1737676792 -1523679780</internalNodes>
      <leafValues>
        -1.6312552988529205e-01 1.2051697075366974e-01</leafValues></_>
    <_>
      <internalNodes>
        0 -1 92 -422090817 270533426 241848175 767098393 -547889476
        -304237579 -303478518 -525535154</internalNodes>
      <leafValues>
        -1.1805104464292526e-01 1.6261605918407440e-01</leafValues></_>
    <_>
      <internalNodes>
        0 -1 8457 -1355745467 66334702 -352358937 -539467793 1740629613
        1197490086 2130141023 -177512540</internalNodes>
      <leafValues>
        -1.3698019087314606e-01 1.4205275475978851e-01</leafValues></_>
    <_>
      <internalNodes>
        0 -1 8273 -1292470836 -990904339 -1744846878 -421237268
        -1972635803 -2031747245 -1074850528 -1242288845</internalNodes>
      <leafValues>
        -1.6024456918239594e-01 1.1948014050722122e-01</leafValues></_>
    <_>
      <internalNodes>
        0 -1 641 -109808572 -343134284 997874418 680488181 1534948829
        213900727 436174309 297616725</internalNodes>
      <leafValues>
        -2.0440720021724701e-01 9.3582704663276672e-02</leafValues></_>
    <_>
      <internalNodes>
        0 -1 8402 144704724 -1275847371 1023196891 -1682108367 33316343
        -1135329483 -1344749574 10486304</internalNodes>
      <leafValues>
        -3.1249627470970154e-01 6.0733933001756668e-02</leafValues></_>
    <_>
      <internalNodes>
        0 -1 4732 -253238313 -548485033 -1241547297 -135069313
        -524304651 -573845 -170073363 -185106849</internalNodes>
      <leafValues>
        -7.8820124268531799e-02 2.4328170716762543e-01</leafValues></_>
    <_>
      <internalNodes>
        0 -1 1360 -1942320032 -1897411545 1606073263 -139297187
        -1103741564 -135528529 534158303 -1890336649</internalNodes>
      <leafValues>
        -1.3592551648616791e-01 1.4171458780765533e-01</leafValues></_>
    <_>
      <internalNodes>
        0 -1 2145 1130506012 1784930421 243232563 1145356926 1934986681
        794996981 1844907339 -865669005</internalNodes>
      <leafValues>
        -1.6708296537399292e-01 1.1431528627872467e-01</leafValues></_>
    <_>
      <internalNodes>
        0 -1 497 484346956 -144900162 -268470368 -260293773 1794268637
        -1296794115 1196234141 -774413515</internalNodes>
      <leafValues>
        -1.6390468180179596e-01 1.2174934893846512e-01</leafValues></_>
    <_>
      <internalNodes>
        0 -1 7103 -977107904 -553356337 -412467391 1997504434 210535114
        1005019135 1152156740 1089792772</internalNodes>
      <leafValues>
        -2.3847134411334991e-01 8.1707105040550232e-02</leafValues></_>
    <_>
      <internalNodes>
        0 -1 3069 -537246706 1965325322 544419711 2071146242 -556597325
        1953975408 -63911963 1914892207</internalNodes>
      <leafValues>
        -1.5501883625984192e-01 1.2350028753280640e-01</leafValues></_>
    <_>
      <internalNodes>
        0 -1 6043 684625415 1294622238 -210708701 -547050398 1430095293
        -1922150497 -457884516 -1196805672</internalNodes>
      <leafValues>
        -1.4934587478637695e-01 1.2745584547519684e-01</leafValues></_>
    <_>
      <internalNodes>
        0 -1 7930 -346553606 -1950728193 2050093873 -297408731
        -761331569 1548508127 -1076414533 1905716871</internalNodes>
      <leafValues>
        -1.4703172445297241e-01 1.3252791762351990e-01</leafValues></_>
    <_>
      <internalNodes>
        0 -1 6909 -806699008 800199038 -200682499 -1486837779 1439634623
        -843905537 1415950344 -776613962</internalNodes>
      <leafValues>
        -1.4734691381454468e-01 1.2907595932483673e-01</leafValues></_>
    <_>
      <internalNodes>
        0 -1 128 1566994323 822144695 -38281225 -153104859 -751468578
        -1156219531 -541028900 -251832996</internalNodes>
      <leafValues>
        -1.2442438304424286e-01 1.5319329500198364e-01</leafValues></_></weakClassifiers></stage8>
</opencv_storage>
