<?xml version="1.0"?>
<opencv_storage>
<stage9>
  <maxWeakCount>80</maxWeakCount>
  <stageThreshold>-1.6073269844055176e+00</stageThreshold>
  <weakClassifiers>
    <_>
      <internalNodes>
        0 -1 171 807599338 858914353 1624924192 -1222543839 -13898613
        -2513 -262283061 -1075843573</internalNodes>
      <leafValues>
        -2.7686145901679993e-01 1.5148265659809113e-01</leafValues></_>
    <_>
      <internalNodes>
        0 -1 4728 -168405675 -12643713 -16909121 2131893599 -587969281
        -83919266 -50414401 -98338</internalNodes>
      <leafValues>
        -1.9272750616073608e-01 2.0569890737533569e-01</leafValues></_>
    <_>
      <internalNodes>
        0 -1 3 69473312 1065159825 -268503669 -234940927 -1074270801
        796093427 -1073741845 1014447795</internalNodes>
      <leafValues>
        -3.0477717518806458e-01 1.1790687590837479e-01</leafValues></_>
    <_>
      <internalNodes>
        0 -1 8430 1080819900 -235135188 1409032171 -587210836 2125981695
        -8201 -348241 -16822289</internalNodes>
      <leafValues>
        -1.2557335197925568e-01 2.4285113811492920e-01</leafValues></_>
    <_>
      <internalNodes>
        0 -1 1173 -79178283 -1108665 -1140911393 -1677781544 1069318111
        -805364525 2141600733 -67169057</internalNodes>
      <leafValues>
        -1.5927848219871521e-01 2.0566658675670624e-01</leafValues></_>
    <_>
      <internalNodes>
        0 -1 755 1852217122 -78406127 -1079312009 -205007611 -589435410
        -805335559 -534454182 -1064041472</internalNodes>
      <leafValues>
        -2.4356469511985779e-01 1.1212003976106644e-01</leafValues></_>
    <_>
      <internalNodes>
        0 -1 703 -252002082 -1732056397 -1342754818 -1391608150
        -204502888 -905034193 751013770 282582671</internalNodes>
      <leafValues>
        -1.5395040810108185e-01 1.9537714123725891e-01</leafValues></_>
    <_>
      <internalNodes>
        0 -1 2604 -2041654242 -180265697 -539003553 1057309455
        -2130804594 -184628482 50307739 2147434745</internalNodes>
      <leafValues>
        -1.9590122997760773e-01 1.3443502783775330e-01</leafValues></_>
    <_>
      <internalNodes>
        0 -1 2608 -50526123 -117556129 -100716553 -4374771 -285930123
        -8421771 -1393726595 -1355585500</internalNodes>
      <leafValues>
        -1.7757715284824371e-01 1.5143035352230072e-01</leafValues></_>
    <_>
      <internalNodes>
        0 -1 6807 -890256956 331679702 1364913659 1145855556 1954423786
        1215042784 1585412575 1148679287</internalNodes>
      <leafValues>
        -2.0429509878158569e-01 1.2747994065284729e-01</leafValues></_>
    <_>
      <internalNodes>
        0 -1 7377 -553777934 -1145328590 -454017103 -1422708981
        1289011450 -2005662985 -599503431 -1053610049</internalNodes>
      <leafValues>
        -1.4537167549133301e-01 1.7046897113323212e-01</leafValues></_>
    <_>
      <internalNodes>
        0 -1 800 -214898792 -99996760 951809913 -295584 -145111556
        991294253 -60826372 544808026</internalNodes>
      <leafValues>
        -1.6868151724338531e-01 1.4352206885814667e-01</leafValues></_>
    <_>
      <internalNodes>
        0 -1 3767 -696257206 -145023086 -218145825 -49184907 -159746357
        1915912119 -90506353 -598516463</internalNodes>
      <leafValues>
        -1.1628106236457825e-01 1.9916930794715881e-01</leafValues></_>
    <_>
      <internalNodes>
        0 -1 1919 -625803144 -403735193 209072378 2074754863 2004005506
        1191058785 1910777574 -24667</internalNodes>
      <leafValues>
        -1.6811156272888184e-01 1.4468364417552948e-01</leafValues></_>
    <_>
      <internalNodes>
        0 -1 7973 -134319165 -1487035035 -1338558809 -1863993347
        -221458492 -2084176131 -134281233 299176227</internalNodes>
      <leafValues>
        -1.7445147037506104e-01 1.4051660895347595e-01</leafValues></_>
    <_>
      <internalNodes>
        0 -1 6488 -890600880 2144626673 -83886081 1337621425 -1595276039
        -1898154497 24576 -1002969581</internalNodes>
      <leafValues>
        -1.9537167251110077e-01 1.1643350124359131e-01</leafValues></_>
    <_>
      <internalNodes>
        0 -1 8085 -657933016 972143410 -1646419467 761570858 -1795891841
        -1879285829 -743108530 32514434</internalNodes>
      <leafValues>
        -2.7270001173019409e-01 8.7380178272724152e-02</leafValues></_>
    <_>
      <internalNodes>
        0 -1 785 -638201020 524531457 519146365 649081746 -624429123
        -12200617 -1095426465 -1352287609</internalNodes>
      <leafValues>
        -1.5303380787372589e-01 1.5316872298717499e-01</leafValues></_>
    <_>
      <internalNodes>
        0 -1 683 -1079849916 -810623364 -541652563 -1879789947
        1970689038 124149113 490425599 101075985</internalNodes>
      <leafValues>
        -2.1534781157970428e-01 1.0480745881795883e-01</leafValues></_>
    <_>
      <internalNodes>
        0 -1 7990 -1080297541 -438149784 -570950149 -721609251
        -1090650113 -840958021 -1178616321 -709406376</internalNodes>
      <leafValues>
        -1.0672856867313385e-01 2.1346476674079895e-01</leafValues></_>
    <_>
      <internalNodes>
        0 -1 1663 -215812100 1996578301 -271855873 521231145 -1116678657
        -1217652484 116794607 1448991881</internalNodes>
      <leafValues>
        -1.4482556283473969e-01 1.5528406202793121e-01</leafValues></_>
    <_>
      <internalNodes>
        0 -1 5540 -112394316 493639019 1257115579 -806598424 -926623044
        -1683071236 -1393760204 799228795</internalNodes>
      <leafValues>
        -1.7964524030685425e-01 1.2111373245716095e-01</leafValues></_>
    <_>
      <internalNodes>
        0 -1 2471 -866137042 36179016 1123697470 594765728 -730840784
        1897010483 -63897680 307369731</internalNodes>
      <leafValues>
        -2.8540146350860596e-01 8.0951899290084839e-02</leafValues></_>
    <_>
      <internalNodes>
        0 -1 5235 1018780894 -661299323 -219722145 -621519137 -566603794
        -8815761 445013339 -661172139</internalNodes>
      <leafValues>
        -1.4801211655139923e-01 1.4838038384914398e-01</leafValues></_>
    <_>
      <internalNodes>
        0 -1 6499 -317984770 -1658135171 -1344537633 -542320760
        -2010592131 -1615079107 1283248192 1476342610</internalNodes>
      <leafValues>
        -1.5021488070487976e-01 1.4608444273471832e-01</leafValues></_>
    <_>
      <internalNodes>
        0 -1 286 -282434060 1907779251 -1380188231 -171393 -1247243
        -54810634 515296424 -1127253769</internalNodes>
      <leafValues>
        -1.1154025793075562e-01 1.9271330535411835e-01</leafValues></_>
    <_>
      <internalNodes>
        0 -1 5647 796286256 -696828073 -542416975 -1625140144 -34474763
        -16974017 -50397251 -1078847085</internalNodes>
      <leafValues>
        -1.3787248730659485e-01 1.5502147376537323e-01</leafValues></_>
    <_>
      <internalNodes>
        0 -1 5262 -1053686508 1933377976 -268503169 154219826 -359961410
        -1074051717 214842554 718130688</internalNodes>
      <leafValues>
        -2.1434399485588074e-01 9.5213040709495544e-02</leafValues></_>
    <_>
      <internalNodes>
        0 -1 6291 -570622179 -849244207 -506026563 1220456072 470462381
        208813407 619588781 814102403</internalNodes>
      <leafValues>
        -1.7116266489028931e-01 1.1976777762174606e-01</leafValues></_>
    <_>
      <internalNodes>
        0 -1 8187 -942781715 1375440060 939482863 297552056 -797058817
        1993950911 2113173407 -790633729</internalNodes>
      <leafValues>
        -1.0974983125925064e-01 1.8987059593200684e-01</leafValues></_>
    <_>
      <internalNodes>
        0 -1 5315 -584922878 1459650430 1823395099 -1627358304 139217925
        -838008626 1089372160 1074057744</internalNodes>
      <leafValues>
        -2.8993275761604309e-01 7.2605215013027191e-02</leafValues></_>
    <_>
      <internalNodes>
        0 -1 1768 477025688 -1914827062 -580608206 872615720 1221509332
        -270738968 1324102386 9069283</internalNodes>
      <leafValues>
        -2.2648367285728455e-01 8.9916206896305084e-02</leafValues></_>
    <_>
      <internalNodes>
        0 -1 2990 -360788914 -972626302 1779362322 1470644738 1702647364
        282692 1383364444 1347573363</internalNodes>
      <leafValues>
        -2.6916188001632690e-01 7.7839240431785583e-02</leafValues></_>
    <_>
      <internalNodes>
        0 -1 8302 -1375730512 -69517345 445789819 997539583 -1090775044
        -1128513866 -272876132 -1182787584</internalNodes>
      <leafValues>
        -1.8691024184226990e-01 1.0471440106630325e-01</leafValues></_>
    <_>
      <internalNodes>
        0 -1 563 1367343088 652177193 1593770068 -486573441 -1413600375
        456989724 1350390503 -1997703099</internalNodes>
      <leafValues>
        -1.5614269673824310e-01 1.3014410436153412e-01</leafValues></_>
    <_>
      <internalNodes>
        0 -1 3645 -1426256356 -814331265 -2108551425 1715612462
        -151761937 1460894275 -646918561 1059109643</internalNodes>
      <leafValues>
        -1.9654467701911926e-01 1.0755906254053116e-01</leafValues></_>
    <_>
      <internalNodes>
        0 -1 6097 -502354314 12755199 -508100648 597949238 -1807304970
        -2007301167 -447254496 50581255</internalNodes>
      <leafValues>
        -1.9008935987949371e-01 1.0328506678342819e-01</leafValues></_>
    <_>
      <internalNodes>
        0 -1 529 -4468997 1811922680 -1677885518 -134267015 -287331585
        790593355 2122145783 -50856065</internalNodes>
      <leafValues>
        -7.6611801981925964e-02 2.6033130288124084e-01</leafValues></_>
    <_>
      <internalNodes>
        0 -1 3210 -541077456 -1828731554 1607382212 1566313786
        -156338185 -1191413162 -30491768 -934053034</internalNodes>
      <leafValues>
        -1.3288465142250061e-01 1.4688453078269958e-01</leafValues></_>
    <_>
      <internalNodes>
        0 -1 7472 -1035550131 -405317037 -1577910285 -470684747
        -834944819 -688445193 -922759473 -1528047089</internalNodes>
      <leafValues>
        -1.0302804410457611e-01 1.9430859386920929e-01</leafValues></_>
    <_>
      <internalNodes>
        0 -1 6438 -12723038 827117290 2107432819 -1905616 -897617461
        75448487 -1144062193 -185076265</internalNodes>
      <leafValues>
        -1.2389025092124939e-01 1.5787836909294128e-01</leafValues></_>
    <_>
      <internalNodes>
        0 -1 2619 1551385972 -303174099 -1076462081 -1108218115
        -19906748 -1763456540 -1225362122 -598512</internalNodes>
      <leafValues>
        -1.7861321568489075e-01 1.1116357892751694e-01</leafValues></_>
    <_>
      <internalNodes>
        0 -1 1875 239577464 1735331438 1075064550 848179184 -54895400
        -988848842 -17509128 -564331574</internalNodes>
      <leafValues>
        -1.3577991724014282e-01 1.4573235809803009e-01</leafValues></_>
    <_>
      <internalNodes>
        0 -1 348 -1097865096 855957585 -428646826 790676146 2146858468
        1937199160 1010846784 1098334225</internalNodes>
      <leafValues>
        -2.7475631237030029e-01 7.3691599071025848e-02</leafValues></_>
    <_>
      <internalNodes>
        0 -1 6550 -361061360 -1612447763 -622575681 256569109 -520740700
        859964462 -189416934 -228328669</internalNodes>
      <leafValues>
        -1.5873903036117554e-01 1.2351573258638382e-01</leafValues></_>
    <_>
      <internalNodes>
        0 -1 233 -1407035936 1475196899 -4194305 -671241482 1067343356
        1072162815 1860198315 142874116</internalNodes>
      <leafValues>
        -2.4129347503185272e-01 7.8398555517196655e-02</leafValues></_>
    <_>
      <internalNodes>
        0 -1 709 -601894780 -228413901 -37773378 -284865790 -858867793
        -151585037 -856796854 2144829243</internalNodes>
      <leafValues>
        -1.2704187631607056e-01 1.5260149538516998e-01</leafValues></_>
    <_>
      <internalNodes>
        0 -1 8461 -1576008512 786476525 -70537238 -1184067613 1992194142
        905604125 1069215743 -1346470338</internalNodes>
      <leafValues>
        -1.8025396764278412e-01 1.0973814874887466e-01</leafValues></_>
    <_>
      <internalNodes>
        0 -1 3427 -1217046706 1430363581 -34865316 -612795639 251291375
        1072470501 1288324313 -1028535037</internalNodes>
      <leafValues>
        -1.4552047848701477e-01 1.3159380853176117e-01</leafValues></_>
    <_>
      <internalNodes>
        0 -1 289 1967113702 524177050 -28025487 -1926905924 1060781464
        1512948472 1603108672 1210186922</internalNodes>
      <leafValues>
        -1.4702184498310089e-01 1.3090166449546814e-01</leafValues></_>
    <_>
      <internalNodes>
        0 -1 46 -537071366 -279647888 -895858800 -1073126621 -1849403650
        -313152224 -2143984138 538015010</internalNodes>
      <leafValues>
        -2.4835276603698730e-01 7.9809091985225677e-02</leafValues></_>
    <_>
      <internalNodes>
        0 -1 5820 -1442169295 -445629216 -808530089 -2238471 -1288987908
        -8456325 1065189374 -1073785387</internalNodes>
      <leafValues>
        -1.3223314285278320e-01 1.4436273276805878e-01</leafValues></_>
    <_>
      <internalNodes>
        0 -1 3768 917755006 2130390322 -1510051649 2054368178
        -1213307136 -1262853623 1270513483 -716705963</internalNodes>
      <leafValues>
        -1.5995661914348602e-01 1.2071837484836578e-01</leafValues></_>
    <_>
      <internalNodes>
        0 -1 7598 -269603082 -1053675697 -1431331072 -943768657
        -486036566 241581619 -162248170 357187611</internalNodes>
      <leafValues>
        -1.7603582143783569e-01 1.1082091927528381e-01</leafValues></_>
    <_>
      <internalNodes>
        0 -1 6777 71043620 221133991 -1086537935 -1178559600 -46426724
        -2142382787 -1256000220 805457683</internalNodes>
      <leafValues>
        -2.7078023552894592e-01 6.8341605365276337e-02</leafValues></_>
    <_>
      <internalNodes>
        0 -1 3586 -535904170 -46235752 -719423681 1043991882 -1134767627
        -71504401 2088644917 -1465648369</internalNodes>
      <leafValues>
        -1.2404002249240875e-01 1.5446656942367554e-01</leafValues></_>
    <_>
      <internalNodes>
        0 -1 4340 -382753764 1567970674 2126873983 -188956442 1286930197
        5629496 -294168770 1142358367</internalNodes>
      <leafValues>
        -1.6493162512779236e-01 1.1432452499866486e-01</leafValues></_>
    <_>
      <internalNodes>
        0 -1 8 -1532883580 682368288 798623781 657010473 -721547020
        366436288 1602153295 -1375706022</internalNodes>
      <leafValues>
        -1.8846164643764496e-01 1.0019286721944809e-01</leafValues></_>
    <_>
      <internalNodes>
        0 -1 8271 -1147407224 -1493193239 -17171410 -1562530307
        -1083967195 -708900059 -1149419668 -713357847</internalNodes>
      <leafValues>
        -1.3656048476696014e-01 1.3499234616756439e-01</leafValues></_>
    <_>
      <internalNodes>
        0 -1 3718 1966757869 -106611 2102749603 1998209023 -1418026028
        -288600195 -135499502 -1215575554</internalNodes>
      <leafValues>
        -1.1457692831754684e-01 1.6443018615245819e-01</leafValues></_>
    <_>
      <internalNodes>
        0 -1 5942 -42148355 1429263600 1878866743 1505607200 -1570336516
        1560167645 -855712263 -330057</internalNodes>
      <leafValues>
        -8.5748746991157532e-02 2.1827593445777893e-01</leafValues></_>
    <_>
      <internalNodes>
        0 -1 1100 364855216 -1012553115 2075924258 -1095320899 896679927
        -1637550099 1030566775 71767170</internalNodes>
      <leafValues>
        -1.8581466376781464e-01 9.9397465586662292e-02</leafValues></_>
    <_>
      <internalNodes>
        0 -1 6737 1013716404 -1081465420 -1124826507 -13085520
        2130113490 -1073988612 -201423854 1009780336</internalNodes>
      <leafValues>
        -3.3330729603767395e-01 5.5001333355903625e-02</leafValues></_>
    <_>
      <internalNodes>
        0 -1 7498 -1876262352 631863208 -1613562433 -313996564
        -1296265030 196749498 -177163382 1342206802</internalNodes>
      <leafValues>
        -2.1809805929660797e-01 8.1041619181632996e-02</leafValues></_>
    <_>
      <internalNodes>
        0 -1 2017 -1119988370 1861160382 -538316173 125006259 -63808506
        1169424311 -138905802 -123010279</internalNodes>
      <leafValues>
        -1.4410038292407990e-01 1.2410388141870499e-01</leafValues></_>
    <_>
      <internalNodes>
        0 -1 2192 -522012701 1386281186 99050901 534967842 995229645
        -1125085702 -1917631428 1307304188</internalNodes>
      <leafValues>
        -1.2436949461698532e-01 1.4614990353584290e-01</leafValues></_>
    <_>
      <internalNodes>
        0 -1 1596 1613443882 1914824097 -545573083 -322719006 1365733486
        -390646856 -915060628 -866135582</internalNodes>
      <leafValues>
        -1.3465593755245209e-01 1.3284279406070709e-01</leafValues></_>
    <_>
      <internalNodes>
        0 -1 2676 -763920873 -277006403 -17097219 -1531987165
        -1241583969 -1279459881 1895824624 -1545154414</internalNodes>
      <leafValues>
        -1.1702822893857956e-01 1.5186636149883270e-01</leafValues></_>
    <_>
      <internalNodes>
        0 -1 5054 -318845903 1986951663 -151025651 1914416688
        -1404293889 1249397750 -924562164 2029514743</internalNodes>
      <leafValues>
        -1.3228312134742737e-01 1.3418054580688477e-01</leafValues></_>
    <_>
      <internalNodes>
        0 -1 2361 -605074387 1208012425 -161718731 -515249016 1524009775
        1332109175 -621494411 275102892</internalNodes>
      <leafValues>
        -1.4798185229301453e-01 1.2143529206514359e-01</leafValues></_>
    <_>
      <internalNodes>
        0 -1 615 356126222 -545441953 1052736186 -573169896 -2078145354
        1425147459 -1397814228 2005108225</internalNodes>
      <leafValues>
        -2.1135477721691132e-01 8.5556060075759888e-02</leafValues></_>
    <_>
      <internalNodes>
        0 -1 5658 -244390489 -101728266 -706620073 -143436462
        -1335478801 1556991999 570381631 -1115697093</internalNodes>
      <leafValues>
        -9.1301098465919495e-02 2.0166006684303284e-01</leafValues></_>
    <_>
      <internalNodes>
        0 -1 2647 -1687004960 -880091661 -201889038 -134320201
        -1078023028 1308606463 -1080098837 -1151190493</internalNodes>
      <leafValues>
        -1.2831749022006989e-01 1.4708057045936584e-01</leafValues></_>
    <_>
      <internalNodes>
        0 -1 1761 -290542422 -1740608366 1043514201 1665368130
        1419121788 1650611308 -19917212 1429429521</internalNodes>
      <leafValues>
        -2.5319555401802063e-01 7.0855543017387390e-02</leafValues></_>
    <_>
      <internalNodes>
        0 -1 8081 -284523051 -1691939831 735165951 1341369323 -755106133
        -21004718 -604066629 -1331429421</internalNodes>
      <leafValues>
        -9.2324428260326385e-02 1.9407746195793152e-01</leafValues></_>
    <_>
      <internalNodes>
        0 -1 1984 681723032 1414184965 -214685704 253554466 1021969826
        2052480343 619529544 1953201375</internalNodes>
      <leafValues>
        -2.0784580707550049e-01 8.7315373122692108e-02</leafValues></_>
    <_>
      <internalNodes>
        0 -1 3747 -53772283 -1195353123 2127826911 720043856 -34816139
        2147450694 -778045268 -795378282</internalNodes>
      <leafValues>
        -1.3632197678089142e-01 1.3601689040660858e-01</leafValues></_>
    <_>
      <internalNodes>
        0 -1 1276 -68288224 732827618 1585389410 318591982 1057898059
        709255165 2144213839 -1648900779</internalNodes>
      <leafValues>
        -1.8045572936534882e-01 9.9617019295692444e-02</leafValues></_>
    <_>
      <internalNodes>
        0 -1 7986 -1296400916 -1595230100 -1208590414 -230856354
        -1157957673 618388787 -1249645357 -503885756</internalNodes>
      <leafValues>
        -1.4487874507904053e-01 1.2144256383180618e-01</leafValues></_>
    <_>
      <internalNodes>
        0 -1 380 585075716 -1610672200 -203473616 1300183357 1886835490
        -151366756 2080113636 1924978888</internalNodes>
      <leafValues>
        -1.6464838385581970e-01 1.0812567174434662e-01</leafValues></_></weakClassifiers></stage9>
</opencv_storage>
